<?xml version="1.0"?>
<MethodSetup Method="MLP::ANN_v1">
  <GeneralInfo>
    <Info name="TMVA Release" value="4.2.1 [262657]"/>
    <Info name="ROOT Release" value="6.10/09 [395785]"/>
    <Info name="Creator" value="mc_cheng"/>
    <Info name="Date" value="Mon Aug 31 22:24:17 2020"/>
    <Info name="Host" value="Linux cmsbuild76.cern.ch 2.6.32-696.30.1.el6.x86_64 #1 SMP Tue May 22 06:09:36 CEST 2018 x86_64 x86_64 x86_64 GNU/Linux"/>
    <Info name="Dir" value="/wk_cms2/mc_cheng/public/tqHGG/2017/MVArecoV2_train"/>
    <Info name="Training events" value="1244296"/>
    <Info name="TrainingTime" value="1.92667490e+04"/>
    <Info name="AnalysisType" value="Classification"/>
  </GeneralInfo>
  <Options>
    <Option name="NCycles" modified="No">500</Option>
    <Option name="HiddenLayers" modified="No">N,N-1</Option>
    <Option name="NeuronType" modified="No">sigmoid</Option>
    <Option name="RandomSeed" modified="No">1</Option>
    <Option name="EstimatorType" modified="No">CE</Option>
    <Option name="NeuronInputType" modified="No">sum</Option>
    <Option name="V" modified="Yes">True</Option>
    <Option name="VerbosityLevel" modified="No">Verbose</Option>
    <Option name="VarTransform" modified="Yes">N</Option>
    <Option name="H" modified="Yes">True</Option>
    <Option name="CreateMVAPdfs" modified="No">False</Option>
    <Option name="IgnoreNegWeightsInTraining" modified="Yes">True</Option>
    <Option name="TrainingMethod" modified="No">BP</Option>
    <Option name="LearningRate" modified="No">2.000000e-02</Option>
    <Option name="DecayRate" modified="No">1.000000e-02</Option>
    <Option name="TestRate" modified="No">10</Option>
    <Option name="EpochMonitoring" modified="No">False</Option>
    <Option name="Sampling" modified="No">1.000000e+00</Option>
    <Option name="SamplingEpoch" modified="No">1.000000e+00</Option>
    <Option name="SamplingImportance" modified="No">1.000000e+00</Option>
    <Option name="SamplingTraining" modified="No">True</Option>
    <Option name="SamplingTesting" modified="No">False</Option>
    <Option name="ResetStep" modified="No">50</Option>
    <Option name="Tau" modified="No">3.000000e+00</Option>
    <Option name="BPMode" modified="No">sequential</Option>
    <Option name="BatchSize" modified="No">-1</Option>
    <Option name="ConvergenceImprove" modified="No">1.000000e-30</Option>
    <Option name="ConvergenceTests" modified="No">-1</Option>
    <Option name="UseRegulator" modified="No">False</Option>
    <Option name="UpdateLimit" modified="No">10000</Option>
    <Option name="CalculateErrors" modified="No">False</Option>
    <Option name="WeightRange" modified="No">1.000000e+00</Option>
  </Options>
  <Variables NVar="14">
    <Variable VarIndex="0" Expression="bJet_Pt" Label="bJet_Pt" Title="bJet_Pt" Unit="" Internal="bJet_Pt" Type="F" Min="2.50000191e+01" Max="1.44337024e+03"/>
    <Variable VarIndex="1" Expression="bJet_Eta" Label="bJet_Eta" Title="bJet_Eta" Unit="" Internal="bJet_Eta" Type="F" Min="-2.39998460e+00" Max="2.39999104e+00"/>
    <Variable VarIndex="2" Expression="bJet_btag" Label="bJet_btag" Title="bJet_btag" Unit="" Internal="bJet_btag" Type="F" Min="-2.00000000e+00" Max="1.00000000e+00"/>
    <Variable VarIndex="3" Expression="WJet1_Pt" Label="WJet1_Pt" Title="WJet1_Pt" Unit="" Internal="WJet1_Pt" Type="F" Min="2.50231037e+01" Max="1.44337024e+03"/>
    <Variable VarIndex="4" Expression="WJet1_Eta" Label="WJet1_Eta" Title="WJet1_Eta" Unit="" Internal="WJet1_Eta" Type="F" Min="-2.39998364e+00" Max="2.39998174e+00"/>
    <Variable VarIndex="5" Expression="WJet1_btag" Label="WJet1_btag" Title="WJet1_btag" Unit="" Internal="WJet1_btag" Type="F" Min="-2.00000000e+00" Max="1.00000000e+00"/>
    <Variable VarIndex="6" Expression="WJet2_Pt" Label="WJet2_Pt" Title="WJet2_Pt" Unit="" Internal="WJet2_Pt" Type="F" Min="2.50000019e+01" Max="8.45294250e+02"/>
    <Variable VarIndex="7" Expression="WJet2_Eta" Label="WJet2_Eta" Title="WJet2_Eta" Unit="" Internal="WJet2_Eta" Type="F" Min="-2.39998460e+00" Max="2.39998269e+00"/>
    <Variable VarIndex="8" Expression="WJet2_btag" Label="WJet2_btag" Title="WJet2_btag" Unit="" Internal="WJet2_btag" Type="F" Min="-2.00000000e+00" Max="1.00000000e+00"/>
    <Variable VarIndex="9" Expression="M1" Label="M1" Title="M1" Unit="" Internal="M1" Type="F" Min="3.57900162e+01" Max="3.43918164e+03"/>
    <Variable VarIndex="10" Expression="MW" Label="MW" Title="MW" Unit="" Internal="MW" Type="F" Min="1.29778395e+01" Max="3.01686890e+03"/>
    <Variable VarIndex="11" Expression="dR_bW" Label="dR_bW" Title="dR_bW" Unit="" Internal="dR_bW" Type="F" Min="3.59582715e-03" Max="1.05247211e+01"/>
    <Variable VarIndex="12" Expression="dR_tH" Label="dR_tH" Title="dR_tH" Unit="" Internal="dR_tH" Type="F" Min="1.94160491e-02" Max="1.07035275e+01"/>
    <Variable VarIndex="13" Expression="dR_qq" Label="dR_qq" Title="dR_qq" Unit="" Internal="dR_qq" Type="F" Min="3.86432081e-01" Max="5.64842701e+00"/>
  </Variables>
  <Spectators NSpec="0"/>
  <Classes NClass="2">
    <Class Name="Signal" Index="0"/>
    <Class Name="Background" Index="1"/>
  </Classes>
  <Transformations NTransformations="1">
    <Transform Name="Normalize">
      <Selection>
        <Input NInputs="14">
          <Input Type="Variable" Label="bJet_Pt" Expression="bJet_Pt"/>
          <Input Type="Variable" Label="bJet_Eta" Expression="bJet_Eta"/>
          <Input Type="Variable" Label="bJet_btag" Expression="bJet_btag"/>
          <Input Type="Variable" Label="WJet1_Pt" Expression="WJet1_Pt"/>
          <Input Type="Variable" Label="WJet1_Eta" Expression="WJet1_Eta"/>
          <Input Type="Variable" Label="WJet1_btag" Expression="WJet1_btag"/>
          <Input Type="Variable" Label="WJet2_Pt" Expression="WJet2_Pt"/>
          <Input Type="Variable" Label="WJet2_Eta" Expression="WJet2_Eta"/>
          <Input Type="Variable" Label="WJet2_btag" Expression="WJet2_btag"/>
          <Input Type="Variable" Label="M1" Expression="M1"/>
          <Input Type="Variable" Label="MW" Expression="MW"/>
          <Input Type="Variable" Label="dR_bW" Expression="dR_bW"/>
          <Input Type="Variable" Label="dR_tH" Expression="dR_tH"/>
          <Input Type="Variable" Label="dR_qq" Expression="dR_qq"/>
        </Input>
        <Output NOutputs="14">
          <Output Type="Variable" Label="bJet_Pt" Expression="bJet_Pt"/>
          <Output Type="Variable" Label="bJet_Eta" Expression="bJet_Eta"/>
          <Output Type="Variable" Label="bJet_btag" Expression="bJet_btag"/>
          <Output Type="Variable" Label="WJet1_Pt" Expression="WJet1_Pt"/>
          <Output Type="Variable" Label="WJet1_Eta" Expression="WJet1_Eta"/>
          <Output Type="Variable" Label="WJet1_btag" Expression="WJet1_btag"/>
          <Output Type="Variable" Label="WJet2_Pt" Expression="WJet2_Pt"/>
          <Output Type="Variable" Label="WJet2_Eta" Expression="WJet2_Eta"/>
          <Output Type="Variable" Label="WJet2_btag" Expression="WJet2_btag"/>
          <Output Type="Variable" Label="M1" Expression="M1"/>
          <Output Type="Variable" Label="MW" Expression="MW"/>
          <Output Type="Variable" Label="dR_bW" Expression="dR_bW"/>
          <Output Type="Variable" Label="dR_tH" Expression="dR_tH"/>
          <Output Type="Variable" Label="dR_qq" Expression="dR_qq"/>
        </Output>
      </Selection>
      <Class ClassIndex="0">
        <Ranges>
          <Range Index="0" Min="2.5000120162963867e+01" Max="1.0115305175781250e+03"/>
          <Range Index="1" Min="-2.3999099731445312e+00" Max="2.3999826908111572e+00"/>
          <Range Index="2" Min="-2.0000000000000000e+00" Max="9.9999994039535522e-01"/>
          <Range Index="3" Min="2.5051088333129883e+01" Max="7.3191656494140625e+02"/>
          <Range Index="4" Min="-2.3998866081237793e+00" Max="2.3998885154724121e+00"/>
          <Range Index="5" Min="-2.0000000000000000e+00" Max="9.9998849630355835e-01"/>
          <Range Index="6" Min="2.5000001907348633e+01" Max="2.8276321411132812e+02"/>
          <Range Index="7" Min="-2.3999845981597900e+00" Max="2.3999228477478027e+00"/>
          <Range Index="8" Min="-2.0000000000000000e+00" Max="9.9999368190765381e-01"/>
          <Range Index="9" Min="6.6325302124023438e+01" Max="8.9155316162109375e+02"/>
          <Range Index="10" Min="2.1824527740478516e+01" Max="6.6765216064453125e+02"/>
          <Range Index="11" Min="9.0461522340774536e-03" Max="8.6785497665405273e+00"/>
          <Range Index="12" Min="3.7458483129739761e-02" Max="1.0481439590454102e+01"/>
          <Range Index="13" Min="3.9665788412094116e-01" Max="4.5750827789306641e+00"/>
        </Ranges>
      </Class>
      <Class ClassIndex="1">
        <Ranges>
          <Range Index="0" Min="2.5000019073486328e+01" Max="1.4433702392578125e+03"/>
          <Range Index="1" Min="-2.3999845981597900e+00" Max="2.3999910354614258e+00"/>
          <Range Index="2" Min="-2.0000000000000000e+00" Max="1.0000000000000000e+00"/>
          <Range Index="3" Min="2.5023103713989258e+01" Max="1.4433702392578125e+03"/>
          <Range Index="4" Min="-2.3999836444854736e+00" Max="2.3999817371368408e+00"/>
          <Range Index="5" Min="-2.0000000000000000e+00" Max="1.0000000000000000e+00"/>
          <Range Index="6" Min="2.5000001907348633e+01" Max="8.4529425048828125e+02"/>
          <Range Index="7" Min="-2.3999524116516113e+00" Max="2.3999826908111572e+00"/>
          <Range Index="8" Min="-2.0000000000000000e+00" Max="1.0000000000000000e+00"/>
          <Range Index="9" Min="3.5790016174316406e+01" Max="3.4391816406250000e+03"/>
          <Range Index="10" Min="1.2977839469909668e+01" Max="3.0168688964843750e+03"/>
          <Range Index="11" Min="3.5958271473646164e-03" Max="1.0524721145629883e+01"/>
          <Range Index="12" Min="1.9416049122810364e-02" Max="1.0703527450561523e+01"/>
          <Range Index="13" Min="3.8643208146095276e-01" Max="5.6484270095825195e+00"/>
        </Ranges>
      </Class>
      <Class ClassIndex="2">
        <Ranges>
          <Range Index="0" Min="2.5000019073486328e+01" Max="1.4433702392578125e+03"/>
          <Range Index="1" Min="-2.3999845981597900e+00" Max="2.3999910354614258e+00"/>
          <Range Index="2" Min="-2.0000000000000000e+00" Max="1.0000000000000000e+00"/>
          <Range Index="3" Min="2.5023103713989258e+01" Max="1.4433702392578125e+03"/>
          <Range Index="4" Min="-2.3999836444854736e+00" Max="2.3999817371368408e+00"/>
          <Range Index="5" Min="-2.0000000000000000e+00" Max="1.0000000000000000e+00"/>
          <Range Index="6" Min="2.5000001907348633e+01" Max="8.4529425048828125e+02"/>
          <Range Index="7" Min="-2.3999845981597900e+00" Max="2.3999826908111572e+00"/>
          <Range Index="8" Min="-2.0000000000000000e+00" Max="1.0000000000000000e+00"/>
          <Range Index="9" Min="3.5790016174316406e+01" Max="3.4391816406250000e+03"/>
          <Range Index="10" Min="1.2977839469909668e+01" Max="3.0168688964843750e+03"/>
          <Range Index="11" Min="3.5958271473646164e-03" Max="1.0524721145629883e+01"/>
          <Range Index="12" Min="1.9416049122810364e-02" Max="1.0703527450561523e+01"/>
          <Range Index="13" Min="3.8643208146095276e-01" Max="5.6484270095825195e+00"/>
        </Ranges>
      </Class>
    </Transform>
  </Transformations>
  <MVAPdfs/>
  <Weights>
    <Layout NLayers="4">
      <Layer Index="0" NNeurons="15">
        <Neuron NSynapses="14">
          -1.0406745049881225e+01 8.1386271669003492e+00 -6.9841800697122047e-01 5.8613060136760318e+00 1.5338916807101463e-01 6.2172485202258994e+00 2.3563079256756247e-01 -1.2682815454037322e+00 -4.5481352613356840e+00 -1.9797183277589723e+00 1.4099440482037837e+00 2.8624063334712511e+00 -2.3674915855691521e+00 -7.8860738340753944e-01 
        </Neuron>
        <Neuron NSynapses="14">
          -4.7992832200785757e-03 5.1305021077365272e+00 -5.1120229409474874e-03 3.7386488224852715e-02 8.1805854430426012e-02 6.5577505950438575e-01 -1.6542110586706626e-01 -5.1743778882549732e-02 -8.7973960466398715e-01 -9.5881976518473092e-02 8.6807920788641666e-03 3.4095097111550376e-01 -1.3200547258124667e-01 -2.5819502913463444e-01 
        </Neuron>
        <Neuron NSynapses="14">
          9.2141797620300628e-02 -5.2427727538987956e-01 1.0177896036133298e+00 2.2410190735717919e+01 4.6678744134180972e-01 -2.2590482481735616e-01 8.2178992345842587e+00 1.2618501680643004e-01 -4.3139576685833001e+00 -5.9619237308472384e-01 -9.9028595240079820e-01 2.2600815323773807e-01 4.7806724113215621e-01 2.1574925245795243e-01 
        </Neuron>
        <Neuron NSynapses="14">
          4.5914420816879709e+00 -8.8731345484035107e-01 2.0989546449568883e+00 -2.5905464741108171e+00 -7.2965333279477551e-01 1.5541754082662986e+00 -5.4806787588502368e-02 2.6946650068287870e-01 1.0596908106197900e+00 -7.8891444359651164e-01 -2.6253929505024670e-01 1.6079152814010538e+01 -1.1644542893188740e-01 1.0959436441401234e+00 
        </Neuron>
        <Neuron NSynapses="14">
          -6.6761716651599204e-02 -2.3724827887512472e+00 4.2782704129217093e-02 -8.3188409115299358e-02 -2.7916945535381532e+00 -4.5829983202283514e-01 -1.4714413057876463e-01 7.0536891187613464e-03 2.8927999903532192e-01 -2.6284546900755812e+00 -6.5484223165094044e-02 -1.6878420302346411e-01 9.0084533485185941e-02 1.0940307117503258e-01 
        </Neuron>
        <Neuron NSynapses="14">
          3.3094175801000214e-01 -1.7734601309959833e-01 1.7293137693896088e-01 3.5359089976133279e-01 5.1156820638852607e-01 -9.3919598659824854e-02 -3.0379953508320329e-01 8.1322676396882981e-02 3.9366600093768236e+00 -4.1064271792152102e-01 2.2857546278372148e+01 9.6041249137986742e-02 2.4874425456027668e-01 2.5238642700555099e-02 
        </Neuron>
        <Neuron NSynapses="14">
          2.9816002748408321e-01 8.1788416335241432e-01 -3.1507360319105508e+00 -3.7101393721547293e-01 -8.8702950836601369e-01 1.6094614697887046e+00 3.1630897813070566e+00 -2.0218903136499695e+00 2.9739587855412031e-01 -2.0501516684414161e+00 -8.6174305818044472e-01 2.0083810029882613e+01 5.9026247842415618e+00 3.9831016440451944e-01 
        </Neuron>
        <Neuron NSynapses="14">
          9.0029834480191192e-03 -2.2858711114012191e+00 -4.9559835385016140e-02 9.7079872959828076e-02 2.5736690486703191e+00 -1.0877625962854921e-01 4.0557878846035206e-01 1.5592459585189880e-02 5.6296264122741868e-01 2.5733145306704048e+00 5.3524078256012145e-02 -1.2086995334343299e-01 -2.6674876228086203e-02 1.1482556161839197e-01 
        </Neuron>
        <Neuron NSynapses="14">
          6.3041376844154881e-02 3.6352501335664630e-02 -1.9003776005640521e+01 3.9989542318086918e-01 5.3110377859160074e-01 2.3572011141233539e-02 -6.1013257845222045e-03 -6.8148317843288092e-02 2.3634042986934944e+00 -5.4204314869441261e-01 -2.4550441291146430e-01 2.8803769420824343e-01 1.7092394072060391e-01 -1.0039295934293493e-02 
        </Neuron>
        <Neuron NSynapses="14">
          -1.4109969057149584e+01 3.0650176426519926e+00 -8.5378674919142021e+00 4.0083086990149193e+00 -5.8701122126714029e+00 -3.7378291962341956e+00 5.1383002796002430e-01 3.2898425063639567e+00 5.5268365179871672e+00 2.5469944730607721e+00 8.1491366323029553e+00 -5.6961359412957755e+00 1.5346014073430456e+00 5.2407812846214675e+01 
        </Neuron>
        <Neuron NSynapses="14">
          3.0977233484216011e+01 -1.1404941277156553e+01 -8.0628053197855927e+00 -1.7787739413152157e+00 -5.2558840199975769e+00 6.1109476527246596e+00 2.1540412051833444e+00 -3.6747772207849678e+00 5.9785556378877125e+00 8.6243080854182743e+00 4.7454422494854356e+00 1.0047680215518698e+01 -1.3815223663178119e-01 -2.1829245129035094e+01 
        </Neuron>
        <Neuron NSynapses="14">
          -1.6132635573703025e+00 -5.5575259494317009e-01 2.1385268114926437e-01 1.8939170251293400e+00 -6.2028090593986884e-01 -4.3461652591437492e+00 5.0946349799589785e-01 6.5459598846560341e-01 -1.8972546829931197e-01 7.7115205449291624e-01 8.7465735199585393e-01 3.8327709609520993e-01 2.9534895267384003e+00 7.1450556538476678e-02 
        </Neuron>
        <Neuron NSynapses="14">
          -7.1915060218670435e-01 1.6356065902692762e-01 -5.3165558308163746e-02 8.3480208609155104e-01 1.8264739799769644e-01 5.4171803689941816e-02 2.6703636730456076e-01 -5.6223268043910146e-01 7.2124947474695456e-01 -4.3572543213230674e-01 2.2735004314681229e-01 6.1305418022086411e-01 -1.3947837523876256e+00 -4.1123837762095078e-02 
        </Neuron>
        <Neuron NSynapses="14">
          8.0975150049931355e-01 -2.9727337348841459e-01 -8.1745402870613895e-02 -9.6453123322785128e-01 -1.5296908475629234e-01 -7.6433037103967993e-01 1.5890359377051546e-02 -5.2066638932863780e+00 -2.4553335631778300e-01 -1.5027025412845207e-01 -4.4673015551125245e-01 6.4966272326518759e-01 5.2256252857609740e+00 -1.3105289996317201e-01 
        </Neuron>
        <Neuron NSynapses="14">
          1.0314345468869641e+01 -3.4674146694503696e+00 2.0659231694390505e+00 -2.6078660255054853e+00 -1.0764379138430771e+01 5.9072508535709680e+00 -2.0159787153119990e+00 -7.9348696393148526e+00 5.2884155192398783e+00 4.5479829893400137e+00 -1.0597436207684026e+01 4.2093847739710995e+01 1.0252816900782205e+01 2.7527143622374620e+01 
        </Neuron>
      </Layer>
      <Layer Index="1" NNeurons="15">
        <Neuron NSynapses="13">
          -2.5451133852276850e+00 1.4999996958639158e-01 -1.8984830214045072e+00 -1.0397105061794591e+00 4.1113916770129171e+00 2.2952526840298715e+00 9.4486044460726593e-01 -5.4354707811152938e+00 1.5645468985892521e+00 -4.5747933632578235e+00 -4.0777235351124936e+00 -3.8588068912692680e-01 -4.2241536823384287e+00 
        </Neuron>
        <Neuron NSynapses="13">
          1.3147733574990657e+00 -8.6836127315642475e-01 7.1497321991997265e-01 -3.6890781355984303e-01 -1.3500565582714574e+00 -8.1371599881194856e-01 -4.1969666492731159e+00 1.9262881955640896e+00 9.7023075950910609e-01 1.6144266327254093e+00 1.2129487790077269e+00 1.3906779740125454e+00 -1.6124034680801980e+00 
        </Neuron>
        <Neuron NSynapses="13">
          6.3392571183460422e-01 -1.7767407308198200e+00 -2.0073274802746326e+00 -4.3431352618470678e+00 -4.0119175188541654e+00 -2.1945541137158525e-01 -5.6930920207714575e-01 -1.0346975953677975e+00 -3.9444249886351579e+00 2.1722502948540368e+00 -1.8994635831457169e+00 -7.2029432911880358e+00 9.1219285460866051e-01 
        </Neuron>
        <Neuron NSynapses="13">
          -5.9721503166353758e+00 1.2826857544583179e+00 -8.2214630185340329e+00 1.3618324460675435e+00 -5.7228092283852582e-02 4.7937562580834514e-01 1.5398737993864082e+00 -7.4697250841476670e-01 -8.0582446578544236e+00 -5.5262790652354721e-01 -4.2845753522995781e-03 1.9384376608410092e+00 -6.6698373833934221e-01 
        </Neuron>
        <Neuron NSynapses="13">
          -1.3681853283213015e+00 2.4795108282726539e+00 -2.0215394594010965e+00 2.0429480854577311e+00 -4.2655117256238864e+00 -6.6219755111859324e-01 -2.7947577065426539e+00 2.7725354682414429e+00 -1.9370637888374345e+00 2.8485191683551290e+00 2.1552743885112728e+00 1.1484753158412191e+00 2.3986412772141623e+00 
        </Neuron>
        <Neuron NSynapses="13">
          -3.6056180850545988e-01 3.4685836600117605e+00 2.5462560668449070e+00 -1.3817906526983850e+00 3.8925273202572450e+00 1.4848253613605868e+00 4.3359089381585365e+00 -4.0406273272415749e+00 1.4105382823314718e+00 -5.8908639543933869e+00 -2.3086865488649737e+00 -4.8798093229539763e-01 5.1277870336736306e+00 
        </Neuron>
        <Neuron NSynapses="13">
          1.7001296013971188e+00 -1.0782694603985064e+00 -9.7088190489912884e-01 -9.5522610370257596e-02 -9.2937244618150783e-02 1.2111339322827586e+00 1.1030700147481851e+00 -1.8542294728616100e+00 -1.2521885900066625e+00 2.0354483540817464e-01 -5.1712109990405530e-01 -5.0881911744177284e+00 2.5678515840941145e+00 
        </Neuron>
        <Neuron NSynapses="13">
          7.9468692198139235e-01 4.5361202803786960e-01 -3.0150646468297602e+00 3.6914419649173733e+00 -9.8865063466882663e+00 9.2465299643005195e-03 -1.3788167090894939e+01 3.4425764702675479e+00 -9.8248335890995731e-01 1.0503553820287944e+01 -2.2321808146529882e+00 -6.5561559626154309e-01 -2.6915176628360551e+00 
        </Neuron>
        <Neuron NSynapses="13">
          2.6024392771876941e+00 -7.3656368823489000e+00 1.9895113495340582e+00 -1.5756042491828983e+00 -1.5394446840968759e-01 6.5486406139495790e-01 -3.8614829039187972e+00 -7.9789607438125443e-01 4.8229059290812817e+00 1.2868261130534815e+00 -7.2772591349413940e-01 3.1618448380396362e+00 -1.2871030699519583e+00 
        </Neuron>
        <Neuron NSynapses="13">
          1.9177552223257346e+00 -6.1087986208124949e+00 2.4048688318696678e+00 -2.9378219709869819e+00 4.5009369665937280e+00 3.6985802942079155e-01 2.9740726753281064e+00 -2.3681185842468686e+00 2.5248884133363858e+00 -2.4753968092345739e+00 -1.8730721514349264e+00 -9.8578757550831431e-01 -2.5858639156178151e+00 
        </Neuron>
        <Neuron NSynapses="13">
          1.2767450564763789e+00 -3.2260894716309524e-01 4.5509904406929182e+00 4.4960499513118188e+00 -6.3802439979717918e-01 -5.6122740401323379e-01 6.9093920252969832e-01 4.1771788407013799e-01 5.3138917715066070e+00 -4.4282528324448700e+00 -2.0538475699853237e-01 8.1566653324151286e+00 -4.1530334906159494e+00 
        </Neuron>
        <Neuron NSynapses="13">
          -1.2019759050292842e+00 1.4987801547610955e+00 2.9775846412573732e+00 -1.9947345475121192e+00 6.5266830457166334e+00 -1.8714358176192396e+00 3.9496255799500228e+00 -2.2113308053057366e+00 -8.3580288047677209e-01 -4.2128613774214614e+00 -1.2796341727860147e+01 2.5907687888701094e+00 2.5246353610734116e+00 
        </Neuron>
        <Neuron NSynapses="13">
          2.8874650340032304e-01 3.5352201190258663e+00 -6.8977961342653563e-02 -2.0581264547598486e+00 4.4428437850436113e+00 -2.6520267466413912e+00 -1.3795906822776605e-01 -7.1887991661379647e-01 1.9019521241690434e+00 -2.5562013673302144e+00 1.9098381686696255e+00 5.7626065946259630e-01 6.3048488456737639e-01 
        </Neuron>
        <Neuron NSynapses="13">
          3.2898819541226474e+00 -1.0007768325720889e+00 -5.0590976155428313e+00 -3.1805721783506873e+00 3.5564231296834730e+00 -1.2556228948939610e+01 -6.9521472070745363e+00 8.2805092175183326e+00 6.0396765497524951e+00 7.4221690505262536e+00 3.0771541921022050e-01 -5.3082909853400366e+00 -1.5298265790057046e+00 
        </Neuron>
        <Neuron NSynapses="13">
          2.7134312088483092e+00 -6.0550295268394105e+00 3.4745440497192197e+00 4.5009677545561617e+00 -5.0015423325762995e+00 1.2424298259168154e+00 -9.3776265313902998e-02 -1.2403429785505076e+00 8.3488178530489350e+00 5.9787966175121188e-01 2.2526493385203903e+00 3.3451634586915575e+00 1.5808825292529101e+00 
        </Neuron>
      </Layer>
      <Layer Index="2" NNeurons="14">
        <Neuron NSynapses="1">
          -3.8363766938483144e+00 
        </Neuron>
        <Neuron NSynapses="1">
          3.5375065278471225e+00 
        </Neuron>
        <Neuron NSynapses="1">
          4.7650492519902619e+00 
        </Neuron>
        <Neuron NSynapses="1">
          -6.9337923517781608e+00 
        </Neuron>
        <Neuron NSynapses="1">
          -3.5027635441630904e+00 
        </Neuron>
        <Neuron NSynapses="1">
          -7.4990995397531464e+00 
        </Neuron>
        <Neuron NSynapses="1">
          -3.5660063901829444e+00 
        </Neuron>
        <Neuron NSynapses="1">
          -3.4506767816205048e+00 
        </Neuron>
        <Neuron NSynapses="1">
          -2.5893520637029064e+00 
        </Neuron>
        <Neuron NSynapses="1">
          2.3692674978216210e+00 
        </Neuron>
        <Neuron NSynapses="1">
          -3.5976978703827163e+00 
        </Neuron>
        <Neuron NSynapses="1">
          -2.5660676893975660e+00 
        </Neuron>
        <Neuron NSynapses="1">
          4.3872337323509338e+00 
        </Neuron>
        <Neuron NSynapses="1">
          2.8304438554136480e-01 
        </Neuron>
      </Layer>
      <Layer Index="3" NNeurons="1">
        <Neuron NSynapses="0"/>
      </Layer>
    </Layout>
  </Weights>
</MethodSetup>
