<?xml version="1.0"?>
<MethodSetup Method="MLP::ANN_v1">
  <GeneralInfo>
    <Info name="TMVA Release" value="4.2.1 [262657]"/>
    <Info name="ROOT Release" value="6.10/09 [395785]"/>
    <Info name="Creator" value="mc_cheng"/>
    <Info name="Date" value="Sat Aug 15 09:12:10 2020"/>
    <Info name="Host" value="Linux cmsbuild76.cern.ch 2.6.32-696.30.1.el6.x86_64 #1 SMP Tue May 22 06:09:36 CEST 2018 x86_64 x86_64 x86_64 GNU/Linux"/>
    <Info name="Dir" value="/wk_cms2/mc_cheng/public/tqHGG/2017/MVAreco_train"/>
    <Info name="Training events" value="1244296"/>
    <Info name="TrainingTime" value="3.24142981e+04"/>
    <Info name="AnalysisType" value="Classification"/>
  </GeneralInfo>
  <Options>
    <Option name="NCycles" modified="No">500</Option>
    <Option name="HiddenLayers" modified="No">N,N-1</Option>
    <Option name="NeuronType" modified="No">sigmoid</Option>
    <Option name="RandomSeed" modified="No">1</Option>
    <Option name="EstimatorType" modified="No">CE</Option>
    <Option name="NeuronInputType" modified="No">sum</Option>
    <Option name="V" modified="Yes">True</Option>
    <Option name="VerbosityLevel" modified="No">Verbose</Option>
    <Option name="VarTransform" modified="Yes">N</Option>
    <Option name="H" modified="Yes">True</Option>
    <Option name="CreateMVAPdfs" modified="No">False</Option>
    <Option name="IgnoreNegWeightsInTraining" modified="Yes">True</Option>
    <Option name="TrainingMethod" modified="No">BP</Option>
    <Option name="LearningRate" modified="No">2.000000e-02</Option>
    <Option name="DecayRate" modified="No">1.000000e-02</Option>
    <Option name="TestRate" modified="No">10</Option>
    <Option name="EpochMonitoring" modified="No">False</Option>
    <Option name="Sampling" modified="No">1.000000e+00</Option>
    <Option name="SamplingEpoch" modified="No">1.000000e+00</Option>
    <Option name="SamplingImportance" modified="No">1.000000e+00</Option>
    <Option name="SamplingTraining" modified="No">True</Option>
    <Option name="SamplingTesting" modified="No">False</Option>
    <Option name="ResetStep" modified="No">50</Option>
    <Option name="Tau" modified="No">3.000000e+00</Option>
    <Option name="BPMode" modified="No">sequential</Option>
    <Option name="BatchSize" modified="No">-1</Option>
    <Option name="ConvergenceImprove" modified="No">1.000000e-30</Option>
    <Option name="ConvergenceTests" modified="No">-1</Option>
    <Option name="UseRegulator" modified="No">False</Option>
    <Option name="UpdateLimit" modified="No">10000</Option>
    <Option name="CalculateErrors" modified="No">False</Option>
    <Option name="WeightRange" modified="No">1.000000e+00</Option>
  </Options>
  <Variables NVar="20">
    <Variable VarIndex="0" Expression="LeadPho_Pt" Label="LeadPho_Pt" Title="LeadPho_Pt" Unit="" Internal="LeadPho_Pt" Type="F" Min="3.50132713e+01" Max="1.25756482e+03"/>
    <Variable VarIndex="1" Expression="LeadPho_Eta" Label="LeadPho_Eta" Title="LeadPho_Eta" Unit="" Internal="LeadPho_Eta" Type="F" Min="-2.49998784e+00" Max="2.49992204e+00"/>
    <Variable VarIndex="2" Expression="LeadPho_Phi" Label="LeadPho_Phi" Title="LeadPho_Phi" Unit="" Internal="LeadPho_Phi" Type="F" Min="-3.14159203e+00" Max="3.14158106e+00"/>
    <Variable VarIndex="3" Expression="LeadPho_IDMVA" Label="LeadPho_IDMVA" Title="LeadPho_IDMVA" Unit="" Internal="LeadPho_IDMVA" Type="F" Min="-6.99940562e-01" Max="9.87643242e-01"/>
    <Variable VarIndex="4" Expression="SubleadPho_Pt" Label="SubleadPho_Pt" Title="SubleadPho_Pt" Unit="" Internal="SubleadPho_Pt" Type="F" Min="2.50000324e+01" Max="5.45918640e+02"/>
    <Variable VarIndex="5" Expression="SubleadPho_Eta" Label="SubleadPho_Eta" Title="SubleadPho_Eta" Unit="" Internal="SubleadPho_Eta" Type="F" Min="-2.49995303e+00" Max="2.49997115e+00"/>
    <Variable VarIndex="6" Expression="SubleadPho_Phi" Label="SubleadPho_Phi" Title="SubleadPho_Phi" Unit="" Internal="SubleadPho_Phi" Type="F" Min="-3.14158678e+00" Max="3.14157701e+00"/>
    <Variable VarIndex="7" Expression="SubleadPho_IDMVA" Label="SubleadPho_IDMVA" Title="SubleadPho_IDMVA" Unit="" Internal="SubleadPho_IDMVA" Type="F" Min="-6.99978113e-01" Max="9.85701025e-01"/>
    <Variable VarIndex="8" Expression="bJet_Pt" Label="bJet_Pt" Title="bJet_Pt" Unit="" Internal="bJet_Pt" Type="F" Min="2.50000191e+01" Max="1.44337024e+03"/>
    <Variable VarIndex="9" Expression="bJet_Eta" Label="bJet_Eta" Title="bJet_Eta" Unit="" Internal="bJet_Eta" Type="F" Min="-2.39998460e+00" Max="2.39999104e+00"/>
    <Variable VarIndex="10" Expression="bJet_Phi" Label="bJet_Phi" Title="bJet_Phi" Unit="" Internal="bJet_Phi" Type="F" Min="-3.14159083e+00" Max="3.14159226e+00"/>
    <Variable VarIndex="11" Expression="bJet_btag" Label="bJet_btag" Title="bJet_btag" Unit="" Internal="bJet_btag" Type="F" Min="-2.00000000e+00" Max="1.00000000e+00"/>
    <Variable VarIndex="12" Expression="WJet1_Pt" Label="WJet1_Pt" Title="WJet1_Pt" Unit="" Internal="WJet1_Pt" Type="F" Min="2.50231037e+01" Max="1.44337024e+03"/>
    <Variable VarIndex="13" Expression="WJet1_Eta" Label="WJet1_Eta" Title="WJet1_Eta" Unit="" Internal="WJet1_Eta" Type="F" Min="-2.39998364e+00" Max="2.39998174e+00"/>
    <Variable VarIndex="14" Expression="WJet1_Phi" Label="WJet1_Phi" Title="WJet1_Phi" Unit="" Internal="WJet1_Phi" Type="F" Min="-3.14158988e+00" Max="3.14159226e+00"/>
    <Variable VarIndex="15" Expression="WJet1_btag" Label="WJet1_btag" Title="WJet1_btag" Unit="" Internal="WJet1_btag" Type="F" Min="-2.00000000e+00" Max="1.00000000e+00"/>
    <Variable VarIndex="16" Expression="WJet2_Pt" Label="WJet2_Pt" Title="WJet2_Pt" Unit="" Internal="WJet2_Pt" Type="F" Min="2.50000019e+01" Max="8.45294250e+02"/>
    <Variable VarIndex="17" Expression="WJet2_Eta" Label="WJet2_Eta" Title="WJet2_Eta" Unit="" Internal="WJet2_Eta" Type="F" Min="-2.39998460e+00" Max="2.39998269e+00"/>
    <Variable VarIndex="18" Expression="WJet2_Phi" Label="WJet2_Phi" Title="WJet2_Phi" Unit="" Internal="WJet2_Phi" Type="F" Min="-3.14159083e+00" Max="3.14158654e+00"/>
    <Variable VarIndex="19" Expression="WJet2_btag" Label="WJet2_btag" Title="WJet2_btag" Unit="" Internal="WJet2_btag" Type="F" Min="-2.00000000e+00" Max="1.00000000e+00"/>
  </Variables>
  <Spectators NSpec="0"/>
  <Classes NClass="2">
    <Class Name="Signal" Index="0"/>
    <Class Name="Background" Index="1"/>
  </Classes>
  <Transformations NTransformations="1">
    <Transform Name="Normalize">
      <Selection>
        <Input NInputs="20">
          <Input Type="Variable" Label="LeadPho_Pt" Expression="LeadPho_Pt"/>
          <Input Type="Variable" Label="LeadPho_Eta" Expression="LeadPho_Eta"/>
          <Input Type="Variable" Label="LeadPho_Phi" Expression="LeadPho_Phi"/>
          <Input Type="Variable" Label="LeadPho_IDMVA" Expression="LeadPho_IDMVA"/>
          <Input Type="Variable" Label="SubleadPho_Pt" Expression="SubleadPho_Pt"/>
          <Input Type="Variable" Label="SubleadPho_Eta" Expression="SubleadPho_Eta"/>
          <Input Type="Variable" Label="SubleadPho_Phi" Expression="SubleadPho_Phi"/>
          <Input Type="Variable" Label="SubleadPho_IDMVA" Expression="SubleadPho_IDMVA"/>
          <Input Type="Variable" Label="bJet_Pt" Expression="bJet_Pt"/>
          <Input Type="Variable" Label="bJet_Eta" Expression="bJet_Eta"/>
          <Input Type="Variable" Label="bJet_Phi" Expression="bJet_Phi"/>
          <Input Type="Variable" Label="bJet_btag" Expression="bJet_btag"/>
          <Input Type="Variable" Label="WJet1_Pt" Expression="WJet1_Pt"/>
          <Input Type="Variable" Label="WJet1_Eta" Expression="WJet1_Eta"/>
          <Input Type="Variable" Label="WJet1_Phi" Expression="WJet1_Phi"/>
          <Input Type="Variable" Label="WJet1_btag" Expression="WJet1_btag"/>
          <Input Type="Variable" Label="WJet2_Pt" Expression="WJet2_Pt"/>
          <Input Type="Variable" Label="WJet2_Eta" Expression="WJet2_Eta"/>
          <Input Type="Variable" Label="WJet2_Phi" Expression="WJet2_Phi"/>
          <Input Type="Variable" Label="WJet2_btag" Expression="WJet2_btag"/>
        </Input>
        <Output NOutputs="20">
          <Output Type="Variable" Label="LeadPho_Pt" Expression="LeadPho_Pt"/>
          <Output Type="Variable" Label="LeadPho_Eta" Expression="LeadPho_Eta"/>
          <Output Type="Variable" Label="LeadPho_Phi" Expression="LeadPho_Phi"/>
          <Output Type="Variable" Label="LeadPho_IDMVA" Expression="LeadPho_IDMVA"/>
          <Output Type="Variable" Label="SubleadPho_Pt" Expression="SubleadPho_Pt"/>
          <Output Type="Variable" Label="SubleadPho_Eta" Expression="SubleadPho_Eta"/>
          <Output Type="Variable" Label="SubleadPho_Phi" Expression="SubleadPho_Phi"/>
          <Output Type="Variable" Label="SubleadPho_IDMVA" Expression="SubleadPho_IDMVA"/>
          <Output Type="Variable" Label="bJet_Pt" Expression="bJet_Pt"/>
          <Output Type="Variable" Label="bJet_Eta" Expression="bJet_Eta"/>
          <Output Type="Variable" Label="bJet_Phi" Expression="bJet_Phi"/>
          <Output Type="Variable" Label="bJet_btag" Expression="bJet_btag"/>
          <Output Type="Variable" Label="WJet1_Pt" Expression="WJet1_Pt"/>
          <Output Type="Variable" Label="WJet1_Eta" Expression="WJet1_Eta"/>
          <Output Type="Variable" Label="WJet1_Phi" Expression="WJet1_Phi"/>
          <Output Type="Variable" Label="WJet1_btag" Expression="WJet1_btag"/>
          <Output Type="Variable" Label="WJet2_Pt" Expression="WJet2_Pt"/>
          <Output Type="Variable" Label="WJet2_Eta" Expression="WJet2_Eta"/>
          <Output Type="Variable" Label="WJet2_Phi" Expression="WJet2_Phi"/>
          <Output Type="Variable" Label="WJet2_btag" Expression="WJet2_btag"/>
        </Output>
      </Selection>
      <Class ClassIndex="0">
        <Ranges>
          <Range Index="0" Min="3.5019161224365234e+01" Max="8.3188385009765625e+02"/>
          <Range Index="1" Min="-2.4999878406524658e+00" Max="2.4999103546142578e+00"/>
          <Range Index="2" Min="-3.1415920257568359e+00" Max="3.1415655612945557e+00"/>
          <Range Index="3" Min="-6.9980722665786743e-01" Max="9.8764324188232422e-01"/>
          <Range Index="4" Min="2.5000032424926758e+01" Max="4.8920303344726562e+02"/>
          <Range Index="5" Min="-2.4999456405639648e+00" Max="2.4999558925628662e+00"/>
          <Range Index="6" Min="-3.1415867805480957e+00" Max="3.1415770053863525e+00"/>
          <Range Index="7" Min="-6.9992899894714355e-01" Max="9.8570102453231812e-01"/>
          <Range Index="8" Min="2.5000120162963867e+01" Max="1.0115305175781250e+03"/>
          <Range Index="9" Min="-2.3999099731445312e+00" Max="2.3999826908111572e+00"/>
          <Range Index="10" Min="-3.1415688991546631e+00" Max="3.1415126323699951e+00"/>
          <Range Index="11" Min="-2.0000000000000000e+00" Max="9.9999994039535522e-01"/>
          <Range Index="12" Min="2.5051088333129883e+01" Max="7.3191656494140625e+02"/>
          <Range Index="13" Min="-2.3998866081237793e+00" Max="2.3998885154724121e+00"/>
          <Range Index="14" Min="-3.1415753364562988e+00" Max="3.1415922641754150e+00"/>
          <Range Index="15" Min="-2.0000000000000000e+00" Max="9.9998849630355835e-01"/>
          <Range Index="16" Min="2.5000001907348633e+01" Max="2.8276321411132812e+02"/>
          <Range Index="17" Min="-2.3999845981597900e+00" Max="2.3999228477478027e+00"/>
          <Range Index="18" Min="-3.1415569782257080e+00" Max="3.1415600776672363e+00"/>
          <Range Index="19" Min="-2.0000000000000000e+00" Max="9.9999368190765381e-01"/>
        </Ranges>
      </Class>
      <Class ClassIndex="1">
        <Ranges>
          <Range Index="0" Min="3.5013271331787109e+01" Max="1.2575648193359375e+03"/>
          <Range Index="1" Min="-2.4999878406524658e+00" Max="2.4999220371246338e+00"/>
          <Range Index="2" Min="-3.1415920257568359e+00" Max="3.1415810585021973e+00"/>
          <Range Index="3" Min="-6.9994056224822998e-01" Max="9.8764324188232422e-01"/>
          <Range Index="4" Min="2.5000032424926758e+01" Max="5.4591864013671875e+02"/>
          <Range Index="5" Min="-2.4999530315399170e+00" Max="2.4999711513519287e+00"/>
          <Range Index="6" Min="-3.1415867805480957e+00" Max="3.1415770053863525e+00"/>
          <Range Index="7" Min="-6.9997811317443848e-01" Max="9.8570102453231812e-01"/>
          <Range Index="8" Min="2.5000019073486328e+01" Max="1.4433702392578125e+03"/>
          <Range Index="9" Min="-2.3999845981597900e+00" Max="2.3999910354614258e+00"/>
          <Range Index="10" Min="-3.1415908336639404e+00" Max="3.1415922641754150e+00"/>
          <Range Index="11" Min="-2.0000000000000000e+00" Max="1.0000000000000000e+00"/>
          <Range Index="12" Min="2.5023103713989258e+01" Max="1.4433702392578125e+03"/>
          <Range Index="13" Min="-2.3999836444854736e+00" Max="2.3999817371368408e+00"/>
          <Range Index="14" Min="-3.1415898799896240e+00" Max="3.1415922641754150e+00"/>
          <Range Index="15" Min="-2.0000000000000000e+00" Max="1.0000000000000000e+00"/>
          <Range Index="16" Min="2.5000001907348633e+01" Max="8.4529425048828125e+02"/>
          <Range Index="17" Min="-2.3999524116516113e+00" Max="2.3999826908111572e+00"/>
          <Range Index="18" Min="-3.1415908336639404e+00" Max="3.1415865421295166e+00"/>
          <Range Index="19" Min="-2.0000000000000000e+00" Max="1.0000000000000000e+00"/>
        </Ranges>
      </Class>
      <Class ClassIndex="2">
        <Ranges>
          <Range Index="0" Min="3.5013271331787109e+01" Max="1.2575648193359375e+03"/>
          <Range Index="1" Min="-2.4999878406524658e+00" Max="2.4999220371246338e+00"/>
          <Range Index="2" Min="-3.1415920257568359e+00" Max="3.1415810585021973e+00"/>
          <Range Index="3" Min="-6.9994056224822998e-01" Max="9.8764324188232422e-01"/>
          <Range Index="4" Min="2.5000032424926758e+01" Max="5.4591864013671875e+02"/>
          <Range Index="5" Min="-2.4999530315399170e+00" Max="2.4999711513519287e+00"/>
          <Range Index="6" Min="-3.1415867805480957e+00" Max="3.1415770053863525e+00"/>
          <Range Index="7" Min="-6.9997811317443848e-01" Max="9.8570102453231812e-01"/>
          <Range Index="8" Min="2.5000019073486328e+01" Max="1.4433702392578125e+03"/>
          <Range Index="9" Min="-2.3999845981597900e+00" Max="2.3999910354614258e+00"/>
          <Range Index="10" Min="-3.1415908336639404e+00" Max="3.1415922641754150e+00"/>
          <Range Index="11" Min="-2.0000000000000000e+00" Max="1.0000000000000000e+00"/>
          <Range Index="12" Min="2.5023103713989258e+01" Max="1.4433702392578125e+03"/>
          <Range Index="13" Min="-2.3999836444854736e+00" Max="2.3999817371368408e+00"/>
          <Range Index="14" Min="-3.1415898799896240e+00" Max="3.1415922641754150e+00"/>
          <Range Index="15" Min="-2.0000000000000000e+00" Max="1.0000000000000000e+00"/>
          <Range Index="16" Min="2.5000001907348633e+01" Max="8.4529425048828125e+02"/>
          <Range Index="17" Min="-2.3999845981597900e+00" Max="2.3999826908111572e+00"/>
          <Range Index="18" Min="-3.1415908336639404e+00" Max="3.1415865421295166e+00"/>
          <Range Index="19" Min="-2.0000000000000000e+00" Max="1.0000000000000000e+00"/>
        </Ranges>
      </Class>
    </Transform>
  </Transformations>
  <MVAPdfs/>
  <Weights>
    <Layout NLayers="4">
      <Layer Index="0" NNeurons="21">
        <Neuron NSynapses="20">
          5.7080158741329795e-02 1.2770972717171770e-02 -9.8102570337912209e-01 -1.2484375312168350e+00 1.2264755292503855e+00 1.6843756934663148e+00 -6.9927606579190582e-01 5.3775258228598277e-01 7.5129033351421481e-01 2.0948790860461890e+00 5.1763044663402813e-01 -9.5172558412893005e-01 -2.6081295176229156e+00 -1.4185310249358034e+00 1.5034526453188674e-01 -1.2143928495836509e+00 -2.9561021851886532e-01 -1.7603606551959248e+00 6.7252432278053031e-01 1.9294632357555526e+00 
        </Neuron>
        <Neuron NSynapses="20">
          -6.6826671176769522e-03 3.1690618505093526e-02 -1.4937122222965542e-02 5.6420313296370005e-02 -2.5689331224383314e-03 -2.8986491278018705e-02 2.1672065599225545e-02 -2.9754537290923772e-02 2.4435646727221098e-02 6.9113599785588911e-02 3.5095944680455611e-03 -1.8755241573745626e-01 -6.5445097744082192e-01 -2.6930177114774655e-02 -8.2900047922290138e-02 -6.6068153797406839e-02 1.3497990682220773e-01 -3.7582012378255071e-02 -3.4683321942439262e-02 7.9627469884155588e-02 
        </Neuron>
        <Neuron NSynapses="20">
          8.5160868350613785e-03 -3.3167146723085774e-03 7.0309202559898885e-03 9.1773639275732011e-02 -1.5983372345216018e-02 -9.5791298317702764e-03 -1.2093270802510870e-02 4.7295053716245712e-02 3.1182917557213904e-02 3.9451620772531858e-02 -1.3049269359686075e-02 -1.3785018240456978e-01 -1.2446612374241308e+00 -1.0257566122284156e-02 -2.1984100631451453e-02 3.8225880882391226e-02 -1.2724909955146938e-02 1.3285290565580160e-03 -1.2568695037013878e-02 4.3761811886838704e-02 
        </Neuron>
        <Neuron NSynapses="20">
          -3.6199715657409037e-02 -3.5516956233260545e-02 -3.8749647621995176e-02 -1.9186497210348225e-02 -3.0369257343333029e-02 3.5653816090787702e-02 2.5566820772049973e-02 -1.1178027462899134e-02 2.6007793181717694e-02 -1.7465333848631059e-01 -4.2008936887115621e-02 1.5327489266040287e-01 7.1659286418497237e-01 1.4625620912390475e-01 -1.2556148632491994e-02 3.9333339623980945e-02 5.0093804747237965e-02 3.6563329661664576e-02 2.7524276487735544e-04 -1.4195443783243683e-01 
        </Neuron>
        <Neuron NSynapses="20">
          9.0230220011260451e-02 3.7457138303334574e-02 -3.0479334713209244e-01 -4.4330939811533682e-01 3.5096405990528123e-01 7.3988510988866374e-01 -2.6048805474749070e-01 1.7875842631485864e-01 3.7143670488391756e-01 9.6320719802110688e-01 1.4695526527571498e-01 -3.6114469839844165e-01 2.0388302229959285e-01 -5.3515532132186505e-01 6.7653791833796453e-02 -5.9878455983814516e-01 8.8057860416369510e-02 -6.4359320412319709e-01 2.2951518642292634e-01 8.1262772240545333e-01 
        </Neuron>
        <Neuron NSynapses="20">
          7.4818363660877768e-03 -2.5529840470056662e-03 3.4319950345476545e-02 -2.8733124591734743e-02 2.1779738179379223e-02 4.2665995920046759e-02 -3.2813081056067658e-02 -4.5193313062847330e-02 -3.0893782163145877e-02 -6.5280647659752306e-02 4.2708403409888518e-02 1.8880592854715653e-01 2.9325998994935576e-01 2.3762178738108992e-02 3.8837542516646215e-02 9.6712569626955132e-03 -1.4426618779308881e-01 2.8745305826324410e-02 2.6977734914963046e-02 -2.6690728592408813e-02 
        </Neuron>
        <Neuron NSynapses="20">
          1.5671626628976307e-03 -4.3902892259041109e-03 -1.0498145035388614e-02 6.2967287070757327e-02 9.1403929350849632e-03 -6.0878908218232591e-03 -2.1179389240773169e-02 5.1677716154393108e-02 1.2602664046813570e-02 1.3195388340861666e-02 -1.1031788100404033e-02 -9.3887147194982007e-02 5.7346575981331838e-01 3.7459615860221882e-02 -4.6967982969004063e-02 -2.5529571611018521e-02 -1.7652423454510992e-02 -4.3970006043843107e-03 1.1011744050161640e-03 4.2820629734693534e-02 
        </Neuron>
        <Neuron NSynapses="20">
          -4.3565701615013809e-02 5.0887380794592185e-03 -3.3623165566003074e-02 -5.8954652540046212e-02 -1.1784865382612126e-02 -2.9328210450669641e-02 -1.8678612775561671e-02 -3.4834327789593181e-02 -3.4584197690677009e-03 -1.7051731474781989e-01 -4.8084276689908792e-02 1.1143159860271916e-01 1.1945173119309782e+00 4.3834879159105750e-02 -1.4517664194259565e-02 5.9143433632446396e-02 1.6148968215234547e-01 2.7380602661814333e-02 -7.8384314930160879e-03 -7.0335381001652084e-02 
        </Neuron>
        <Neuron NSynapses="20">
          6.5397649107335392e+00 5.9117052451361349e+00 3.2174348829232235e-01 -1.2634277995676077e-01 -1.0118729964241018e+00 -4.7007479599248758e-01 1.9125520239839258e-01 -2.1954717075337511e+00 -1.8483345877691423e-01 -1.9714018296900266e+00 -1.2366422689500001e+00 -3.1782419685915014e-01 -1.6326872598377125e+00 1.8401606162219943e+00 1.2688939945014988e+00 2.9487530989934134e+00 -1.4636003126563260e+00 2.9746569794050828e+01 2.7933945412832956e-01 -2.7098101541772501e+00 
        </Neuron>
        <Neuron NSynapses="20">
          -4.5367276150508156e+00 4.5752836947418860e+00 2.9139646639810380e-02 -5.9552564496246643e-02 5.6117362198093011e-02 -7.4016487062225161e-02 -2.5112097403004921e-02 8.6793520539024033e-02 4.1716839695951594e-02 3.2899637175255402e-03 2.5658051496136799e-02 7.0403702317916192e-02 5.3516584144311596e-01 1.1829788910200560e-02 -5.4894482399931332e-02 -8.3422064515226102e-02 8.2023699632195763e-03 4.1169480430209146e-03 4.9935903442065444e-03 -2.6591099674544903e-02 
        </Neuron>
        <Neuron NSynapses="20">
          -1.5594848598912685e-02 2.3869187847242179e-02 4.9118903402944145e+00 -1.3758886124546463e-02 2.6546030726129582e-02 6.2928454933047107e+00 -1.8371960335483960e-02 -7.9512547731719098e-03 1.9499635545269515e-02 -3.4798578122169500e-02 -2.7901203775935246e-02 -3.7473082790704902e-02 -1.2880990598425259e+00 1.1066605804543534e-03 -5.7008311849624495e-02 -1.1882905772971063e-02 7.9776344260453810e-02 -9.4058702582902956e-02 1.3756278041342718e-02 -6.0562947256079587e-02 
        </Neuron>
        <Neuron NSynapses="20">
          1.5303510546441379e-01 1.5039945310936029e-01 -4.1987715738126583e-02 8.9502900197320143e-02 -2.9901965379185550e-02 1.2245769704746734e-01 7.3055895661791159e-02 -3.3321253307603604e-02 1.5785483840981752e-02 -5.2419675813969588e+00 1.0068438590558240e-01 -2.1942345663639573e+00 1.5633583103660245e+00 -8.3835348428416179e-01 4.6541651259585665e-01 -7.2833109562604958e-01 -2.3554291751751119e-01 -1.7063843603082493e-01 -6.3982327184611693e-02 -2.1343735660494183e+01 
        </Neuron>
        <Neuron NSynapses="20">
          5.7456481730142139e-01 7.0810664055537598e-01 -2.6334931706089863e-02 9.1482084599523539e-01 2.3568170404200486e+00 -5.7942747093771529e-01 -8.4619383807887849e-01 -3.6021792305759401e+00 2.1629758485041386e+01 -2.1670775904553858e+00 -4.0353520070211584e+00 2.1306273015801160e+00 -1.0893143608276326e+00 1.2405480332243231e+00 1.2209473248820619e+00 2.1665929307504081e-01 -2.4752166367956190e+00 5.5624069846710791e+00 5.6749120274203657e-01 -2.1928259779652084e+00 
        </Neuron>
        <Neuron NSynapses="20">
          2.5728962489406015e+00 -2.6949073092801199e+00 1.5680233198771921e-02 2.4709694349378281e-02 -2.0487277961222093e-02 3.0901306741813850e-02 -2.1705399764817826e-03 7.7922962324810259e+00 -7.1732980144040753e-02 -2.7844931477432966e-01 -7.7335026837270329e+00 -2.8986046557850953e-01 7.6021144965530185e-01 -7.6477834785098189e-02 5.8216926501272539e+00 1.6734880523199241e-02 6.9773194379147752e+00 1.0092461003531474e-01 -3.9422639073049617e-02 -2.5836457807826413e-01 
        </Neuron>
        <Neuron NSynapses="20">
          4.5269005535660434e-02 3.5693322822827812e-02 -2.3723496385094411e-01 -6.5203164655865091e+00 -6.7283118804946529e+00 -6.1124600909486215e+00 -6.0060716802402583e+00 7.8400384396218395e-02 1.9685403967600598e-01 6.5447488086909589e-02 1.6143824075417368e-02 -1.3824085787381615e-01 -7.9671641007921878e-01 -2.5371772271549346e-02 -2.9114319742490025e-01 1.3122597938721003e-03 3.2032904560957781e-01 2.6056536361601484e-01 -5.5156362665717866e+00 1.5797212981819292e-01 
        </Neuron>
        <Neuron NSynapses="20">
          -2.1716642853649857e-02 -6.2951017385758909e-02 -7.1513849096558908e-03 1.0226583123120556e-01 2.4779098761365140e-02 1.1279493594702236e-01 6.5311709641436733e-02 -5.9048052258280088e-02 -4.4064883306374390e-02 -2.7499604111071208e-01 -3.7638635873810132e-02 6.8120550572129748e+00 -3.2249282538103491e-01 1.8424614251021513e+01 -8.4246098830928484e-02 -1.1942611831852203e-01 1.3707675846926617e-01 2.2239398848042814e-02 -1.8450895908893990e-02 -3.9957863661562132e-01 
        </Neuron>
        <Neuron NSynapses="20">
          1.9975333134017030e+00 2.0600490078455649e+00 2.6002999631658602e-01 -7.6962975226730856e-01 5.9995735826087158e+00 1.7088668639449127e-02 -2.4089451296871953e+00 -5.3986732085449312e+00 2.1623737810818593e+01 -6.4186195395778594e+00 -5.3961364386768462e+00 4.2730265308753532e+00 -3.0774619654577418e+00 1.0836182759247932e+00 3.0200773973042838e+00 2.9204440033636376e+00 -3.6412524433156634e+00 2.7498383100329882e+00 2.4862517451158501e+00 -4.7002171627056555e+00 
        </Neuron>
        <Neuron NSynapses="20">
          1.9821167414500416e+00 -1.9096605355418563e+00 -8.7505107712364995e-03 -7.1141808507440190e-03 -6.1471077376799169e-03 2.6687671636858794e-02 1.6255955101311559e-03 -7.7806024307768427e+00 2.2383444067423486e-02 2.4841289145512918e-01 7.6894793597290194e+00 2.9797223076062496e-01 5.4154850923329723e-01 3.3593721632199612e-02 -5.6048126358809585e+00 7.4243565449972723e-02 -6.8593918370358278e+00 -5.9886830869625436e-02 4.1130885825250714e-02 2.9897775377792041e-01 
        </Neuron>
        <Neuron NSynapses="20">
          -3.9876446408040341e-02 -6.4178964340436420e-02 -4.7084989794792262e+00 6.3564327547727357e+00 6.8288532889248179e+00 -2.3714804888260796e-01 6.0003890717244106e+00 -3.8421248175722691e-02 -1.8471763606081948e-01 3.3828789610868042e-02 -2.8195163886365775e-02 -4.3499877884727450e-02 -1.1304315126981630e+00 6.6558346068420326e-03 2.2572934019226581e-01 2.5763947798855612e-03 -3.2129837447910753e-01 -1.5992564871167786e-01 5.4822403540223226e+00 -2.4280702844961938e-02 
        </Neuron>
        <Neuron NSynapses="20">
          -6.9272784189536613e-02 -6.9589966548590065e-02 -8.1927063589532584e-02 -2.3144594860748706e-02 -6.2199649312311013e-02 6.4811277283370522e-02 -1.9605420567586324e-02 -1.0352814607553905e-01 -2.0877491606951942e-02 -5.2862500907637755e-01 -1.8996961297634801e-01 5.6508260108133284e+00 -8.6165388202485116e-01 -1.2803138343233583e-01 -2.6897253421920397e-01 2.0050327819024670e+01 4.0059545166654992e-01 4.7835232747744053e-02 -2.1816938301554927e-03 -5.7120089450204725e-01 
        </Neuron>
        <Neuron NSynapses="20">
          5.4281074125927358e+00 4.8171280455394081e+00 1.5965763551396663e+00 -1.1532480022310475e+01 1.8619986138945986e+01 -1.7257525704682410e+00 -1.2858477592369213e+00 -6.0130020331391885e+00 4.2815562396738251e+01 -1.5502826080388508e+00 -5.6698810093478116e+00 -1.8672467727702977e+00 1.7326463783265298e+00 -1.7090793137419833e+01 5.3277380993246304e-01 -1.6618231408254889e+01 -1.0027868988074637e+00 3.5286175446151340e+01 1.5743887306367901e+00 7.4726297009869425e-01 
        </Neuron>
      </Layer>
      <Layer Index="1" NNeurons="21">
        <Neuron NSynapses="19">
          -1.5097459591000149e+00 1.0552409814518429e+00 7.1459515758418846e+00 -4.8272721970214603e+00 -1.0066257073796674e+00 9.8259604327882732e-01 -1.8591144074418990e+00 6.0158661385274670e-01 -1.2021443535278902e+00 -5.5008681331775122e+00 1.9369018100717464e-02 -6.7624506076832827e+00 3.6822273118836774e-01 -1.2648269150811917e+01 9.3222875107237513e-01 1.7910590541498144e+00 2.7786272533952387e+00 3.7202038733235063e-02 -1.7358613197499213e+00 
        </Neuron>
        <Neuron NSynapses="19">
          -1.7256843183660275e+00 1.9836674704058768e+00 -1.1219950244854378e+01 -4.4958509220327869e+00 -1.2273906896774829e+00 1.2215851047324622e+00 -1.6840438522533858e+00 3.7833138576085817e-01 -2.2183792849616792e+00 -6.0424767276461377e+00 -8.7517161339044980e-01 7.0967778930818017e+00 1.5503365871596364e+00 -1.4377870171173726e+01 9.2018542837079786e-01 2.2491300015950992e+00 3.2494344734225837e+00 3.9420468928854979e-02 -1.7674054548982143e+00 
        </Neuron>
        <Neuron NSynapses="19">
          1.8200551536731269e-01 3.1498363127961828e+00 -8.4535192337691523e-01 9.5764186569469589e-01 -8.4433828861162907e-01 -4.8865641719347142e-01 -3.9353893211143753e-01 -2.3782309452754521e-01 6.4605161218197775e+00 -9.9832666987327978e-01 -9.8033633125675090e-02 -8.8599618235561572e-01 8.1458450194936205e-01 1.0964294610128567e+01 2.7123487538710617e-01 2.2982885369751565e-03 -1.2161469979647046e+00 4.9009387740062810e-01 -6.5624697758928563e-01 
        </Neuron>
        <Neuron NSynapses="19">
          -9.2902535662282693e-01 1.7365066359169188e+00 3.4753598085322999e+00 -3.8740601433363970e+00 -2.4589998990985976e-01 6.8753904075947181e-01 1.8776605760711362e+00 -2.5492725117714889e+00 4.3354735823556352e+00 -9.0848433236132764e-01 -1.2603577129141013e+00 3.6622825586159258e+00 5.9665888779812288e+00 3.8669201007335494e+00 1.9039411241889667e-01 2.6747880729562064e+00 1.4200628608141876e+00 8.8685650754865915e+00 -1.7587637997102836e+00 
        </Neuron>
        <Neuron NSynapses="19">
          9.1644082498630848e+00 -2.2511362827675856e+00 -1.4263597704378466e+00 3.2017254397482651e+00 -2.1601765447717694e-01 -7.5506976326962272e-01 1.0884214832190093e+00 -1.2641754425205640e+01 1.7781146085386901e+00 6.5857423459161152e-02 1.8284189632026837e+00 -1.8836592495340168e+00 -4.1207294677326471e+00 7.4325180067145062e+00 -6.1452865976414399e+00 -1.7459552278231756e+00 -1.9876223903876593e+00 -5.5396663144424299e+00 5.4488426270543688e-01 
        </Neuron>
        <Neuron NSynapses="19">
          -3.9087425054451708e-01 -3.0140030805143350e+00 1.2503732341963381e+00 -1.1748880372647230e+00 4.1480577962227877e-01 6.3385328059717538e-01 -3.8585983009670442e-02 4.0308159059583132e-01 -6.1583628751608099e+00 7.9005359027936362e-01 1.1533391472044119e+00 1.2065440413570281e+00 -6.5389540672407975e-01 -1.0886171609409601e+01 -1.1756220192389835e-01 1.7321820617258375e-02 1.6575576034129278e+00 -4.7208447566459744e-01 -3.0630719061558391e-02 
        </Neuron>
        <Neuron NSynapses="19">
          -1.0016779148690071e+01 5.2178419519431152e-01 3.1503936035438387e+00 -1.3262206527019493e+00 -6.3501774425582813e-01 6.0065842804465774e-01 -8.4308323080294612e-01 1.4194471962723236e+01 5.0870358155448017e+00 -1.8716366402239148e+00 4.5165013169596979e-01 3.2568486461669899e+00 4.9624105290321827e+00 4.6183523122026573e+00 7.5873068912329984e+00 1.6791883489224282e+00 1.6794496845176232e+00 6.8297217979735461e+00 -1.4613103060095860e+00 
        </Neuron>
        <Neuron NSynapses="19">
          -6.9141368571804129e+00 1.3789518194702350e+00 1.3528880140130062e+00 -4.0650722627594496e+00 -8.2561849091389361e-01 -4.0525784805264459e-01 -8.2974314999718306e+00 1.0859549006886628e+01 -2.1929670672301196e-02 3.1677199646415849e-01 1.0724592547886085e+00 1.0274342261028557e+00 -1.5720732358261633e-01 2.8544854071054143e-01 3.0199681903405704e+00 1.4812253705191936e+00 1.0241654702356524e+00 4.6084108972711118e+00 -1.3308387452537195e-02 
        </Neuron>
        <Neuron NSynapses="19">
          7.8325609962160616e+00 2.7030198079805362e-01 -2.0690327054161859e+00 -3.2221458889540866e+00 1.1760376046627226e-01 -1.5562248297159962e+00 7.5795629842016883e+00 2.8498911775280839e-01 -1.9965122544739705e-01 -2.7198695694646253e+00 1.0458409191468827e+00 -2.3492206859946205e+00 -6.4028810160674512e+00 -1.0775631921454008e+00 -7.8968921687854596e+00 -1.4294583229951647e+00 -8.4691386628749554e-01 -9.5744847780401461e+00 -2.2302450065357875e+00 
        </Neuron>
        <Neuron NSynapses="19">
          4.9051159460046689e-01 -1.2499772474197736e-01 3.0583295458783027e-01 8.4663248846672590e-02 -2.0584491795020476e-01 -6.8028973215222512e+00 4.5117973930674166e-01 -5.3178983590622364e-01 -6.4066354637962986e-01 8.7375150808691390e-02 1.4430414355564627e+00 3.6944738275139233e-01 6.4475770349286454e-01 -1.0047160341073746e+00 1.0421358620322025e+00 2.8558236299581568e+00 4.2639066866937309e-01 -4.1628034912774420e-01 -2.6513733854627580e-01 
        </Neuron>
        <Neuron NSynapses="19">
          -5.1910260412405727e+00 1.9287381112383584e+00 3.5793832555439431e-01 -4.0694033550920876e+00 -5.8675144574300182e+00 3.0628877093434753e-01 -7.2968880343463782e+00 9.0332301000628696e+00 -8.9432010461116140e-01 4.4419949109013768e-01 1.6133526521697490e+00 1.4095003403238913e+00 3.1338632704202158e+00 1.9871678017806194e-01 2.5586678229861302e+00 1.2398025943077124e+00 1.1771490456154527e+00 3.6953519187115029e+00 -1.7374114108996870e+00 
        </Neuron>
        <Neuron NSynapses="19">
          1.6164129585681103e-01 5.2390304240904040e-01 -5.7488601085829427e-01 3.6658940522030842e-01 4.9893339861745378e-01 -2.3824355097995711e+00 1.8214813562778384e-01 -1.1013406742326505e-01 -1.9781542625153703e-01 -9.6738610018208981e-01 -1.7768666164438813e+00 -6.5457129731678099e-01 -2.3457510917909135e+00 -1.4862414283102363e-01 -2.1778667378757954e-01 1.0267469274271197e+00 7.0878401940047420e-01 -2.6294646061475296e-01 1.5178985117626462e+00 
        </Neuron>
        <Neuron NSynapses="19">
          7.9277883681369399e-01 -1.3290780954186290e-01 -4.8150118890242375e+00 -2.4109877457880607e-01 -2.1591288370196495e+00 2.1062035192330062e+00 3.1316228284258445e+00 -5.5203813848277123e+00 -6.4225294354657425e+00 1.4424153505775481e+00 5.4926012230775056e-01 -4.9456761270646252e+00 8.4057577013530205e-01 -7.1141710483138958e+00 7.0998740314181730e-01 -2.8366998419602623e+00 -7.0778535752506926e+00 -1.7773174855591514e+00 -1.5115511407681631e-01 
        </Neuron>
        <Neuron NSynapses="19">
          8.8561704657198237e-01 1.4949605697190542e+00 1.5605454338416929e+00 -3.5817535335961057e-03 -1.3279791921150403e+00 -1.0372530326985267e+01 6.9980703706263792e-01 6.1239191270841076e-01 -9.2108049838738870e-01 5.5740874655004289e+00 -5.9882540675532347e-01 1.9387162227401089e+00 -5.4310862764720937e+00 -1.9103186014268960e+00 3.1298723790885821e+00 7.4519873271833799e+00 1.1661458316791656e-01 -5.5725720965940262e-01 4.5281825801311271e-01 
        </Neuron>
        <Neuron NSynapses="19">
          5.6070972242331392e+00 -4.2311957854152088e-01 -2.8360875418900382e+00 4.2132600222760824e-01 6.6738025549411653e+00 -4.8975156715629969e-01 4.8549334115997675e+00 -4.3995469317624583e+00 -2.6374299394190310e+00 2.5661962715579645e-01 1.1933101845649219e+00 -5.5800949800796895e-01 -5.1756738363351396e+00 -9.4257898442624333e-01 -2.7336514767569573e-02 9.3091633132098972e-01 -6.6794944191758221e-01 -3.0160747536974273e+00 -7.9846434584556347e-01 
        </Neuron>
        <Neuron NSynapses="19">
          2.6810401994785305e+00 -7.8952794215098232e-01 8.5208969184734251e-01 -2.6310959833669895e-01 1.9793633526224976e+00 -9.5487664373158196e+00 3.0165797004090837e+00 -4.1870227928777110e-01 -1.3761260522203913e+00 6.1612389880256719e+00 4.5806708395412088e-01 2.2640148901076049e+00 -4.2043851424581904e+00 -7.5101113168312872e-01 2.8504970273064889e-01 5.3760030699699568e+00 4.5742593838868678e-01 -2.7381296166116607e+00 -6.3912369833122573e-01 
        </Neuron>
        <Neuron NSynapses="19">
          -2.7172872990498051e+00 -1.6946820630523363e+00 4.6312812085541921e-01 -1.9766275613329604e-01 1.1542247489706958e+00 1.8134173022221372e+00 -3.8606904890212297e+00 -4.3502816854748332e+00 6.7073918556154533e-01 1.4087810217451062e+00 1.1520502793694867e-01 3.0260484392389548e+00 5.4756387588464959e+00 -2.3441919813431797e-01 9.7900742797535278e-01 -1.9157686915627323e+00 -5.5259371259374968e-01 5.9311592683802292e+00 -1.8579192799821223e+00 
        </Neuron>
        <Neuron NSynapses="19">
          -1.1171728127834033e+00 7.2892805672089667e-01 6.1397232479061712e+00 1.8952582959842750e+00 -1.2007764647753274e+00 2.4385969895244664e+00 -2.0377688876270739e+00 5.9926737983335998e-01 4.1849707704818986e+00 -5.0077342783486172e+00 1.1991265489433902e+00 6.4964094129015546e+00 -1.2509855583268574e+00 -1.1654374135280552e+00 1.6413064082779003e+00 -1.8655090384494941e+00 5.2589782777300540e+00 8.3060566643871914e-01 4.2125548948683877e-01 
        </Neuron>
        <Neuron NSynapses="19">
          2.2319364379417506e+00 1.8155913251937545e+00 -3.4701165563214813e+00 2.2694485334072709e+00 -8.2112406736113246e-03 -9.3855064404604160e-01 1.1729749346761215e+01 -1.4684376804927686e+01 1.9657919549167544e+00 -1.4233805543317296e-01 9.8617697979796526e-01 -3.6208426450361806e+00 -5.3108223019102621e+00 5.9756695192274139e+00 -7.7270631178710989e+00 -1.9146385126438499e+00 -2.3121751446898844e+00 -7.9002899962949069e+00 -1.0197413897115257e+00 
        </Neuron>
        <Neuron NSynapses="19">
          -2.4347535364228362e-01 1.0105528681174769e+00 1.8020767507456720e-01 -8.1703397073408857e-01 5.8083899244315629e-01 -7.0359029330373772e+00 -6.6816094224088285e-01 3.8707380226307375e-01 -5.1191095962606559e-01 -1.6658082757110801e+00 -1.3532461985120749e+00 2.5112727287385650e-01 -4.4146683994996758e+00 -1.4932417727241605e+00 -1.7789821428917654e-01 2.4821034248444356e+00 1.1363702517698572e+01 6.1706553598360095e-02 -1.2623905364401355e+00 
        </Neuron>
        <Neuron NSynapses="19">
          2.4043308872254445e+00 -1.7573099347869420e-01 -3.8078681324897858e+00 -8.9054282507299576e-02 -2.6124630607962662e+00 2.8381172901102287e+00 3.6956565891591469e+00 -8.4919832327921547e+00 -6.9382945520338257e+00 2.1249332178851059e+00 1.7215043005692983e+00 -6.4264471968784100e+00 2.5516740181298875e-01 -9.2500335790701005e+00 -1.2999665688296016e+00 -1.9141992723425733e-01 -7.7599900628139462e+00 -3.3273968023310380e-01 -5.1352507316092044e-01 
        </Neuron>
      </Layer>
      <Layer Index="2" NNeurons="20">
        <Neuron NSynapses="1">
          -2.2072057989290244e+00 
        </Neuron>
        <Neuron NSynapses="1">
          -2.3689239485710201e+00 
        </Neuron>
        <Neuron NSynapses="1">
          -7.0416780441673694e+00 
        </Neuron>
        <Neuron NSynapses="1">
          4.7358726819800667e+00 
        </Neuron>
        <Neuron NSynapses="1">
          -5.1343754311251422e+00 
        </Neuron>
        <Neuron NSynapses="1">
          2.8217748233987425e+00 
        </Neuron>
        <Neuron NSynapses="1">
          -1.6695034017164829e+00 
        </Neuron>
        <Neuron NSynapses="1">
          -7.5634610375014759e+00 
        </Neuron>
        <Neuron NSynapses="1">
          5.2501730492510186e+00 
        </Neuron>
        <Neuron NSynapses="1">
          -5.2915599219888954e+00 
        </Neuron>
        <Neuron NSynapses="1">
          3.2258739846931067e-01 
        </Neuron>
        <Neuron NSynapses="1">
          -6.8170613661287662e+00 
        </Neuron>
        <Neuron NSynapses="1">
          1.6342572130846444e+00 
        </Neuron>
        <Neuron NSynapses="1">
          -9.3962697731850202e+00 
        </Neuron>
        <Neuron NSynapses="1">
          -3.1497304239774961e+00 
        </Neuron>
        <Neuron NSynapses="1">
          -4.2341292816690999e+00 
        </Neuron>
        <Neuron NSynapses="1">
          5.3061678401573014e+00 
        </Neuron>
        <Neuron NSynapses="1">
          4.3980709705958336e+00 
        </Neuron>
        <Neuron NSynapses="1">
          1.6372527595216810e-01 
        </Neuron>
        <Neuron NSynapses="1">
          -2.1370270774706246e-01 
        </Neuron>
      </Layer>
      <Layer Index="3" NNeurons="1">
        <Neuron NSynapses="0"/>
      </Layer>
    </Layout>
  </Weights>
</MethodSetup>
