<?xml version="1.0"?>
<MethodSetup Method="MLP::ANN_v1">
  <GeneralInfo>
    <Info name="TMVA Release" value="4.2.1 [262657]"/>
    <Info name="ROOT Release" value="6.10/09 [395785]"/>
    <Info name="Creator" value="mc_cheng"/>
    <Info name="Date" value="Sat Aug 15 03:37:03 2020"/>
    <Info name="Host" value="Linux cmsbuild76.cern.ch 2.6.32-696.30.1.el6.x86_64 #1 SMP Tue May 22 06:09:36 CEST 2018 x86_64 x86_64 x86_64 GNU/Linux"/>
    <Info name="Dir" value="/wk_cms2/mc_cheng/public/tqHGG/2017/MVAreco_train"/>
    <Info name="Training events" value="853253"/>
    <Info name="TrainingTime" value="1.24603883e+04"/>
    <Info name="AnalysisType" value="Classification"/>
  </GeneralInfo>
  <Options>
    <Option name="NCycles" modified="No">500</Option>
    <Option name="HiddenLayers" modified="No">N,N-1</Option>
    <Option name="NeuronType" modified="No">sigmoid</Option>
    <Option name="RandomSeed" modified="No">1</Option>
    <Option name="EstimatorType" modified="No">CE</Option>
    <Option name="NeuronInputType" modified="No">sum</Option>
    <Option name="V" modified="Yes">True</Option>
    <Option name="VerbosityLevel" modified="No">Verbose</Option>
    <Option name="VarTransform" modified="Yes">N</Option>
    <Option name="H" modified="Yes">True</Option>
    <Option name="CreateMVAPdfs" modified="No">False</Option>
    <Option name="IgnoreNegWeightsInTraining" modified="Yes">True</Option>
    <Option name="TrainingMethod" modified="No">BP</Option>
    <Option name="LearningRate" modified="No">2.000000e-02</Option>
    <Option name="DecayRate" modified="No">1.000000e-02</Option>
    <Option name="TestRate" modified="No">10</Option>
    <Option name="EpochMonitoring" modified="No">False</Option>
    <Option name="Sampling" modified="No">1.000000e+00</Option>
    <Option name="SamplingEpoch" modified="No">1.000000e+00</Option>
    <Option name="SamplingImportance" modified="No">1.000000e+00</Option>
    <Option name="SamplingTraining" modified="No">True</Option>
    <Option name="SamplingTesting" modified="No">False</Option>
    <Option name="ResetStep" modified="No">50</Option>
    <Option name="Tau" modified="No">3.000000e+00</Option>
    <Option name="BPMode" modified="No">sequential</Option>
    <Option name="BatchSize" modified="No">-1</Option>
    <Option name="ConvergenceImprove" modified="No">1.000000e-30</Option>
    <Option name="ConvergenceTests" modified="No">-1</Option>
    <Option name="UseRegulator" modified="No">False</Option>
    <Option name="UpdateLimit" modified="No">10000</Option>
    <Option name="CalculateErrors" modified="No">False</Option>
    <Option name="WeightRange" modified="No">1.000000e+00</Option>
  </Options>
  <Variables NVar="16">
    <Variable VarIndex="0" Expression="LeadPho_Pt" Label="LeadPho_Pt" Title="LeadPho_Pt" Unit="" Internal="LeadPho_Pt" Type="F" Min="3.50009613e+01" Max="1.35641833e+03"/>
    <Variable VarIndex="1" Expression="LeadPho_Eta" Label="LeadPho_Eta" Title="LeadPho_Eta" Unit="" Internal="LeadPho_Eta" Type="F" Min="-2.49999857e+00" Max="2.49994540e+00"/>
    <Variable VarIndex="2" Expression="LeadPho_Phi" Label="LeadPho_Phi" Title="LeadPho_Phi" Unit="" Internal="LeadPho_Phi" Type="F" Min="-3.14158916e+00" Max="3.14158225e+00"/>
    <Variable VarIndex="3" Expression="LeadPho_IDMVA" Label="LeadPho_IDMVA" Title="LeadPho_IDMVA" Unit="" Internal="LeadPho_IDMVA" Type="F" Min="-6.99892342e-01" Max="9.86804008e-01"/>
    <Variable VarIndex="4" Expression="SubleadPho_Pt" Label="SubleadPho_Pt" Title="SubleadPho_Pt" Unit="" Internal="SubleadPho_Pt" Type="F" Min="2.50003128e+01" Max="5.05794891e+02"/>
    <Variable VarIndex="5" Expression="SubleadPho_Eta" Label="SubleadPho_Eta" Title="SubleadPho_Eta" Unit="" Internal="SubleadPho_Eta" Type="F" Min="-2.49997211e+00" Max="2.49995470e+00"/>
    <Variable VarIndex="6" Expression="SubleadPho_Phi" Label="SubleadPho_Phi" Title="SubleadPho_Phi" Unit="" Internal="SubleadPho_Phi" Type="F" Min="-3.14158535e+00" Max="3.14159203e+00"/>
    <Variable VarIndex="7" Expression="SubleadPho_IDMVA" Label="SubleadPho_IDMVA" Title="SubleadPho_IDMVA" Unit="" Internal="SubleadPho_IDMVA" Type="F" Min="-6.99988902e-01" Max="9.88699555e-01"/>
    <Variable VarIndex="8" Expression="bJet_Pt" Label="bJet_Pt" Title="bJet_Pt" Unit="" Internal="bJet_Pt" Type="F" Min="2.50000000e+01" Max="9.58811157e+02"/>
    <Variable VarIndex="9" Expression="bJet_Eta" Label="bJet_Eta" Title="bJet_Eta" Unit="" Internal="bJet_Eta" Type="F" Min="-2.39998555e+00" Max="2.39999700e+00"/>
    <Variable VarIndex="10" Expression="bJet_Phi" Label="bJet_Phi" Title="bJet_Phi" Unit="" Internal="bJet_Phi" Type="F" Min="-3.14158416e+00" Max="3.14156628e+00"/>
    <Variable VarIndex="11" Expression="bJet_btag" Label="bJet_btag" Title="bJet_btag" Unit="" Internal="bJet_btag" Type="F" Min="-2.00000000e+00" Max="9.99999940e-01"/>
    <Variable VarIndex="12" Expression="lep_ID" Label="lep_ID" Title="lep_ID" Unit="" Internal="lep_ID" Type="F" Min="-1.30000000e+01" Max="1.30000000e+01"/>
    <Variable VarIndex="13" Expression="lep_Pt" Label="lep_Pt" Title="lep_Pt" Unit="" Internal="lep_Pt" Type="F" Min="9.00008583e+00" Max="1.09813525e+03"/>
    <Variable VarIndex="14" Expression="lep_Eta" Label="lep_Eta" Title="lep_Eta" Unit="" Internal="lep_Eta" Type="F" Min="-2.39998436e+00" Max="2.39995527e+00"/>
    <Variable VarIndex="15" Expression="lep_Phi" Label="lep_Phi" Title="lep_Phi" Unit="" Internal="lep_Phi" Type="F" Min="-3.14159179e+00" Max="3.14158177e+00"/>
  </Variables>
  <Spectators NSpec="0"/>
  <Classes NClass="2">
    <Class Name="Signal" Index="0"/>
    <Class Name="Background" Index="1"/>
  </Classes>
  <Transformations NTransformations="1">
    <Transform Name="Normalize">
      <Selection>
        <Input NInputs="16">
          <Input Type="Variable" Label="LeadPho_Pt" Expression="LeadPho_Pt"/>
          <Input Type="Variable" Label="LeadPho_Eta" Expression="LeadPho_Eta"/>
          <Input Type="Variable" Label="LeadPho_Phi" Expression="LeadPho_Phi"/>
          <Input Type="Variable" Label="LeadPho_IDMVA" Expression="LeadPho_IDMVA"/>
          <Input Type="Variable" Label="SubleadPho_Pt" Expression="SubleadPho_Pt"/>
          <Input Type="Variable" Label="SubleadPho_Eta" Expression="SubleadPho_Eta"/>
          <Input Type="Variable" Label="SubleadPho_Phi" Expression="SubleadPho_Phi"/>
          <Input Type="Variable" Label="SubleadPho_IDMVA" Expression="SubleadPho_IDMVA"/>
          <Input Type="Variable" Label="bJet_Pt" Expression="bJet_Pt"/>
          <Input Type="Variable" Label="bJet_Eta" Expression="bJet_Eta"/>
          <Input Type="Variable" Label="bJet_Phi" Expression="bJet_Phi"/>
          <Input Type="Variable" Label="bJet_btag" Expression="bJet_btag"/>
          <Input Type="Variable" Label="lep_ID" Expression="lep_ID"/>
          <Input Type="Variable" Label="lep_Pt" Expression="lep_Pt"/>
          <Input Type="Variable" Label="lep_Eta" Expression="lep_Eta"/>
          <Input Type="Variable" Label="lep_Phi" Expression="lep_Phi"/>
        </Input>
        <Output NOutputs="16">
          <Output Type="Variable" Label="LeadPho_Pt" Expression="LeadPho_Pt"/>
          <Output Type="Variable" Label="LeadPho_Eta" Expression="LeadPho_Eta"/>
          <Output Type="Variable" Label="LeadPho_Phi" Expression="LeadPho_Phi"/>
          <Output Type="Variable" Label="LeadPho_IDMVA" Expression="LeadPho_IDMVA"/>
          <Output Type="Variable" Label="SubleadPho_Pt" Expression="SubleadPho_Pt"/>
          <Output Type="Variable" Label="SubleadPho_Eta" Expression="SubleadPho_Eta"/>
          <Output Type="Variable" Label="SubleadPho_Phi" Expression="SubleadPho_Phi"/>
          <Output Type="Variable" Label="SubleadPho_IDMVA" Expression="SubleadPho_IDMVA"/>
          <Output Type="Variable" Label="bJet_Pt" Expression="bJet_Pt"/>
          <Output Type="Variable" Label="bJet_Eta" Expression="bJet_Eta"/>
          <Output Type="Variable" Label="bJet_Phi" Expression="bJet_Phi"/>
          <Output Type="Variable" Label="bJet_btag" Expression="bJet_btag"/>
          <Output Type="Variable" Label="lep_ID" Expression="lep_ID"/>
          <Output Type="Variable" Label="lep_Pt" Expression="lep_Pt"/>
          <Output Type="Variable" Label="lep_Eta" Expression="lep_Eta"/>
          <Output Type="Variable" Label="lep_Phi" Expression="lep_Phi"/>
        </Output>
      </Selection>
      <Class ClassIndex="0">
        <Ranges>
          <Range Index="0" Min="3.5000961303710938e+01" Max="1.3564183349609375e+03"/>
          <Range Index="1" Min="-2.4999985694885254e+00" Max="2.4999015331268311e+00"/>
          <Range Index="2" Min="-3.1415827274322510e+00" Max="3.1415822505950928e+00"/>
          <Range Index="3" Min="-6.9989234209060669e-01" Max="9.8680400848388672e-01"/>
          <Range Index="4" Min="2.5000312805175781e+01" Max="5.0579489135742188e+02"/>
          <Range Index="5" Min="-2.4999721050262451e+00" Max="2.4999547004699707e+00"/>
          <Range Index="6" Min="-3.1415853500366211e+00" Max="3.1415901184082031e+00"/>
          <Range Index="7" Min="-6.9998890161514282e-01" Max="9.8703092336654663e-01"/>
          <Range Index="8" Min="2.5000129699707031e+01" Max="8.4971618652343750e+02"/>
          <Range Index="9" Min="-2.3999855518341064e+00" Max="2.3999960422515869e+00"/>
          <Range Index="10" Min="-3.1415622234344482e+00" Max="3.1415650844573975e+00"/>
          <Range Index="11" Min="-2.0000000000000000e+00" Max="9.9999994039535522e-01"/>
          <Range Index="12" Min="-1.3000000000000000e+01" Max="1.3000000000000000e+01"/>
          <Range Index="13" Min="9.0000858306884766e+00" Max="1.0981352539062500e+03"/>
          <Range Index="14" Min="-2.3999843597412109e+00" Max="2.3999509811401367e+00"/>
          <Range Index="15" Min="-3.1415917873382568e+00" Max="3.1415817737579346e+00"/>
        </Ranges>
      </Class>
      <Class ClassIndex="1">
        <Ranges>
          <Range Index="0" Min="3.5002777099609375e+01" Max="1.3564183349609375e+03"/>
          <Range Index="1" Min="-2.4999985694885254e+00" Max="2.4999454021453857e+00"/>
          <Range Index="2" Min="-3.1415891647338867e+00" Max="3.1415338516235352e+00"/>
          <Range Index="3" Min="-6.9989234209060669e-01" Max="9.8613435029983521e-01"/>
          <Range Index="4" Min="2.5000312805175781e+01" Max="5.0579489135742188e+02"/>
          <Range Index="5" Min="-2.4999721050262451e+00" Max="2.4999074935913086e+00"/>
          <Range Index="6" Min="-3.1415853500366211e+00" Max="3.1415920257568359e+00"/>
          <Range Index="7" Min="-6.9998890161514282e-01" Max="9.8869955539703369e-01"/>
          <Range Index="8" Min="2.5000000000000000e+01" Max="9.5881115722656250e+02"/>
          <Range Index="9" Min="-2.3999855518341064e+00" Max="2.3999969959259033e+00"/>
          <Range Index="10" Min="-3.1415841579437256e+00" Max="3.1415662765502930e+00"/>
          <Range Index="11" Min="-2.0000000000000000e+00" Max="9.9999982118606567e-01"/>
          <Range Index="12" Min="-1.3000000000000000e+01" Max="1.3000000000000000e+01"/>
          <Range Index="13" Min="9.0000858306884766e+00" Max="8.4101763916015625e+02"/>
          <Range Index="14" Min="-2.3999843597412109e+00" Max="2.3999552726745605e+00"/>
          <Range Index="15" Min="-3.1415476799011230e+00" Max="3.1415610313415527e+00"/>
        </Ranges>
      </Class>
      <Class ClassIndex="2">
        <Ranges>
          <Range Index="0" Min="3.5000961303710938e+01" Max="1.3564183349609375e+03"/>
          <Range Index="1" Min="-2.4999985694885254e+00" Max="2.4999454021453857e+00"/>
          <Range Index="2" Min="-3.1415891647338867e+00" Max="3.1415822505950928e+00"/>
          <Range Index="3" Min="-6.9989234209060669e-01" Max="9.8680400848388672e-01"/>
          <Range Index="4" Min="2.5000312805175781e+01" Max="5.0579489135742188e+02"/>
          <Range Index="5" Min="-2.4999721050262451e+00" Max="2.4999547004699707e+00"/>
          <Range Index="6" Min="-3.1415853500366211e+00" Max="3.1415920257568359e+00"/>
          <Range Index="7" Min="-6.9998890161514282e-01" Max="9.8869955539703369e-01"/>
          <Range Index="8" Min="2.5000000000000000e+01" Max="9.5881115722656250e+02"/>
          <Range Index="9" Min="-2.3999855518341064e+00" Max="2.3999969959259033e+00"/>
          <Range Index="10" Min="-3.1415841579437256e+00" Max="3.1415662765502930e+00"/>
          <Range Index="11" Min="-2.0000000000000000e+00" Max="9.9999994039535522e-01"/>
          <Range Index="12" Min="-1.3000000000000000e+01" Max="1.3000000000000000e+01"/>
          <Range Index="13" Min="9.0000858306884766e+00" Max="1.0981352539062500e+03"/>
          <Range Index="14" Min="-2.3999843597412109e+00" Max="2.3999552726745605e+00"/>
          <Range Index="15" Min="-3.1415917873382568e+00" Max="3.1415817737579346e+00"/>
        </Ranges>
      </Class>
    </Transform>
  </Transformations>
  <MVAPdfs/>
  <Weights>
    <Layout NLayers="4">
      <Layer Index="0" NNeurons="17">
        <Neuron NSynapses="16">
          -5.5511316070212926e+00 1.1600205945611910e+00 4.2740087337770606e-02 1.4854767885496713e+01 2.1351604132588196e+00 1.3755406113061019e+00 9.4324577507577179e-01 -1.2678035141426125e+00 -8.4818122114630579e-01 -3.8189416153728495e-01 4.0291690879019715e+00 2.3867887872100719e+00 -7.0977555133800525e+00 -8.3477169785988679e+00 7.0315391370633440e-01 -2.9647422226613884e-01 
        </Neuron>
        <Neuron NSynapses="16">
          5.1125194310447535e-02 7.6034149792265457e-02 -1.3697348340082843e-01 -9.7687840329810455e-02 -9.2385604020116960e-02 -1.4655146976338562e-01 7.2796173786389168e-02 -1.1803062270884947e-01 -9.7958209047685305e-02 7.2317375781952450e-02 6.7078733242195140e-02 -1.5794701390112381e-01 7.4339641269233325e-01 -8.8065307347883781e-01 -8.7015642500667928e-02 -2.6543678500837411e-02 
        </Neuron>
        <Neuron NSynapses="16">
          -5.4198906899711705e+00 -3.9072973091514106e-02 -4.2278993508438001e-02 -1.6116222932737520e-01 8.3158095971792315e-02 5.3185213029652671e-02 -9.6846627766663362e-02 -2.3905041906759583e-01 8.4305841105284232e-02 -2.8976303884937528e-02 -5.1999692343729640e+00 4.3197489694144253e-01 -4.9192116907012112e-02 -3.8075174632726333e-02 5.0847285366830093e-02 3.7826012728506497e-02 
        </Neuron>
        <Neuron NSynapses="16">
          -6.2896381953968059e-02 6.8284539540496902e-02 -1.5030083816288068e-02 -2.2425908170913525e-01 -5.0162650770017657e-02 -9.7688654622759538e-02 1.0555884459659928e-01 3.2134990299119075e-03 5.5918596237904093e-03 -3.0311702251993453e-02 -1.1423540254027288e-01 7.4837244415595168e-04 5.4937256882755164e-02 -5.9260785763750410e-03 -8.9833616114853007e-02 -6.9171432559546983e-02 
        </Neuron>
        <Neuron NSynapses="16">
          -1.8357917978019944e-01 5.0806922461978332e-01 -2.3526068124465761e-02 5.5523193076272124e+00 9.7470375625109662e-01 7.6758289391377987e-01 -1.3270511166946569e-01 -8.0299243589355351e-01 6.6468014540661979e-02 -6.7434628678151565e-01 -3.3270427160838778e-02 -1.9424469594956837e+00 -2.1041910350493476e+00 -2.8425236773842588e+00 4.1432264874826397e-01 -2.1293012791158781e-02 
        </Neuron>
        <Neuron NSynapses="16">
          -8.2413061050282690e-02 -2.4249773057660384e-01 -1.6606329033499744e-02 7.7155006647340679e-02 5.3655934468486127e-02 4.3690490626570834e-03 1.6416760951806008e-02 1.5079196297056485e-01 -1.0033189464862149e-01 -2.9834117383334798e-02 -8.8353057433351173e-02 1.6461356767320259e-01 3.8420420809110178e-01 -7.0068485902942002e-01 -3.5113843247243065e-02 -1.0438345494841357e-01 
        </Neuron>
        <Neuron NSynapses="16">
          1.9141384210997284e-01 -1.8057350568925712e-01 -7.4413782903454115e-02 -9.7338503545163109e-03 -1.2339216397895691e-01 -1.5578197121161752e-01 8.0893784032341071e-02 -4.0159352232849395e-02 -1.3162721303969793e-01 1.2830452004489917e-01 -5.8187199143002232e-03 -9.3574458156937066e+00 -2.5387447500233046e-01 -1.4860244518599916e-01 5.5186169871862707e-03 -8.7843872501908921e-02 
        </Neuron>
        <Neuron NSynapses="16">
          -3.2665282563842039e-02 1.1790323215206192e-01 -4.7211781319188233e-02 -1.4961086417232716e-01 1.7347118273611229e-02 -1.2570542546695121e-01 1.2368715433844128e-01 -1.1616492809832832e-01 -3.5266908206427659e-02 -4.3377626590780746e-02 -4.8565434296297227e-02 5.6628843603370442e-02 -1.3059689323436674e-02 -3.2199169740547040e-02 2.5577646090567511e-02 1.3303423402992308e-02 
        </Neuron>
        <Neuron NSynapses="16">
          -3.2182403105197919e+00 1.2712218794432975e+00 6.3972052109838584e+00 -2.1197595139961980e+01 -2.5403137074553008e+00 -5.2013355927000520e+00 2.9887087580668608e+00 -1.9605810961842409e+00 1.1742102163602364e+00 -3.1176934413863318e+01 3.3138724532451858e+00 -1.7411443732068657e+00 7.1876936470795965e+00 7.3323281548619788e+00 -6.3204992525789203e+00 1.2217276902909968e+00 
        </Neuron>
        <Neuron NSynapses="16">
          -2.1280929244458228e-02 1.5901230517847792e-01 5.4030731749795535e+00 1.0888973999366139e-01 3.1393176624151453e-01 6.8366049957048602e-01 2.3843367360372389e-02 -3.5123718215703442e-01 2.0495950610207285e+00 -2.1066314896138388e-02 6.8019933455960982e-02 -8.2518146079059218e-02 -2.7493998905691073e+00 3.3989273607015771e+00 3.2813448062098542e+00 -3.2018237656396020e+00 
        </Neuron>
        <Neuron NSynapses="16">
          5.6351534166041759e+00 1.1513040898557538e+01 1.6387819375986443e-01 1.3385883806039692e-01 1.5999645939560900e-01 -3.4489279389494687e-01 -3.1295762656855054e-02 1.2135970264670316e+01 1.2868164754040651e-01 -4.9151899407122480e-02 5.6082565813841807e+00 1.0370738953604492e+01 2.0094629939908962e-01 5.8185597834334919e-02 -1.7028417958731454e-01 2.2673223002991602e-01 
        </Neuron>
        <Neuron NSynapses="16">
          2.2666110556898676e-02 -2.7095555133542326e-01 -1.0821638813691185e-02 -1.6551092894342720e+00 -2.7483275118488542e+01 2.1868922391983734e+00 5.6277621148755754e+00 4.9290572191086159e-02 9.3955616185117094e-02 5.7805277278081779e-01 -1.7913824621656499e-01 2.6740225915145699e-01 -3.1589037309266166e+00 -3.7112273511172509e+00 -1.4701929615745052e-01 3.6180011428603387e-01 
        </Neuron>
        <Neuron NSynapses="16">
          -3.4800147144898293e-03 -2.5609714785722857e-02 -1.5896807409744636e-02 4.0997209610087029e-02 -1.4336576683168871e-02 5.0614592618282078e-02 -6.6903520300487865e-02 1.7694112026726595e-02 1.5146452063745855e-02 -3.1533848378379851e-02 -7.0860262066445363e-05 1.2103365032629709e-01 6.4125983909011607e-03 -2.5673431761308919e-02 -1.2970419372989603e-03 -1.0428375501712883e-02 
        </Neuron>
        <Neuron NSynapses="16">
          1.1525773828922063e+00 -9.9272223679049365e-01 5.5715573847483835e-01 -8.6340120455055889e+00 1.9419603698204424e+00 3.2983944951331710e+00 4.0412529400143865e-01 1.2306759783257695e+00 2.3307892119983649e+01 -4.2343810744660155e+00 -1.0538030642868927e+00 5.0653298976273897e-01 8.6087612515452427e+00 2.2192445178298952e+00 -2.0442292555740302e+01 -8.1215172148678825e+00 
        </Neuron>
        <Neuron NSynapses="16">
          2.0711139044652313e-02 -5.8844436209516307e-02 -5.1114765694597759e+00 -1.0599539889231507e-01 -2.8461528677323866e-01 -5.2143001686817136e-01 -1.5274403765199973e-01 3.6308768417280390e-01 -1.8100943540701808e+00 -3.2932666644501729e-02 -5.2005657455441223e-02 -7.7204299210934912e-02 1.2153355778704427e+00 -1.2964968049417698e+00 -3.0842708682677440e+00 3.2722586959065700e+00 
        </Neuron>
        <Neuron NSynapses="16">
          -3.4344859418675405e-01 -1.1044965419264713e+01 -1.9865839383694645e-01 -2.8504286532461429e-02 -1.1701739855907741e-02 3.7088491043942134e-01 -3.6260536646790673e-02 -1.2022246351062224e+01 -9.7888380443068260e-02 -7.7419543535887078e-02 -3.2350993478514284e-01 -1.4805391668081389e+00 -6.5769816880520540e-02 2.2804392538415881e-02 1.3733138174534543e-01 -2.5773212062849732e-01 
        </Neuron>
        <Neuron NSynapses="16">
          -7.7658382741342091e+00 -2.1839144374439816e+00 4.1012121911032109e+00 -9.7882029677416291e+00 1.1202404046845526e+01 1.6221492711867682e+00 -1.8850513602657979e+00 1.8400627552204107e+00 2.2029468757772822e+01 -3.4726402483810091e+01 6.6013114734026734e+00 -6.1055220125666203e+00 5.1994858370163266e+00 -2.9953604848270010e+00 -2.0733262058444073e+01 -5.9521693016791017e+00 
        </Neuron>
      </Layer>
      <Layer Index="1" NNeurons="17">
        <Neuron NSynapses="15">
          1.3416337969384990e+00 5.1556206145875585e+00 -4.7154504025231120e-01 -2.2595764120646824e+00 -3.2229928150275740e+00 2.6164596272487732e+00 -1.7135640713408369e+00 -3.6105334161500293e+00 -4.2096904322685997e+00 7.1141043388893088e+00 -1.5420952688120819e+00 -8.2055793972036761e-01 -3.1508986376687984e+00 2.4924004817697889e+00 -2.4713848049194968e-02 
        </Neuron>
        <Neuron NSynapses="15">
          -3.0239085838540247e+00 -6.8486205303225338e+00 -3.5167440443466202e-02 -2.7438254333563856e+00 6.0498331618105705e-01 -4.7626526254550683e+00 3.1100998171559651e+00 -1.3674507836897393e-01 4.7523140906564043e+00 -8.1957785749168538e-02 2.8056357801755977e-01 -1.1601117173573263e+00 3.1291407673028737e-01 -1.7755485615859698e-01 2.0337353578776063e-01 
        </Neuron>
        <Neuron NSynapses="15">
          -2.7454930457558100e+00 -1.1623322284082527e+00 8.3608360182590635e-01 -6.3536629904630848e-01 -1.0164390464309101e+01 -1.2242666768879301e+01 -1.2956612973919455e+00 9.4667558471773261e-01 3.0367482910796784e+00 -1.3839562984106437e+00 -1.9629971152079156e-01 3.5868602644061925e-01 -8.9319782859333807e-01 -3.4012851440105296e-01 9.3377634518789066e+00 
        </Neuron>
        <Neuron NSynapses="15">
          3.6937418911745667e-01 1.2634406876500417e+00 2.2102674010211301e+00 -9.9303283470555714e-01 1.0823548909438605e+00 -2.5355734234161216e+00 -2.8737469004852882e+00 1.2905501476534103e+00 -4.8597150259028776e-01 -7.7219624733266046e-01 1.7010977951928381e+00 3.9709217023353816e+00 2.5695080267377262e+00 -1.0275512868612781e+01 4.9388640144802126e-01 
        </Neuron>
        <Neuron NSynapses="15">
          -2.2896265159628282e+00 -7.6518187140774052e-01 -4.5936753443011530e-01 5.0514139485295284e-01 1.5653667617203613e+00 -9.4045766170810940e-01 -2.6770250212828564e+00 3.9139175739041314e+00 3.9486974293954852e-01 -3.0413179527923031e+00 1.5786519234696016e+01 -2.2661799277441275e-01 3.2300681796285318e+00 -3.1501913317251415e+00 -1.7050014331227250e+00 
        </Neuron>
        <Neuron NSynapses="15">
          -3.9034292225067837e+00 -2.0982370265351116e+00 -4.8650658808510618e+00 8.1217855833984398e-01 2.2492008760026847e+00 -6.2820503123036824e+00 -2.0057196746539865e+00 -3.7649287723515421e+00 -5.4352384487870264e-01 -4.9687070484384908e+00 2.1671198847799769e+00 3.3436961905027485e-01 -4.0587488819103473e-01 8.4528150241256594e-01 -5.9523154620330097e+00 
        </Neuron>
        <Neuron NSynapses="15">
          1.2004305788350011e+00 1.0900383988305280e+00 8.8482531845423207e-01 -2.5290255762333480e+00 -1.4592608517689358e+00 1.2539492926649871e+00 1.2083790510215748e+00 1.3921110395663883e+00 -1.1606607982411961e+00 3.7675968205630753e-02 -5.1716296116168721e+00 -2.8041539961274062e+00 -7.6648115845163387e+00 -1.3295866780406174e+00 2.2947641970000299e-01 
        </Neuron>
        <Neuron NSynapses="15">
          2.9609249969575178e+00 6.6416860259351571e+00 -7.8068976861815365e-01 -4.5788591568098863e-01 -1.1635896898215501e+00 5.2167629432388187e+00 -2.9201474175093969e+00 -5.3963347364608165e-02 -4.6146067435704650e+00 -3.0135377985300593e-01 4.7823747774520878e-02 1.0115752412785655e+00 -2.5301415311359921e-02 1.7863133997863481e-01 -2.4017515225327254e-01 
        </Neuron>
        <Neuron NSynapses="15">
          5.4387903819676424e+00 -2.1445858031650720e+00 -1.4595467968926297e+00 4.5262095981970751e-01 -4.3779024401903097e+00 7.8937141800153388e+00 3.2628141720580079e+00 -2.4381304902741738e+00 9.8211094901167080e+00 1.8556149353132700e+00 -1.5264041462863589e+00 -7.2295463025905715e-01 -4.7728529210942383e-01 -2.2519041883013178e+00 1.0589616427065325e+01 
        </Neuron>
        <Neuron NSynapses="15">
          -1.6316668894236239e+00 5.6957027081429539e+00 -3.8576235414330227e+00 4.0914511555343192e-01 -2.8590738570875587e+00 2.5975050580738008e+00 -2.7732303086518484e+00 -1.5761079501907322e+00 -5.0837118052764669e+00 8.1853831740418812e+00 -1.9552212232526001e+00 2.8510403252760828e+00 -7.1541285398226651e-01 -3.6667998642392330e-01 -3.5706998629708906e+00 
        </Neuron>
        <Neuron NSynapses="15">
          -1.5209540922779490e+00 -5.4697405889390653e+00 2.9204237497685503e-01 -5.6299021495368751e-01 3.1461884699626848e+00 -2.4451230459479496e+00 1.6281096875786116e+00 3.7467902283487353e+00 4.5978887141136378e+00 -7.1354869524455902e+00 1.5012714233101416e+00 7.1642100268881104e-01 3.0137885306380352e+00 -2.2509813694185015e+00 8.4533653014210688e-02 
        </Neuron>
        <Neuron NSynapses="15">
          1.9285184257453700e-01 1.3140751863465909e+00 2.0443932581470226e-01 -3.0689873519034305e-02 -5.6427614529158121e-01 2.9990319357028555e-01 -4.7967614162185368e-01 -1.1420672599139390e+00 -1.1880294963319127e+00 6.1193028393010029e-01 -3.9507386633396452e-01 5.7043754808083458e-01 -3.7890689475276884e-01 3.4247156254627951e-02 -1.8511214027981329e-01 
        </Neuron>
        <Neuron NSynapses="15">
          1.7390080046295678e-01 -1.4304906710596401e+00 6.4406925428484241e-01 -6.2616862483673263e-01 4.3124358016915706e-02 -1.6410461018227001e+00 3.3534760317741155e+00 6.5308379027800045e+00 -1.0320034390333588e+00 -1.0539220311581763e+00 7.3440745911992282e+00 -7.6393635109079638e-01 5.1738170015511056e+00 -4.5905404307117301e+00 -2.1723217496632463e+00 
        </Neuron>
        <Neuron NSynapses="15">
          -3.2386952843019551e-01 9.7653192912951770e-02 2.0810154805479368e+00 -3.2890921938144679e-01 -8.2179359517762851e-01 1.6321479769858760e-01 5.4171727238135536e-01 5.9670729099994997e+00 -5.9232309591531851e-01 -5.6964416471081469e-01 8.1200232328615982e+00 1.4001745852053049e+00 5.7153309377679253e+00 -5.2111744349558400e+00 -2.1201285813855226e+00 
        </Neuron>
        <Neuron NSynapses="15">
          -2.7667951788578460e-01 2.5889604131309101e+00 -1.5329575281938570e+00 -2.1280972600888881e-01 -1.1047991786847115e+01 5.5587209767849730e+00 6.4244043448702925e-01 3.1086428946965050e+00 3.5785601631822606e+00 4.3862184021157500e+00 -1.9156028549373572e+00 -1.9082837758186821e+00 -8.2706337461098167e-01 -8.3848420585438177e-01 1.9860400634576356e+00 
        </Neuron>
        <Neuron NSynapses="15">
          3.1069002835967054e-02 -2.9174170830605020e+00 -9.4732246801626518e-01 -1.4683315566090410e-01 8.0418596796922674e+00 -1.8533433843160869e+00 -1.5062766326061736e+00 -1.6616239814486586e-01 -1.9871516881421671e+00 1.4977690344237651e+00 -2.6170605676389065e+00 -4.6489279523034965e-01 -1.8746435966910171e+00 -5.5607920328596538e-01 -1.0292462377955641e+01 
        </Neuron>
        <Neuron NSynapses="15">
          -1.3775348557491940e+00 3.6377322274641055e+00 4.0590253106749214e+00 -1.4599571526213198e+00 -2.4836555825732889e+00 -7.4686419637801986e+00 1.5316878622822441e+00 -2.6259843643295828e+00 -1.1090510012894049e+01 -7.5661802051131355e+00 3.7684030124948675e+00 -3.8968112783019011e+00 7.1946245345770621e-01 1.2924136292303328e+00 -1.2348260217128320e+01 
        </Neuron>
      </Layer>
      <Layer Index="2" NNeurons="16">
        <Neuron NSynapses="1">
          2.0148443441859536e+00 
        </Neuron>
        <Neuron NSynapses="1">
          3.7374503609328462e+00 
        </Neuron>
        <Neuron NSynapses="1">
          5.4814158188844431e+00 
        </Neuron>
        <Neuron NSynapses="1">
          -1.0382261113855189e+00 
        </Neuron>
        <Neuron NSynapses="1">
          -5.3734971527114404e+00 
        </Neuron>
        <Neuron NSynapses="1">
          -5.2202875714582690e+00 
        </Neuron>
        <Neuron NSynapses="1">
          1.8096112206257229e+00 
        </Neuron>
        <Neuron NSynapses="1">
          -2.6822755906396396e+00 
        </Neuron>
        <Neuron NSynapses="1">
          -2.5604175240826721e+00 
        </Neuron>
        <Neuron NSynapses="1">
          -3.6062047348326551e+00 
        </Neuron>
        <Neuron NSynapses="1">
          -3.1876297767109278e+00 
        </Neuron>
        <Neuron NSynapses="1">
          -1.7039811127417319e+00 
        </Neuron>
        <Neuron NSynapses="1">
          -2.0996532416781584e+00 
        </Neuron>
        <Neuron NSynapses="1">
          3.4075642842891636e+00 
        </Neuron>
        <Neuron NSynapses="1">
          -7.7687649412622362e+00 
        </Neuron>
        <Neuron NSynapses="1">
          -5.3128370865347074e-01 
        </Neuron>
      </Layer>
      <Layer Index="3" NNeurons="1">
        <Neuron NSynapses="0"/>
      </Layer>
    </Layout>
  </Weights>
</MethodSetup>
