<?xml version="1.0"?>
<MethodSetup Method="MLP::ANN_v1">
  <GeneralInfo>
    <Info name="TMVA Release" value="4.2.1 [262657]"/>
    <Info name="ROOT Release" value="6.10/09 [395785]"/>
    <Info name="Creator" value="mc_cheng"/>
    <Info name="Date" value="Sun Sep 13 18:47:44 2020"/>
    <Info name="Host" value="Linux cmsbuild76.cern.ch 2.6.32-696.30.1.el6.x86_64 #1 SMP Tue May 22 06:09:36 CEST 2018 x86_64 x86_64 x86_64 GNU/Linux"/>
    <Info name="Dir" value="/wk_cms2/mc_cheng/public/tqHGG/2017/MVArecoV3_train"/>
    <Info name="Training events" value="853253"/>
    <Info name="TrainingTime" value="6.68768221e+03"/>
    <Info name="AnalysisType" value="Classification"/>
  </GeneralInfo>
  <Options>
    <Option name="NCycles" modified="No">500</Option>
    <Option name="HiddenLayers" modified="No">N,N-1</Option>
    <Option name="NeuronType" modified="No">sigmoid</Option>
    <Option name="RandomSeed" modified="No">1</Option>
    <Option name="EstimatorType" modified="No">CE</Option>
    <Option name="NeuronInputType" modified="No">sum</Option>
    <Option name="V" modified="Yes">True</Option>
    <Option name="VerbosityLevel" modified="No">Verbose</Option>
    <Option name="VarTransform" modified="Yes">N</Option>
    <Option name="H" modified="Yes">True</Option>
    <Option name="CreateMVAPdfs" modified="No">False</Option>
    <Option name="IgnoreNegWeightsInTraining" modified="Yes">True</Option>
    <Option name="TrainingMethod" modified="No">BP</Option>
    <Option name="LearningRate" modified="No">2.000000e-02</Option>
    <Option name="DecayRate" modified="No">1.000000e-02</Option>
    <Option name="TestRate" modified="No">10</Option>
    <Option name="EpochMonitoring" modified="No">False</Option>
    <Option name="Sampling" modified="No">1.000000e+00</Option>
    <Option name="SamplingEpoch" modified="No">1.000000e+00</Option>
    <Option name="SamplingImportance" modified="No">1.000000e+00</Option>
    <Option name="SamplingTraining" modified="No">True</Option>
    <Option name="SamplingTesting" modified="No">False</Option>
    <Option name="ResetStep" modified="No">50</Option>
    <Option name="Tau" modified="No">3.000000e+00</Option>
    <Option name="BPMode" modified="No">sequential</Option>
    <Option name="BatchSize" modified="No">-1</Option>
    <Option name="ConvergenceImprove" modified="No">1.000000e-30</Option>
    <Option name="ConvergenceTests" modified="No">-1</Option>
    <Option name="UseRegulator" modified="No">False</Option>
    <Option name="UpdateLimit" modified="No">10000</Option>
    <Option name="CalculateErrors" modified="No">False</Option>
    <Option name="WeightRange" modified="No">1.000000e+00</Option>
  </Options>
  <Variables NVar="10">
    <Variable VarIndex="0" Expression="bJet_Pt" Label="bJet_Pt" Title="bJet_Pt" Unit="" Internal="bJet_Pt" Type="F" Min="2.50000000e+01" Max="9.58811157e+02"/>
    <Variable VarIndex="1" Expression="bJet_Eta" Label="bJet_Eta" Title="bJet_Eta" Unit="" Internal="bJet_Eta" Type="F" Min="-2.39998555e+00" Max="2.39999700e+00"/>
    <Variable VarIndex="2" Expression="bJet_btag" Label="bJet_btag" Title="bJet_btag" Unit="" Internal="bJet_btag" Type="F" Min="-2.00000000e+00" Max="9.99999940e-01"/>
    <Variable VarIndex="3" Expression="lep_ID" Label="lep_ID" Title="lep_ID" Unit="" Internal="lep_ID" Type="F" Min="-1.30000000e+01" Max="1.30000000e+01"/>
    <Variable VarIndex="4" Expression="lep_Pt" Label="lep_Pt" Title="lep_Pt" Unit="" Internal="lep_Pt" Type="F" Min="9.00008583e+00" Max="1.09813525e+03"/>
    <Variable VarIndex="5" Expression="lep_Eta" Label="lep_Eta" Title="lep_Eta" Unit="" Internal="lep_Eta" Type="F" Min="-2.39998436e+00" Max="2.39995527e+00"/>
    <Variable VarIndex="6" Expression="dR_lb" Label="dR_lb" Title="dR_lb" Unit="" Internal="dR_lb" Type="F" Min="4.00216579e-01" Max="5.58263826e+00"/>
    <Variable VarIndex="7" Expression="dR_lH" Label="dR_lH" Title="dR_lH" Unit="" Internal="dR_lH" Type="F" Min="8.98793992e-03" Max="1.00411644e+01"/>
    <Variable VarIndex="8" Expression="dPhi_bMET" Label="dPhi_bMET" Title="dPhi_bMET" Unit="" Internal="dPhi_bMET" Type="F" Min="4.88758087e-06" Max="3.14158845e+00"/>
    <Variable VarIndex="9" Expression="Met_Pt" Label="Met_Pt" Title="Met_Pt" Unit="" Internal="Met_Pt" Type="F" Min="4.62549776e-02" Max="9.04426208e+02"/>
  </Variables>
  <Spectators NSpec="0"/>
  <Classes NClass="2">
    <Class Name="Signal" Index="0"/>
    <Class Name="Background" Index="1"/>
  </Classes>
  <Transformations NTransformations="1">
    <Transform Name="Normalize">
      <Selection>
        <Input NInputs="10">
          <Input Type="Variable" Label="bJet_Pt" Expression="bJet_Pt"/>
          <Input Type="Variable" Label="bJet_Eta" Expression="bJet_Eta"/>
          <Input Type="Variable" Label="bJet_btag" Expression="bJet_btag"/>
          <Input Type="Variable" Label="lep_ID" Expression="lep_ID"/>
          <Input Type="Variable" Label="lep_Pt" Expression="lep_Pt"/>
          <Input Type="Variable" Label="lep_Eta" Expression="lep_Eta"/>
          <Input Type="Variable" Label="dR_lb" Expression="dR_lb"/>
          <Input Type="Variable" Label="dR_lH" Expression="dR_lH"/>
          <Input Type="Variable" Label="dPhi_bMET" Expression="dPhi_bMET"/>
          <Input Type="Variable" Label="Met_Pt" Expression="Met_Pt"/>
        </Input>
        <Output NOutputs="10">
          <Output Type="Variable" Label="bJet_Pt" Expression="bJet_Pt"/>
          <Output Type="Variable" Label="bJet_Eta" Expression="bJet_Eta"/>
          <Output Type="Variable" Label="bJet_btag" Expression="bJet_btag"/>
          <Output Type="Variable" Label="lep_ID" Expression="lep_ID"/>
          <Output Type="Variable" Label="lep_Pt" Expression="lep_Pt"/>
          <Output Type="Variable" Label="lep_Eta" Expression="lep_Eta"/>
          <Output Type="Variable" Label="dR_lb" Expression="dR_lb"/>
          <Output Type="Variable" Label="dR_lH" Expression="dR_lH"/>
          <Output Type="Variable" Label="dPhi_bMET" Expression="dPhi_bMET"/>
          <Output Type="Variable" Label="Met_Pt" Expression="Met_Pt"/>
        </Output>
      </Selection>
      <Class ClassIndex="0">
        <Ranges>
          <Range Index="0" Min="2.5000129699707031e+01" Max="8.4971618652343750e+02"/>
          <Range Index="1" Min="-2.3999855518341064e+00" Max="2.3999960422515869e+00"/>
          <Range Index="2" Min="-2.0000000000000000e+00" Max="9.9999994039535522e-01"/>
          <Range Index="3" Min="-1.3000000000000000e+01" Max="1.3000000000000000e+01"/>
          <Range Index="4" Min="9.0000858306884766e+00" Max="1.0981352539062500e+03"/>
          <Range Index="5" Min="-2.3999843597412109e+00" Max="2.3999509811401367e+00"/>
          <Range Index="6" Min="4.0021657943725586e-01" Max="4.9456005096435547e+00"/>
          <Range Index="7" Min="1.2092530727386475e-02" Max="9.2675809860229492e+00"/>
          <Range Index="8" Min="2.7179718017578125e-05" Max="3.1415879726409912e+00"/>
          <Range Index="9" Min="4.6254977583885193e-02" Max="8.5822741699218750e+02"/>
        </Ranges>
      </Class>
      <Class ClassIndex="1">
        <Ranges>
          <Range Index="0" Min="2.5000000000000000e+01" Max="9.5881115722656250e+02"/>
          <Range Index="1" Min="-2.3999855518341064e+00" Max="2.3999969959259033e+00"/>
          <Range Index="2" Min="-2.0000000000000000e+00" Max="9.9999982118606567e-01"/>
          <Range Index="3" Min="-1.3000000000000000e+01" Max="1.3000000000000000e+01"/>
          <Range Index="4" Min="9.0000858306884766e+00" Max="8.4101763916015625e+02"/>
          <Range Index="5" Min="-2.3999843597412109e+00" Max="2.3999552726745605e+00"/>
          <Range Index="6" Min="4.0090674161911011e-01" Max="5.5826382637023926e+00"/>
          <Range Index="7" Min="8.9879399165511131e-03" Max="1.0041164398193359e+01"/>
          <Range Index="8" Min="4.8875808715820312e-06" Max="3.1415884494781494e+00"/>
          <Range Index="9" Min="4.6254977583885193e-02" Max="9.0442620849609375e+02"/>
        </Ranges>
      </Class>
      <Class ClassIndex="2">
        <Ranges>
          <Range Index="0" Min="2.5000000000000000e+01" Max="9.5881115722656250e+02"/>
          <Range Index="1" Min="-2.3999855518341064e+00" Max="2.3999969959259033e+00"/>
          <Range Index="2" Min="-2.0000000000000000e+00" Max="9.9999994039535522e-01"/>
          <Range Index="3" Min="-1.3000000000000000e+01" Max="1.3000000000000000e+01"/>
          <Range Index="4" Min="9.0000858306884766e+00" Max="1.0981352539062500e+03"/>
          <Range Index="5" Min="-2.3999843597412109e+00" Max="2.3999552726745605e+00"/>
          <Range Index="6" Min="4.0021657943725586e-01" Max="5.5826382637023926e+00"/>
          <Range Index="7" Min="8.9879399165511131e-03" Max="1.0041164398193359e+01"/>
          <Range Index="8" Min="4.8875808715820312e-06" Max="3.1415884494781494e+00"/>
          <Range Index="9" Min="4.6254977583885193e-02" Max="9.0442620849609375e+02"/>
        </Ranges>
      </Class>
    </Transform>
  </Transformations>
  <MVAPdfs/>
  <Weights>
    <Layout NLayers="4">
      <Layer Index="0" NNeurons="11">
        <Neuron NSynapses="10">
          8.1745358348092226e-02 -3.3282645350440604e-01 1.8687482290827155e+00 3.2919394702838711e+00 -3.6115931297519204e+01 -2.0129996340739682e+00 2.0097340047450594e+00 -4.5467774946324380e-01 -1.7831463248674225e+01 -9.5936320706287259e-01 
        </Neuron>
        <Neuron NSynapses="10">
          5.8599910041809960e-03 -4.4733116792975762e+00 -1.2863329343400448e-02 1.4271099413440916e-02 2.7318290888679667e-02 -1.5875727821342594e-02 5.7662829129916715e-02 4.4412652913445845e+00 -2.8706874932584985e-02 -7.6781984649759216e-02 
        </Neuron>
        <Neuron NSynapses="10">
          -2.2340389796954000e+01 8.1067651867724189e-02 4.8464602040734306e+00 1.7660670014647195e+00 -3.7830455682158377e-02 -3.4216277959915475e-01 -4.0752186994241085e-01 1.0475673507825053e-01 -7.0094846993734777e-02 4.2846714013972065e-01 
        </Neuron>
        <Neuron NSynapses="10">
          -2.0498637038946485e-02 -9.3699901990779138e-03 -4.2313432182741931e-02 1.2960379498376470e-02 -4.0278401294081910e-02 -2.5435350870373335e-03 -4.6776760774950915e-03 -2.0106884308881839e-02 2.1302225953845042e-02 3.5760101103272414e-02 
        </Neuron>
        <Neuron NSynapses="10">
          -1.5801973138767178e+00 1.2145208892758946e+01 4.0214904592502826e-01 2.4686683424694557e+01 7.0565849477768907e+00 4.4162549005936427e+00 -1.9331513545029615e+01 1.2093725482183984e+01 -6.9496816431709769e+00 -7.2860684198745018e-01 
        </Neuron>
        <Neuron NSynapses="10">
          3.0812565521647801e-03 3.7369376678534496e+00 1.6433407303084138e-02 1.3716457653275610e-03 -3.8423694245795510e-02 3.0768995446589838e-03 -5.2534062261803453e-02 -3.7353925989578785e+00 3.5684371708002004e-02 4.6326952442678503e-02 
        </Neuron>
        <Neuron NSynapses="10">
          -3.1778718376910053e-01 -1.2197926748254181e-01 -6.6236178976884108e-01 2.1325448243461285e+00 6.8785957427831210e-02 -4.7600950346574242e+00 1.6630251823320323e+00 -5.0348591359382196e-02 -6.8948688943479375e-01 8.7263680344356953e-01 
        </Neuron>
        <Neuron NSynapses="10">
          3.3310017029656874e-01 -1.8248104185275367e+00 -2.4940393700067282e-01 1.4117431356503991e+00 -4.1272814555497118e-02 -1.8195698952596417e+00 2.7993133000289647e-02 -1.8191784596965654e+00 3.0182722798953582e-01 7.9533676870296666e-01 
        </Neuron>
        <Neuron NSynapses="10">
          -2.0283636548321621e-02 -3.1099502349730490e-01 -3.2999798815061945e-02 2.6923107389460188e-01 1.5506786935211514e-01 -9.4792812206506670e-03 -1.5032138233440677e+00 -3.4723759816433103e-01 -1.9509844760229367e-01 -1.7332428205924078e+00 
        </Neuron>
        <Neuron NSynapses="10">
          1.9345352804674384e-01 7.5517077047719483e-01 2.3132181553689027e-01 -2.7429609137481201e-02 -1.2481554677681244e+00 9.1972263110073260e-01 3.1981660568133399e+00 8.4823275198745174e-01 -3.2050002368176229e+00 -1.0264787710958769e+01 
        </Neuron>
        <Neuron NSynapses="10">
          4.2175859901981321e+00 6.4594795204331996e+00 -2.3895343174488883e+00 2.6719962717481859e+01 -3.0551708716801542e+01 -2.2401895269185097e+00 -1.5236292919148685e+01 6.3065310774057144e+00 -2.5191520112055251e+01 -7.2846405987198324e+00 
        </Neuron>
      </Layer>
      <Layer Index="1" NNeurons="11">
        <Neuron NSynapses="9">
          2.3183293319379961e+00 -4.1314667443365982e+00 -1.2700207625825541e+01 9.7913612219112256e+00 3.2285240537985582e-01 1.0736184792055353e+01 3.3082722946085746e-01 -2.5304044852136398e+00 -3.1543405317258161e-01 
        </Neuron>
        <Neuron NSynapses="9">
          -3.3177066486217859e+00 1.6866668834675385e+00 9.9947770335025266e-01 -3.3076619675660770e+00 4.9671624310340476e+00 8.1030317449352462e-02 6.2328733749000902e+00 1.7702783353270275e+00 7.0284021158642167e+00 
        </Neuron>
        <Neuron NSynapses="9">
          -5.5525903170440027e-01 3.5134246932298421e+00 1.7763309473648397e+00 -5.3925503321681792e-02 -2.8380498461129489e+00 -2.5697001794735552e+00 3.8433145913487377e-01 5.3094621069594607e+00 -3.1494928679987204e+00 
        </Neuron>
        <Neuron NSynapses="9">
          7.6430460475542512e+00 -4.8190902354027347e+00 -1.2108290709630044e-01 -4.4306146347060169e+00 4.4770935764929831e+00 2.7645136654659326e+00 3.5956074209263184e-01 9.4077498887800814e-01 3.6120688922274902e-01 
        </Neuron>
        <Neuron NSynapses="9">
          2.4460823553225475e+00 -4.6854939304747072e+00 -1.7713875104329990e+00 1.5489375137347965e+00 -3.3437326411026036e+00 -4.7250269876009341e+00 3.0669825625059381e+00 -3.7322731012989059e+00 -3.5474676803960103e+00 
        </Neuron>
        <Neuron NSynapses="9">
          4.4687420331116883e+00 2.3073560620742235e+00 -4.3948088778887744e+00 5.8830015623614749e+00 -1.4044355625025773e+01 -2.4828777436803553e+00 4.0834213070903749e+00 -3.1769073834141590e+00 -9.8785635178390248e+00 
        </Neuron>
        <Neuron NSynapses="9">
          6.8164973870726584e+00 -3.0604394683684650e+00 -1.8097227251938173e+00 -2.6084106436979868e-02 -4.4039652286775444e-01 -1.4434417170635525e+00 1.0711185477256318e+01 -2.5881597798092160e+00 -7.1735226484826180e+00 
        </Neuron>
        <Neuron NSynapses="9">
          -2.8691874416395611e+00 2.0509453172585528e+00 1.1698621378192136e+00 -3.4767792810900948e+00 5.1447005770510517e+00 1.1193770313102658e-01 7.5862277474576487e+00 2.0993315124990799e+00 7.5013708991702428e+00 
        </Neuron>
        <Neuron NSynapses="9">
          3.4044776735037687e+00 1.0437239728491361e+00 -3.2856894416522575e+00 2.1582458107447295e+00 -3.6640906846338503e+00 -2.1977763363764282e+00 -2.2540510101602185e+00 -3.5985753416974515e+00 -3.2067400730629005e+00 
        </Neuron>
        <Neuron NSynapses="9">
          3.5851348799345297e+00 -3.3919770878858568e-01 -1.2033424191366364e+00 8.8703320611896189e-02 -1.8856791367628820e+00 -4.5561431314205947e-01 1.7561081428289032e+00 -1.0581508984219374e+00 -3.6974041437220504e+00 
        </Neuron>
        <Neuron NSynapses="9">
          -5.6003331348751022e+00 -1.5481916571395125e+00 3.4157153565570559e+00 2.1087660217349962e+00 -3.7370636380947503e-01 -6.5339635014912938e+00 -8.4298021928235656e-01 5.3388101525321972e+00 5.8691263760277197e+00 
        </Neuron>
      </Layer>
      <Layer Index="2" NNeurons="10">
        <Neuron NSynapses="1">
          4.8503752506371720e+00 
        </Neuron>
        <Neuron NSynapses="1">
          3.3533319795441932e+00 
        </Neuron>
        <Neuron NSynapses="1">
          5.0925025652009230e+00 
        </Neuron>
        <Neuron NSynapses="1">
          -4.4321251879907999e+00 
        </Neuron>
        <Neuron NSynapses="1">
          -9.0384065061875134e+00 
        </Neuron>
        <Neuron NSynapses="1">
          5.7255636546144650e+00 
        </Neuron>
        <Neuron NSynapses="1">
          -2.6008685148505575e+00 
        </Neuron>
        <Neuron NSynapses="1">
          3.0173577728007075e+00 
        </Neuron>
        <Neuron NSynapses="1">
          -3.4105140455870600e+00 
        </Neuron>
        <Neuron NSynapses="1">
          -2.3647504803972899e+00 
        </Neuron>
      </Layer>
      <Layer Index="3" NNeurons="1">
        <Neuron NSynapses="0"/>
      </Layer>
    </Layout>
  </Weights>
</MethodSetup>
