<?xml version="1.0"?>
<MethodSetup Method="MLP::ANN_v1">
  <GeneralInfo>
    <Info name="TMVA Release" value="4.2.1 [262657]"/>
    <Info name="ROOT Release" value="6.10/09 [395785]"/>
    <Info name="Creator" value="mc_cheng"/>
    <Info name="Date" value="Mon Aug 31 18:25:13 2020"/>
    <Info name="Host" value="Linux cmsbuild76.cern.ch 2.6.32-696.30.1.el6.x86_64 #1 SMP Tue May 22 06:09:36 CEST 2018 x86_64 x86_64 x86_64 GNU/Linux"/>
    <Info name="Dir" value="/wk_cms2/mc_cheng/public/tqHGG/2017/MVArecoV2_train"/>
    <Info name="Training events" value="853253"/>
    <Info name="TrainingTime" value="5.00757938e+03"/>
    <Info name="AnalysisType" value="Classification"/>
  </GeneralInfo>
  <Options>
    <Option name="NCycles" modified="No">500</Option>
    <Option name="HiddenLayers" modified="No">N,N-1</Option>
    <Option name="NeuronType" modified="No">sigmoid</Option>
    <Option name="RandomSeed" modified="No">1</Option>
    <Option name="EstimatorType" modified="No">CE</Option>
    <Option name="NeuronInputType" modified="No">sum</Option>
    <Option name="V" modified="Yes">True</Option>
    <Option name="VerbosityLevel" modified="No">Verbose</Option>
    <Option name="VarTransform" modified="Yes">N</Option>
    <Option name="H" modified="Yes">True</Option>
    <Option name="CreateMVAPdfs" modified="No">False</Option>
    <Option name="IgnoreNegWeightsInTraining" modified="Yes">True</Option>
    <Option name="TrainingMethod" modified="No">BP</Option>
    <Option name="LearningRate" modified="No">2.000000e-02</Option>
    <Option name="DecayRate" modified="No">1.000000e-02</Option>
    <Option name="TestRate" modified="No">10</Option>
    <Option name="EpochMonitoring" modified="No">False</Option>
    <Option name="Sampling" modified="No">1.000000e+00</Option>
    <Option name="SamplingEpoch" modified="No">1.000000e+00</Option>
    <Option name="SamplingImportance" modified="No">1.000000e+00</Option>
    <Option name="SamplingTraining" modified="No">True</Option>
    <Option name="SamplingTesting" modified="No">False</Option>
    <Option name="ResetStep" modified="No">50</Option>
    <Option name="Tau" modified="No">3.000000e+00</Option>
    <Option name="BPMode" modified="No">sequential</Option>
    <Option name="BatchSize" modified="No">-1</Option>
    <Option name="ConvergenceImprove" modified="No">1.000000e-30</Option>
    <Option name="ConvergenceTests" modified="No">-1</Option>
    <Option name="UseRegulator" modified="No">False</Option>
    <Option name="UpdateLimit" modified="No">10000</Option>
    <Option name="CalculateErrors" modified="No">False</Option>
    <Option name="WeightRange" modified="No">1.000000e+00</Option>
  </Options>
  <Variables NVar="8">
    <Variable VarIndex="0" Expression="bJet_Pt" Label="bJet_Pt" Title="bJet_Pt" Unit="" Internal="bJet_Pt" Type="F" Min="2.50000000e+01" Max="9.58811157e+02"/>
    <Variable VarIndex="1" Expression="bJet_Eta" Label="bJet_Eta" Title="bJet_Eta" Unit="" Internal="bJet_Eta" Type="F" Min="-2.39998555e+00" Max="2.39999700e+00"/>
    <Variable VarIndex="2" Expression="bJet_btag" Label="bJet_btag" Title="bJet_btag" Unit="" Internal="bJet_btag" Type="F" Min="-2.00000000e+00" Max="9.99999940e-01"/>
    <Variable VarIndex="3" Expression="lep_ID" Label="lep_ID" Title="lep_ID" Unit="" Internal="lep_ID" Type="F" Min="-1.30000000e+01" Max="1.30000000e+01"/>
    <Variable VarIndex="4" Expression="lep_Pt" Label="lep_Pt" Title="lep_Pt" Unit="" Internal="lep_Pt" Type="F" Min="9.00008583e+00" Max="1.09813525e+03"/>
    <Variable VarIndex="5" Expression="lep_Eta" Label="lep_Eta" Title="lep_Eta" Unit="" Internal="lep_Eta" Type="F" Min="-2.39998436e+00" Max="2.39995527e+00"/>
    <Variable VarIndex="6" Expression="dR_lb" Label="dR_lb" Title="dR_lb" Unit="" Internal="dR_lb" Type="F" Min="4.00216579e-01" Max="5.58263826e+00"/>
    <Variable VarIndex="7" Expression="dR_lH" Label="dR_lH" Title="dR_lH" Unit="" Internal="dR_lH" Type="F" Min="8.98793992e-03" Max="1.00411644e+01"/>
  </Variables>
  <Spectators NSpec="0"/>
  <Classes NClass="2">
    <Class Name="Signal" Index="0"/>
    <Class Name="Background" Index="1"/>
  </Classes>
  <Transformations NTransformations="1">
    <Transform Name="Normalize">
      <Selection>
        <Input NInputs="8">
          <Input Type="Variable" Label="bJet_Pt" Expression="bJet_Pt"/>
          <Input Type="Variable" Label="bJet_Eta" Expression="bJet_Eta"/>
          <Input Type="Variable" Label="bJet_btag" Expression="bJet_btag"/>
          <Input Type="Variable" Label="lep_ID" Expression="lep_ID"/>
          <Input Type="Variable" Label="lep_Pt" Expression="lep_Pt"/>
          <Input Type="Variable" Label="lep_Eta" Expression="lep_Eta"/>
          <Input Type="Variable" Label="dR_lb" Expression="dR_lb"/>
          <Input Type="Variable" Label="dR_lH" Expression="dR_lH"/>
        </Input>
        <Output NOutputs="8">
          <Output Type="Variable" Label="bJet_Pt" Expression="bJet_Pt"/>
          <Output Type="Variable" Label="bJet_Eta" Expression="bJet_Eta"/>
          <Output Type="Variable" Label="bJet_btag" Expression="bJet_btag"/>
          <Output Type="Variable" Label="lep_ID" Expression="lep_ID"/>
          <Output Type="Variable" Label="lep_Pt" Expression="lep_Pt"/>
          <Output Type="Variable" Label="lep_Eta" Expression="lep_Eta"/>
          <Output Type="Variable" Label="dR_lb" Expression="dR_lb"/>
          <Output Type="Variable" Label="dR_lH" Expression="dR_lH"/>
        </Output>
      </Selection>
      <Class ClassIndex="0">
        <Ranges>
          <Range Index="0" Min="2.5000129699707031e+01" Max="8.4971618652343750e+02"/>
          <Range Index="1" Min="-2.3999855518341064e+00" Max="2.3999960422515869e+00"/>
          <Range Index="2" Min="-2.0000000000000000e+00" Max="9.9999994039535522e-01"/>
          <Range Index="3" Min="-1.3000000000000000e+01" Max="1.3000000000000000e+01"/>
          <Range Index="4" Min="9.0000858306884766e+00" Max="1.0981352539062500e+03"/>
          <Range Index="5" Min="-2.3999843597412109e+00" Max="2.3999509811401367e+00"/>
          <Range Index="6" Min="4.0021657943725586e-01" Max="4.9456005096435547e+00"/>
          <Range Index="7" Min="1.2092530727386475e-02" Max="9.2675809860229492e+00"/>
        </Ranges>
      </Class>
      <Class ClassIndex="1">
        <Ranges>
          <Range Index="0" Min="2.5000000000000000e+01" Max="9.5881115722656250e+02"/>
          <Range Index="1" Min="-2.3999855518341064e+00" Max="2.3999969959259033e+00"/>
          <Range Index="2" Min="-2.0000000000000000e+00" Max="9.9999982118606567e-01"/>
          <Range Index="3" Min="-1.3000000000000000e+01" Max="1.3000000000000000e+01"/>
          <Range Index="4" Min="9.0000858306884766e+00" Max="8.4101763916015625e+02"/>
          <Range Index="5" Min="-2.3999843597412109e+00" Max="2.3999552726745605e+00"/>
          <Range Index="6" Min="4.0090674161911011e-01" Max="5.5826382637023926e+00"/>
          <Range Index="7" Min="8.9879399165511131e-03" Max="1.0041164398193359e+01"/>
        </Ranges>
      </Class>
      <Class ClassIndex="2">
        <Ranges>
          <Range Index="0" Min="2.5000000000000000e+01" Max="9.5881115722656250e+02"/>
          <Range Index="1" Min="-2.3999855518341064e+00" Max="2.3999969959259033e+00"/>
          <Range Index="2" Min="-2.0000000000000000e+00" Max="9.9999994039535522e-01"/>
          <Range Index="3" Min="-1.3000000000000000e+01" Max="1.3000000000000000e+01"/>
          <Range Index="4" Min="9.0000858306884766e+00" Max="1.0981352539062500e+03"/>
          <Range Index="5" Min="-2.3999843597412109e+00" Max="2.3999552726745605e+00"/>
          <Range Index="6" Min="4.0021657943725586e-01" Max="5.5826382637023926e+00"/>
          <Range Index="7" Min="8.9879399165511131e-03" Max="1.0041164398193359e+01"/>
        </Ranges>
      </Class>
    </Transform>
  </Transformations>
  <MVAPdfs/>
  <Weights>
    <Layout NLayers="4">
      <Layer Index="0" NNeurons="9">
        <Neuron NSynapses="8">
          -2.5947749103358730e+00 9.8276882426607437e-01 2.0823826801462594e+01 5.9453428331247826e+00 -2.8816012033121017e+00 -3.2790355396063596e+01 -5.4258740046216509e+00 2.9030356951445442e+00 
        </Neuron>
        <Neuron NSynapses="8">
          -1.0627900248812575e-01 -5.6049469453008087e-02 -3.6204134340811128e-01 -2.7786753862725440e+00 -1.5099855277590432e-02 8.0645691771433478e-02 -2.6331690508999870e+00 6.5699661110989849e-02 
        </Neuron>
        <Neuron NSynapses="8">
          1.1220018179340104e-01 2.3692939211082532e+01 -1.7021019608348766e+01 2.0335169250424151e-01 -3.1951702569734014e-01 -5.7796508787654063e-02 -2.9508438842418366e-01 5.2878974400655627e+00 
        </Neuron>
        <Neuron NSynapses="8">
          -1.1431760318801760e-02 2.3971702471841189e-02 4.4002397180737916e-03 -1.1868922058487377e-02 1.7594131673010483e-02 -4.3306414173777709e-02 2.4095622944441498e-02 -6.0484548775186768e-02 
        </Neuron>
        <Neuron NSynapses="8">
          -4.5261147492599463e+00 1.7823729738233092e+00 3.0320646453000637e+00 6.4310132777674145e+00 2.7943503569531511e+01 -5.1189810747914839e+00 -6.2297089861419703e+00 1.8063699586337891e+00 
        </Neuron>
        <Neuron NSynapses="8">
          8.4689877771798497e-02 3.6711819409800506e-02 2.6064943602359431e-01 2.2689979589981069e+00 1.5420898126625073e-03 -9.2500185432628598e-02 2.1622611157431293e+00 -6.0479743100517153e-02 
        </Neuron>
        <Neuron NSynapses="8">
          4.1886263632570566e+00 5.8183630076341797e-01 3.4476342852760833e-01 2.2795057914774472e-01 7.2175900728467324e-01 -1.0581366510673624e+00 -1.0489459965910998e-01 -3.4435159867335530e-01 
        </Neuron>
        <Neuron NSynapses="8">
          1.3184974261917111e+00 -3.6593308097020238e-01 2.7497467076434234e-01 -2.9055807690401586e-01 1.2765147644108679e-01 -7.2786625273770877e-01 3.2656514396213260e-01 4.0311377231992102e-02 
        </Neuron>
        <Neuron NSynapses="8">
          -1.3666760364286266e+00 -4.2451334246157586e+00 8.2603863690962473e+00 8.8216167161850070e+00 2.6300117713658686e+01 -3.6412989678296057e+01 -8.0610344217494436e+00 -8.2707356110461761e-01 
        </Neuron>
      </Layer>
      <Layer Index="1" NNeurons="9">
        <Neuron NSynapses="7">
          -9.1998022507308175e+00 5.9125027716703977e+00 1.6752266737830652e+01 4.4061044941350653e+00 2.6101182492270367e+00 -3.8008763669688522e-01 1.7878895048312952e+01 
        </Neuron>
        <Neuron NSynapses="7">
          -1.5192692392708946e+00 -2.0813526031177765e+00 -4.5119925248410703e-01 7.4691973752448657e+00 5.3684531641615383e+00 -9.7643285178143593e+00 -8.5992502356450018e-01 
        </Neuron>
        <Neuron NSynapses="7">
          8.4516996989494046e+00 -1.9892789573610046e+00 -1.0853421092947944e+01 2.2239553363046984e+00 4.7825572772028906e+00 1.1037968016775356e+01 1.9547786319221807e+01 
        </Neuron>
        <Neuron NSynapses="7">
          -4.9515529421853257e+00 9.6136727460499685e-02 8.4586547020145346e+00 2.3077922622499596e+00 7.1303281082319958e-01 -5.3809744891912779e+00 9.1055103596071909e+00 
        </Neuron>
        <Neuron NSynapses="7">
          -5.5751526452772184e+00 -4.8520593233978024e+00 -9.6434584843011741e+00 9.5165432140764594e-01 -2.3218890684713797e-01 1.4879120053083967e+00 1.0569854066778374e+01 
        </Neuron>
        <Neuron NSynapses="7">
          2.5665280850271173e+00 -7.1369613635499967e+00 -7.1146096646154033e-01 -1.7816902469409803e+00 -1.3365948594677075e+00 -2.1859490518523068e+00 -3.7823089855271976e+00 
        </Neuron>
        <Neuron NSynapses="7">
          7.1353753826643533e+00 -8.6330856329403560e-01 -9.5911981968132203e+00 -2.3040973801710254e+00 -1.1393750000395304e+00 -5.4277447938981016e+00 -1.0087496077981385e+01 
        </Neuron>
        <Neuron NSynapses="7">
          2.0796405238209394e+00 -5.9476521919551328e-01 -5.3339674316397492e+00 2.9940249391846132e+00 9.8394975253837789e+00 2.1963829457639776e+00 -1.4468536300957766e+00 
        </Neuron>
        <Neuron NSynapses="7">
          9.3862204473854083e-01 8.6765201964753249e+00 1.1485662826518639e+00 -1.1693190239831118e+01 -5.8747043902949629e+00 -2.6453797995566273e+00 -1.9747649827874554e+01 
        </Neuron>
      </Layer>
      <Layer Index="2" NNeurons="8">
        <Neuron NSynapses="1">
          7.1920276495821440e+00 
        </Neuron>
        <Neuron NSynapses="1">
          4.6451743887388632e+00 
        </Neuron>
        <Neuron NSynapses="1">
          -1.9405814556161005e+00 
        </Neuron>
        <Neuron NSynapses="1">
          5.1447494677376993e+00 
        </Neuron>
        <Neuron NSynapses="1">
          3.4474100642952266e+00 
        </Neuron>
        <Neuron NSynapses="1">
          2.4870780630508675e+00 
        </Neuron>
        <Neuron NSynapses="1">
          -7.4896842988929624e+00 
        </Neuron>
        <Neuron NSynapses="1">
          -6.7355084530671299e+00 
        </Neuron>
      </Layer>
      <Layer Index="3" NNeurons="1">
        <Neuron NSynapses="0"/>
      </Layer>
    </Layout>
  </Weights>
</MethodSetup>
