<?xml version="1.0"?>
<MethodSetup Method="MLP::ANN">
  <GeneralInfo>
    <Info name="TMVA Release" value="4.2.1 [262657]"/>
    <Info name="ROOT Release" value="6.10/09 [395785]"/>
    <Info name="Creator" value="mc_cheng"/>
    <Info name="Date" value="Sat Jan 16 19:05:56 2021"/>
    <Info name="Host" value="Linux cmsbuild76.cern.ch 2.6.32-696.30.1.el6.x86_64 #1 SMP Tue May 22 06:09:36 CEST 2018 x86_64 x86_64 x86_64 GNU/Linux"/>
    <Info name="Dir" value="/wk_cms2/mc_cheng/public/tqHGG/2017_DeepJet/MVAreco_model"/>
    <Info name="Training events" value="717606"/>
    <Info name="TrainingTime" value="5.21943779e+03"/>
    <Info name="AnalysisType" value="Classification"/>
  </GeneralInfo>
  <Options>
    <Option name="NCycles" modified="Yes">500</Option>
    <Option name="HiddenLayers" modified="Yes">N,N-1</Option>
    <Option name="NeuronType" modified="No">sigmoid</Option>
    <Option name="RandomSeed" modified="No">1</Option>
    <Option name="EstimatorType" modified="No">CE</Option>
    <Option name="NeuronInputType" modified="No">sum</Option>
    <Option name="V" modified="Yes">True</Option>
    <Option name="VerbosityLevel" modified="No">Verbose</Option>
    <Option name="VarTransform" modified="Yes">N</Option>
    <Option name="H" modified="Yes">True</Option>
    <Option name="CreateMVAPdfs" modified="No">False</Option>
    <Option name="IgnoreNegWeightsInTraining" modified="Yes">True</Option>
    <Option name="TrainingMethod" modified="No">BP</Option>
    <Option name="LearningRate" modified="Yes">2.000000e-02</Option>
    <Option name="DecayRate" modified="Yes">1.000000e-02</Option>
    <Option name="TestRate" modified="No">10</Option>
    <Option name="EpochMonitoring" modified="No">False</Option>
    <Option name="Sampling" modified="No">1.000000e+00</Option>
    <Option name="SamplingEpoch" modified="No">1.000000e+00</Option>
    <Option name="SamplingImportance" modified="No">1.000000e+00</Option>
    <Option name="SamplingTraining" modified="No">True</Option>
    <Option name="SamplingTesting" modified="No">False</Option>
    <Option name="ResetStep" modified="No">50</Option>
    <Option name="Tau" modified="No">3.000000e+00</Option>
    <Option name="BPMode" modified="No">sequential</Option>
    <Option name="BatchSize" modified="No">-1</Option>
    <Option name="ConvergenceImprove" modified="No">1.000000e-30</Option>
    <Option name="ConvergenceTests" modified="No">-1</Option>
    <Option name="UseRegulator" modified="No">False</Option>
    <Option name="UpdateLimit" modified="No">10000</Option>
    <Option name="CalculateErrors" modified="No">False</Option>
    <Option name="WeightRange" modified="No">1.000000e+00</Option>
  </Options>
  <Variables NVar="10">
    <Variable VarIndex="0" Expression="bJet_Pt" Label="bJet_Pt" Title="bJet_Pt" Unit="" Internal="bJet_Pt" Type="F" Min="2.50000858e+01" Max="1.06086011e+03"/>
    <Variable VarIndex="1" Expression="bJet_Eta" Label="bJet_Eta" Title="bJet_Eta" Unit="" Internal="bJet_Eta" Type="F" Min="-2.39999175e+00" Max="2.39999986e+00"/>
    <Variable VarIndex="2" Expression="bJet_btag" Label="bJet_btag" Title="bJet_btag" Unit="" Internal="bJet_btag" Type="F" Min="-3.00000000e+00" Max="9.99999106e-01"/>
    <Variable VarIndex="3" Expression="lep_ID" Label="lep_ID" Title="lep_ID" Unit="" Internal="lep_ID" Type="F" Min="-1.30000000e+01" Max="1.30000000e+01"/>
    <Variable VarIndex="4" Expression="lep_Pt" Label="lep_Pt" Title="lep_Pt" Unit="" Internal="lep_Pt" Type="F" Min="9.00013065e+00" Max="8.53743164e+02"/>
    <Variable VarIndex="5" Expression="lep_Eta" Label="lep_Eta" Title="lep_Eta" Unit="" Internal="lep_Eta" Type="F" Min="-2.39992499e+00" Max="2.39997196e+00"/>
    <Variable VarIndex="6" Expression="dR_lb" Label="dR_lb" Title="dR_lb" Unit="" Internal="dR_lb" Type="F" Min="4.00048167e-01" Max="5.64062881e+00"/>
    <Variable VarIndex="7" Expression="dR_lH" Label="dR_lH" Title="dR_lH" Unit="" Internal="dR_lH" Type="F" Min="1.42946094e-02" Max="8.52276325e+00"/>
    <Variable VarIndex="8" Expression="dPhi_bMET" Label="dPhi_bMET" Title="dPhi_bMET" Unit="" Internal="dPhi_bMET" Type="F" Min="6.91413879e-06" Max="3.14159155e+00"/>
    <Variable VarIndex="9" Expression="Met_Pt" Label="Met_Pt" Title="Met_Pt" Unit="" Internal="Met_Pt" Type="F" Min="5.95221259e-02" Max="9.53714783e+02"/>
  </Variables>
  <Spectators NSpec="0"/>
  <Classes NClass="2">
    <Class Name="Signal" Index="0"/>
    <Class Name="Background" Index="1"/>
  </Classes>
  <Transformations NTransformations="1">
    <Transform Name="Normalize">
      <Selection>
        <Input NInputs="10">
          <Input Type="Variable" Label="bJet_Pt" Expression="bJet_Pt"/>
          <Input Type="Variable" Label="bJet_Eta" Expression="bJet_Eta"/>
          <Input Type="Variable" Label="bJet_btag" Expression="bJet_btag"/>
          <Input Type="Variable" Label="lep_ID" Expression="lep_ID"/>
          <Input Type="Variable" Label="lep_Pt" Expression="lep_Pt"/>
          <Input Type="Variable" Label="lep_Eta" Expression="lep_Eta"/>
          <Input Type="Variable" Label="dR_lb" Expression="dR_lb"/>
          <Input Type="Variable" Label="dR_lH" Expression="dR_lH"/>
          <Input Type="Variable" Label="dPhi_bMET" Expression="dPhi_bMET"/>
          <Input Type="Variable" Label="Met_Pt" Expression="Met_Pt"/>
        </Input>
        <Output NOutputs="10">
          <Output Type="Variable" Label="bJet_Pt" Expression="bJet_Pt"/>
          <Output Type="Variable" Label="bJet_Eta" Expression="bJet_Eta"/>
          <Output Type="Variable" Label="bJet_btag" Expression="bJet_btag"/>
          <Output Type="Variable" Label="lep_ID" Expression="lep_ID"/>
          <Output Type="Variable" Label="lep_Pt" Expression="lep_Pt"/>
          <Output Type="Variable" Label="lep_Eta" Expression="lep_Eta"/>
          <Output Type="Variable" Label="dR_lb" Expression="dR_lb"/>
          <Output Type="Variable" Label="dR_lH" Expression="dR_lH"/>
          <Output Type="Variable" Label="dPhi_bMET" Expression="dPhi_bMET"/>
          <Output Type="Variable" Label="Met_Pt" Expression="Met_Pt"/>
        </Output>
      </Selection>
      <Class ClassIndex="0">
        <Ranges>
          <Range Index="0" Min="2.5000156402587891e+01" Max="1.0608601074218750e+03"/>
          <Range Index="1" Min="-2.3999612331390381e+00" Max="2.3999519348144531e+00"/>
          <Range Index="2" Min="-3.0000000000000000e+00" Max="9.9999910593032837e-01"/>
          <Range Index="3" Min="-1.3000000000000000e+01" Max="1.3000000000000000e+01"/>
          <Range Index="4" Min="9.0003099441528320e+00" Max="8.1651617431640625e+02"/>
          <Range Index="5" Min="-2.3999249935150146e+00" Max="2.3999102115631104e+00"/>
          <Range Index="6" Min="4.0004816651344299e-01" Max="5.0837883949279785e+00"/>
          <Range Index="7" Min="1.4294609427452087e-02" Max="8.5227632522583008e+00"/>
          <Range Index="8" Min="2.0265579223632812e-05" Max="3.1415915489196777e+00"/>
          <Range Index="9" Min="5.9522125869989395e-02" Max="9.5371478271484375e+02"/>
        </Ranges>
      </Class>
      <Class ClassIndex="1">
        <Ranges>
          <Range Index="0" Min="2.5000085830688477e+01" Max="6.9700463867187500e+02"/>
          <Range Index="1" Min="-2.3999917507171631e+00" Max="2.3999998569488525e+00"/>
          <Range Index="2" Min="-3.0000000000000000e+00" Max="9.9999785423278809e-01"/>
          <Range Index="3" Min="-1.3000000000000000e+01" Max="1.3000000000000000e+01"/>
          <Range Index="4" Min="9.0001306533813477e+00" Max="8.5374316406250000e+02"/>
          <Range Index="5" Min="-2.3999090194702148e+00" Max="2.3999719619750977e+00"/>
          <Range Index="6" Min="4.0103256702423096e-01" Max="5.6406288146972656e+00"/>
          <Range Index="7" Min="2.0180288702249527e-02" Max="8.5227632522583008e+00"/>
          <Range Index="8" Min="6.9141387939453125e-06" Max="3.1415553092956543e+00"/>
          <Range Index="9" Min="5.9522125869989395e-02" Max="9.5371478271484375e+02"/>
        </Ranges>
      </Class>
      <Class ClassIndex="2">
        <Ranges>
          <Range Index="0" Min="2.5000085830688477e+01" Max="1.0608601074218750e+03"/>
          <Range Index="1" Min="-2.3999917507171631e+00" Max="2.3999998569488525e+00"/>
          <Range Index="2" Min="-3.0000000000000000e+00" Max="9.9999910593032837e-01"/>
          <Range Index="3" Min="-1.3000000000000000e+01" Max="1.3000000000000000e+01"/>
          <Range Index="4" Min="9.0001306533813477e+00" Max="8.5374316406250000e+02"/>
          <Range Index="5" Min="-2.3999249935150146e+00" Max="2.3999719619750977e+00"/>
          <Range Index="6" Min="4.0004816651344299e-01" Max="5.6406288146972656e+00"/>
          <Range Index="7" Min="1.4294609427452087e-02" Max="8.5227632522583008e+00"/>
          <Range Index="8" Min="6.9141387939453125e-06" Max="3.1415915489196777e+00"/>
          <Range Index="9" Min="5.9522125869989395e-02" Max="9.5371478271484375e+02"/>
        </Ranges>
      </Class>
    </Transform>
  </Transformations>
  <MVAPdfs/>
  <Weights>
    <Layout NLayers="4">
      <Layer Index="0" NNeurons="11">
        <Neuron NSynapses="10">
          3.7975790400653608e-01 5.8968700105264393e-01 1.6479228983422440e+00 1.7763639493880419e+01 -1.7593539404304444e+01 1.4077726378887768e+01 3.5363927239472648e-01 -2.2259445525486612e-01 -2.5646507510738157e+01 -6.0890528438114959e+00 
        </Neuron>
        <Neuron NSynapses="10">
          -3.9075301795727895e+00 -1.3974775368152274e-02 -2.5947398811110352e-02 -8.0012596630639157e-02 -1.5877456931776172e-02 8.5214892501048051e-02 -6.5974665690883685e-02 3.7999522057415791e+00 7.0621315489686884e-03 -4.2632177028603339e-03 
        </Neuron>
        <Neuron NSynapses="10">
          -9.8521632438604054e-02 -1.3828358788457538e+00 5.3034024570325123e+01 -4.6381068972665487e+00 -2.6302999511362435e+00 1.6369967262231937e+00 8.7325612866927471e-01 -5.9592970131389297e-02 -9.7935303474451842e+00 1.6861342996889910e+00 
        </Neuron>
        <Neuron NSynapses="10">
          5.2900310983726481e-02 3.0068338296877421e-03 -7.2001949952782644e-03 -7.4893127145921638e-03 4.7629990790910175e-02 3.1673796813419419e-02 -3.3371186203222418e-04 4.1749581564280776e-02 -3.1912283516152717e-02 5.1969277779174886e-02 
        </Neuron>
        <Neuron NSynapses="10">
          4.1610841666175400e+00 -1.9049876193882662e+00 1.1802734637616419e+00 2.7595847804432014e+00 -6.0088072145253388e+00 -1.8585785260404709e+01 -2.2406764785559101e+01 4.2539915389430760e+00 5.6134101070819098e-01 3.9547005559687483e+00 
        </Neuron>
        <Neuron NSynapses="10">
          3.4090108592858721e+00 6.4703058908508497e-03 2.8335121208347528e-02 4.4953905147793280e-02 1.8564875800302957e-02 -6.8319440574939910e-02 3.0475252371721311e-02 -3.3169662937874866e+00 -1.0600004635803757e-02 3.7142968600150181e-03 
        </Neuron>
        <Neuron NSynapses="10">
          -2.1456641001663626e-01 5.0527330316320560e+00 2.6700802073768493e-01 6.3378453463823703e-01 -1.2603583231317077e+00 -7.3592648877901468e-01 -6.4358970994445050e-03 -2.8348728660231887e-01 -4.1499382316874817e-01 1.2277632499065319e-02 
        </Neuron>
        <Neuron NSynapses="10">
          -1.1009026205044368e+00 1.4880507544561428e+00 -3.1538775099827004e-01 -4.5948778377710248e-02 -1.7220924704096133e-01 -5.8647323582178355e-02 -2.3350886843779620e-01 -1.0978909477662453e+00 -3.3681300092117661e-01 1.3063251980823107e+00 
        </Neuron>
        <Neuron NSynapses="10">
          3.8252681778650488e-02 4.2660486771318333e-02 8.6700516224905114e-02 -2.8309113683389225e-01 -1.0970459808342607e-01 2.4022664339498709e-01 -8.1238068649379058e-01 2.1380171510855018e-02 -2.1325395506168318e-01 -2.0196653140056640e+00 
        </Neuron>
        <Neuron NSynapses="10">
          -5.5173203367558266e-02 2.3595222182038522e-01 1.1669720754448492e+00 3.2409698397815707e+00 -2.3226244960322306e+00 -9.7439951257252733e-01 2.8026814260958827e-01 -1.2836771681822751e-01 1.0402042579015605e+00 -7.4772556099412046e+00 
        </Neuron>
        <Neuron NSynapses="10">
          7.1019690478536235e-02 4.6475541753549017e+00 -2.3273069826511637e+01 2.6022456409915037e+01 -2.1192465298861180e+01 -7.4269417895830729e+00 -2.2665055879396757e+01 -4.9020423340249109e-01 -1.9073878826194665e+01 -5.3713798729309241e+00 
        </Neuron>
      </Layer>
      <Layer Index="1" NNeurons="11">
        <Neuron NSynapses="9">
          -2.3490123580914433e+00 2.2726976102540162e+00 2.2268974970625726e+00 2.1133796926772170e+00 6.6652639720666631e+00 -3.9110580536513721e-02 3.9694331877542582e-01 -4.1726860329038180e+00 9.5133653715983808e+00 
        </Neuron>
        <Neuron NSynapses="9">
          1.0044334157098127e+00 -5.2816823625289526e+00 2.1700096054126381e+00 8.5679171286107347e-01 1.2406269957704046e+01 -5.3844799587046461e+00 -1.8532230046915663e+00 -1.0277394506155146e+00 8.7680557846557665e+00 
        </Neuron>
        <Neuron NSynapses="9">
          2.8743689869649138e+00 3.7455611878719659e+00 4.5206657441083259e-01 -1.4615411269101967e+01 -7.7795880042493515e-01 1.3171921369468560e+00 6.3727219170682075e+00 7.3883409389053414e+00 -8.5690725642445253e-01 
        </Neuron>
        <Neuron NSynapses="9">
          -4.9790304214658567e+00 3.5524930983871212e+00 2.3019033052489895e+00 8.0389618001795728e+00 4.0951884718443941e+00 -2.0633664425868612e+00 -6.0801507140828717e+00 -4.6832661416412247e+00 3.3438589999144739e+00 
        </Neuron>
        <Neuron NSynapses="9">
          4.6498149813330185e+00 -6.2770519766388109e+00 -9.7158129512107383e-01 8.3047363512962447e-01 -6.0627576226346367e+00 2.2828749651569282e+00 -4.2281719579898605e+00 -3.2935422935876484e+00 -1.2003086328806756e+00 
        </Neuron>
        <Neuron NSynapses="9">
          -3.0487029579399167e+00 6.2771461068084411e-01 1.5189119912575217e+00 1.1831549658672433e+00 -3.5928266505124653e+00 -2.9249111197825579e+00 1.3019813679385563e+00 -2.4254851097851171e+00 2.3879644695648490e+00 
        </Neuron>
        <Neuron NSynapses="9">
          4.0187152533071053e+00 -1.1303663964638542e+00 -7.5126760714711276e+00 -1.6650847411742908e+00 -6.0967111378544869e+00 -6.5179389319714707e+00 3.2263199906128834e+00 3.3061523135061819e+00 -1.0658711959105949e+01 
        </Neuron>
        <Neuron NSynapses="9">
          -2.3946251967952437e+00 2.8682012530168675e+00 2.0438592057260236e+00 2.0944029137723295e+00 6.7787079088664894e+00 -9.5346771525915464e-01 -8.2856791647800987e-01 -4.4321923819454057e+00 9.6092294362495849e+00 
        </Neuron>
        <Neuron NSynapses="9">
          4.0425597199478958e+00 1.5492266215738359e+00 -2.9425533047959500e+00 1.2764885068889520e+00 -2.1057679095647104e+00 9.6681925771747279e-01 -9.2215186077168667e+00 -2.8144585541790812e-01 -1.7142964184814429e+00 
        </Neuron>
        <Neuron NSynapses="9">
          2.6665333353007799e+00 -3.2325765640672341e+00 3.6742732108670322e+00 -1.9027849845974463e+00 -1.0485150598081838e+00 -5.2661751786602196e-01 1.7664628610216742e+00 1.4142937848762013e-01 -8.9280300538090174e+00 
        </Neuron>
        <Neuron NSynapses="9">
          -9.1829008403638603e+00 -5.1703283779043820e+00 -6.0237058625527986e+00 -6.7982415017585407e-01 -1.0434665014593140e+01 5.0354061714977716e-01 -1.7399916978011567e+00 1.7245660868203272e-01 -2.1695145886404483e+00 
        </Neuron>
      </Layer>
      <Layer Index="2" NNeurons="10">
        <Neuron NSynapses="1">
          -4.5514094350860539e+00 
        </Neuron>
        <Neuron NSynapses="1">
          6.5671516877763931e+00 
        </Neuron>
        <Neuron NSynapses="1">
          2.8539538603148111e+00 
        </Neuron>
        <Neuron NSynapses="1">
          -2.7375589921110719e+00 
        </Neuron>
        <Neuron NSynapses="1">
          -5.4686968108689786e+00 
        </Neuron>
        <Neuron NSynapses="1">
          -5.9847784494991814e+00 
        </Neuron>
        <Neuron NSynapses="1">
          1.5336029579023058e+00 
        </Neuron>
        <Neuron NSynapses="1">
          3.3731737625311009e+00 
        </Neuron>
        <Neuron NSynapses="1">
          -1.7376909825364892e+00 
        </Neuron>
        <Neuron NSynapses="1">
          -7.2766683483062333e-01 
        </Neuron>
      </Layer>
      <Layer Index="3" NNeurons="1">
        <Neuron NSynapses="0"/>
      </Layer>
    </Layout>
  </Weights>
</MethodSetup>
