<?xml version="1.0"?>
<MethodSetup Method="MLP::ANN_v1">
  <GeneralInfo>
    <Info name="TMVA Release" value="4.2.1 [262657]"/>
    <Info name="ROOT Release" value="6.10/09 [395785]"/>
    <Info name="Creator" value="mc_cheng"/>
    <Info name="Date" value="Tue Sep  1 13:57:23 2020"/>
    <Info name="Host" value="Linux cmsbuild76.cern.ch 2.6.32-696.30.1.el6.x86_64 #1 SMP Tue May 22 06:09:36 CEST 2018 x86_64 x86_64 x86_64 GNU/Linux"/>
    <Info name="Dir" value="/wk_cms2/mc_cheng/public/tqHGG/2017/MVArecoV2_train"/>
    <Info name="Training events" value="2524485"/>
    <Info name="TrainingTime" value="7.48126113e+04"/>
    <Info name="AnalysisType" value="Classification"/>
  </GeneralInfo>
  <Options>
    <Option name="NCycles" modified="No">500</Option>
    <Option name="HiddenLayers" modified="No">N,N-1</Option>
    <Option name="NeuronType" modified="No">sigmoid</Option>
    <Option name="RandomSeed" modified="No">1</Option>
    <Option name="EstimatorType" modified="No">CE</Option>
    <Option name="NeuronInputType" modified="No">sum</Option>
    <Option name="V" modified="Yes">True</Option>
    <Option name="VerbosityLevel" modified="No">Verbose</Option>
    <Option name="VarTransform" modified="Yes">N</Option>
    <Option name="H" modified="Yes">True</Option>
    <Option name="CreateMVAPdfs" modified="No">False</Option>
    <Option name="IgnoreNegWeightsInTraining" modified="Yes">True</Option>
    <Option name="TrainingMethod" modified="No">BP</Option>
    <Option name="LearningRate" modified="No">2.000000e-02</Option>
    <Option name="DecayRate" modified="No">1.000000e-02</Option>
    <Option name="TestRate" modified="No">10</Option>
    <Option name="EpochMonitoring" modified="No">False</Option>
    <Option name="Sampling" modified="No">1.000000e+00</Option>
    <Option name="SamplingEpoch" modified="No">1.000000e+00</Option>
    <Option name="SamplingImportance" modified="No">1.000000e+00</Option>
    <Option name="SamplingTraining" modified="No">True</Option>
    <Option name="SamplingTesting" modified="No">False</Option>
    <Option name="ResetStep" modified="No">50</Option>
    <Option name="Tau" modified="No">3.000000e+00</Option>
    <Option name="BPMode" modified="No">sequential</Option>
    <Option name="BatchSize" modified="No">-1</Option>
    <Option name="ConvergenceImprove" modified="No">1.000000e-30</Option>
    <Option name="ConvergenceTests" modified="No">-1</Option>
    <Option name="UseRegulator" modified="No">False</Option>
    <Option name="UpdateLimit" modified="No">10000</Option>
    <Option name="CalculateErrors" modified="No">False</Option>
    <Option name="WeightRange" modified="No">1.000000e+00</Option>
  </Options>
  <Variables NVar="19">
    <Variable VarIndex="0" Expression="bJet_Pt" Label="bJet_Pt" Title="bJet_Pt" Unit="" Internal="bJet_Pt" Type="F" Min="2.50001240e+01" Max="1.48096643e+03"/>
    <Variable VarIndex="1" Expression="bJet_Eta" Label="bJet_Eta" Title="bJet_Eta" Unit="" Internal="bJet_Eta" Type="F" Min="-2.39998889e+00" Max="2.39999986e+00"/>
    <Variable VarIndex="2" Expression="bJet_btag" Label="bJet_btag" Title="bJet_btag" Unit="" Internal="bJet_btag" Type="F" Min="-2.00000000e+00" Max="1.00000000e+00"/>
    <Variable VarIndex="3" Expression="M1Jet_Pt" Label="M1Jet_Pt" Title="M1Jet_Pt" Unit="" Internal="M1Jet_Pt" Type="F" Min="2.50001240e+01" Max="1.48096643e+03"/>
    <Variable VarIndex="4" Expression="M1Jet_Eta" Label="M1Jet_Eta" Title="M1Jet_Eta" Unit="" Internal="M1Jet_Eta" Type="F" Min="-2.39998889e+00" Max="2.39999986e+00"/>
    <Variable VarIndex="5" Expression="M1Jet_btag" Label="M1Jet_btag" Title="M1Jet_btag" Unit="" Internal="M1Jet_btag" Type="F" Min="-2.00000000e+00" Max="1.00000000e+00"/>
    <Variable VarIndex="6" Expression="WJet1_Pt" Label="WJet1_Pt" Title="WJet1_Pt" Unit="" Internal="WJet1_Pt" Type="F" Min="2.50539684e+01" Max="1.48096643e+03"/>
    <Variable VarIndex="7" Expression="WJet1_Eta" Label="WJet1_Eta" Title="WJet1_Eta" Unit="" Internal="WJet1_Eta" Type="F" Min="-2.39996123e+00" Max="2.39998388e+00"/>
    <Variable VarIndex="8" Expression="WJet1_btag" Label="WJet1_btag" Title="WJet1_btag" Unit="" Internal="WJet1_btag" Type="F" Min="-2.00000000e+00" Max="1.00000000e+00"/>
    <Variable VarIndex="9" Expression="WJet2_Pt" Label="WJet2_Pt" Title="WJet2_Pt" Unit="" Internal="WJet2_Pt" Type="F" Min="2.50001240e+01" Max="1.33010242e+03"/>
    <Variable VarIndex="10" Expression="WJet2_Eta" Label="WJet2_Eta" Title="WJet2_Eta" Unit="" Internal="WJet2_Eta" Type="F" Min="-2.39998889e+00" Max="2.39999986e+00"/>
    <Variable VarIndex="11" Expression="WJet2_btag" Label="WJet2_btag" Title="WJet2_btag" Unit="" Internal="WJet2_btag" Type="F" Min="-2.00000000e+00" Max="1.00000000e+00"/>
    <Variable VarIndex="12" Expression="M1" Label="M1" Title="M1" Unit="" Internal="M1" Type="F" Min="1.16835449e+02" Max="3.55030762e+03"/>
    <Variable VarIndex="13" Expression="M2" Label="M2" Title="M2" Unit="" Internal="M2" Type="F" Min="3.17854366e+01" Max="3.98546973e+03"/>
    <Variable VarIndex="14" Expression="MW" Label="MW" Title="MW" Unit="" Internal="MW" Type="F" Min="1.31570644e+01" Max="3.53892529e+03"/>
    <Variable VarIndex="15" Expression="dR_qH" Label="dR_qH" Title="dR_qH" Unit="" Internal="dR_qH" Type="F" Min="5.77733794e-04" Max="9.10488605e+00"/>
    <Variable VarIndex="16" Expression="dR_bW" Label="dR_bW" Title="dR_bW" Unit="" Internal="dR_bW" Type="F" Min="3.24822217e-03" Max="9.35870743e+00"/>
    <Variable VarIndex="17" Expression="dR_tt" Label="dR_tt" Title="dR_tt" Unit="" Internal="dR_tt" Type="F" Min="2.52646185e-03" Max="1.18377590e+01"/>
    <Variable VarIndex="18" Expression="dR_qq" Label="dR_qq" Title="dR_qq" Unit="" Internal="dR_qq" Type="F" Min="3.85853231e-01" Max="5.68257284e+00"/>
  </Variables>
  <Spectators NSpec="0"/>
  <Classes NClass="2">
    <Class Name="Signal" Index="0"/>
    <Class Name="Background" Index="1"/>
  </Classes>
  <Transformations NTransformations="1">
    <Transform Name="Normalize">
      <Selection>
        <Input NInputs="19">
          <Input Type="Variable" Label="bJet_Pt" Expression="bJet_Pt"/>
          <Input Type="Variable" Label="bJet_Eta" Expression="bJet_Eta"/>
          <Input Type="Variable" Label="bJet_btag" Expression="bJet_btag"/>
          <Input Type="Variable" Label="M1Jet_Pt" Expression="M1Jet_Pt"/>
          <Input Type="Variable" Label="M1Jet_Eta" Expression="M1Jet_Eta"/>
          <Input Type="Variable" Label="M1Jet_btag" Expression="M1Jet_btag"/>
          <Input Type="Variable" Label="WJet1_Pt" Expression="WJet1_Pt"/>
          <Input Type="Variable" Label="WJet1_Eta" Expression="WJet1_Eta"/>
          <Input Type="Variable" Label="WJet1_btag" Expression="WJet1_btag"/>
          <Input Type="Variable" Label="WJet2_Pt" Expression="WJet2_Pt"/>
          <Input Type="Variable" Label="WJet2_Eta" Expression="WJet2_Eta"/>
          <Input Type="Variable" Label="WJet2_btag" Expression="WJet2_btag"/>
          <Input Type="Variable" Label="M1" Expression="M1"/>
          <Input Type="Variable" Label="M2" Expression="M2"/>
          <Input Type="Variable" Label="MW" Expression="MW"/>
          <Input Type="Variable" Label="dR_qH" Expression="dR_qH"/>
          <Input Type="Variable" Label="dR_bW" Expression="dR_bW"/>
          <Input Type="Variable" Label="dR_tt" Expression="dR_tt"/>
          <Input Type="Variable" Label="dR_qq" Expression="dR_qq"/>
        </Input>
        <Output NOutputs="19">
          <Output Type="Variable" Label="bJet_Pt" Expression="bJet_Pt"/>
          <Output Type="Variable" Label="bJet_Eta" Expression="bJet_Eta"/>
          <Output Type="Variable" Label="bJet_btag" Expression="bJet_btag"/>
          <Output Type="Variable" Label="M1Jet_Pt" Expression="M1Jet_Pt"/>
          <Output Type="Variable" Label="M1Jet_Eta" Expression="M1Jet_Eta"/>
          <Output Type="Variable" Label="M1Jet_btag" Expression="M1Jet_btag"/>
          <Output Type="Variable" Label="WJet1_Pt" Expression="WJet1_Pt"/>
          <Output Type="Variable" Label="WJet1_Eta" Expression="WJet1_Eta"/>
          <Output Type="Variable" Label="WJet1_btag" Expression="WJet1_btag"/>
          <Output Type="Variable" Label="WJet2_Pt" Expression="WJet2_Pt"/>
          <Output Type="Variable" Label="WJet2_Eta" Expression="WJet2_Eta"/>
          <Output Type="Variable" Label="WJet2_btag" Expression="WJet2_btag"/>
          <Output Type="Variable" Label="M1" Expression="M1"/>
          <Output Type="Variable" Label="M2" Expression="M2"/>
          <Output Type="Variable" Label="MW" Expression="MW"/>
          <Output Type="Variable" Label="dR_qH" Expression="dR_qH"/>
          <Output Type="Variable" Label="dR_bW" Expression="dR_bW"/>
          <Output Type="Variable" Label="dR_tt" Expression="dR_tt"/>
          <Output Type="Variable" Label="dR_qq" Expression="dR_qq"/>
        </Output>
      </Selection>
      <Class ClassIndex="0">
        <Ranges>
          <Range Index="0" Min="2.5000144958496094e+01" Max="9.2361291503906250e+02"/>
          <Range Index="1" Min="-2.3997704982757568e+00" Max="2.3996014595031738e+00"/>
          <Range Index="2" Min="-2.0000000000000000e+00" Max="1.0000000000000000e+00"/>
          <Range Index="3" Min="2.5000875473022461e+01" Max="4.7318859863281250e+02"/>
          <Range Index="4" Min="-2.3999524116516113e+00" Max="2.3996284008026123e+00"/>
          <Range Index="5" Min="-2.0000000000000000e+00" Max="9.9997276067733765e-01"/>
          <Range Index="6" Min="2.5340581893920898e+01" Max="7.5840673828125000e+02"/>
          <Range Index="7" Min="-2.3999569416046143e+00" Max="2.3996503353118896e+00"/>
          <Range Index="8" Min="-2.0000000000000000e+00" Max="9.9998092651367188e-01"/>
          <Range Index="9" Min="2.5000492095947266e+01" Max="2.8531811523437500e+02"/>
          <Range Index="10" Min="-2.3996713161468506e+00" Max="2.3997471332550049e+00"/>
          <Range Index="11" Min="-2.0000000000000000e+00" Max="9.9999642372131348e-01"/>
          <Range Index="12" Min="1.2489878082275391e+02" Max="7.7484057617187500e+02"/>
          <Range Index="13" Min="7.1062438964843750e+01" Max="1.1134925537109375e+03"/>
          <Range Index="14" Min="2.5580059051513672e+01" Max="6.4640368652343750e+02"/>
          <Range Index="15" Min="1.4341528527438641e-02" Max="7.5930051803588867e+00"/>
          <Range Index="16" Min="2.2663798183202744e-02" Max="6.6155276298522949e+00"/>
          <Range Index="17" Min="1.9463926553726196e-02" Max="1.0286055564880371e+01"/>
          <Range Index="18" Min="4.0105071663856506e-01" Max="4.7967901229858398e+00"/>
        </Ranges>
      </Class>
      <Class ClassIndex="1">
        <Ranges>
          <Range Index="0" Min="2.5000123977661133e+01" Max="1.4809664306640625e+03"/>
          <Range Index="1" Min="-2.3999888896942139e+00" Max="2.3999998569488525e+00"/>
          <Range Index="2" Min="-2.0000000000000000e+00" Max="1.0000000000000000e+00"/>
          <Range Index="3" Min="2.5000123977661133e+01" Max="1.4809664306640625e+03"/>
          <Range Index="4" Min="-2.3999888896942139e+00" Max="2.3999998569488525e+00"/>
          <Range Index="5" Min="-2.0000000000000000e+00" Max="1.0000000000000000e+00"/>
          <Range Index="6" Min="2.5053968429565430e+01" Max="1.4809664306640625e+03"/>
          <Range Index="7" Min="-2.3999612331390381e+00" Max="2.3999838829040527e+00"/>
          <Range Index="8" Min="-2.0000000000000000e+00" Max="1.0000000000000000e+00"/>
          <Range Index="9" Min="2.5000123977661133e+01" Max="1.3301024169921875e+03"/>
          <Range Index="10" Min="-2.3999888896942139e+00" Max="2.3999998569488525e+00"/>
          <Range Index="11" Min="-2.0000000000000000e+00" Max="1.0000000000000000e+00"/>
          <Range Index="12" Min="1.1683544921875000e+02" Max="3.5503076171875000e+03"/>
          <Range Index="13" Min="3.1785436630249023e+01" Max="3.9854697265625000e+03"/>
          <Range Index="14" Min="1.3157064437866211e+01" Max="3.5389252929687500e+03"/>
          <Range Index="15" Min="5.7773379376158118e-04" Max="9.1048860549926758e+00"/>
          <Range Index="16" Min="3.2482221722602844e-03" Max="9.3587074279785156e+00"/>
          <Range Index="17" Min="2.5264618452638388e-03" Max="1.1837759017944336e+01"/>
          <Range Index="18" Min="3.8585323095321655e-01" Max="5.6825728416442871e+00"/>
        </Ranges>
      </Class>
      <Class ClassIndex="2">
        <Ranges>
          <Range Index="0" Min="2.5000123977661133e+01" Max="1.4809664306640625e+03"/>
          <Range Index="1" Min="-2.3999888896942139e+00" Max="2.3999998569488525e+00"/>
          <Range Index="2" Min="-2.0000000000000000e+00" Max="1.0000000000000000e+00"/>
          <Range Index="3" Min="2.5000123977661133e+01" Max="1.4809664306640625e+03"/>
          <Range Index="4" Min="-2.3999888896942139e+00" Max="2.3999998569488525e+00"/>
          <Range Index="5" Min="-2.0000000000000000e+00" Max="1.0000000000000000e+00"/>
          <Range Index="6" Min="2.5053968429565430e+01" Max="1.4809664306640625e+03"/>
          <Range Index="7" Min="-2.3999612331390381e+00" Max="2.3999838829040527e+00"/>
          <Range Index="8" Min="-2.0000000000000000e+00" Max="1.0000000000000000e+00"/>
          <Range Index="9" Min="2.5000123977661133e+01" Max="1.3301024169921875e+03"/>
          <Range Index="10" Min="-2.3999888896942139e+00" Max="2.3999998569488525e+00"/>
          <Range Index="11" Min="-2.0000000000000000e+00" Max="1.0000000000000000e+00"/>
          <Range Index="12" Min="1.1683544921875000e+02" Max="3.5503076171875000e+03"/>
          <Range Index="13" Min="3.1785436630249023e+01" Max="3.9854697265625000e+03"/>
          <Range Index="14" Min="1.3157064437866211e+01" Max="3.5389252929687500e+03"/>
          <Range Index="15" Min="5.7773379376158118e-04" Max="9.1048860549926758e+00"/>
          <Range Index="16" Min="3.2482221722602844e-03" Max="9.3587074279785156e+00"/>
          <Range Index="17" Min="2.5264618452638388e-03" Max="1.1837759017944336e+01"/>
          <Range Index="18" Min="3.8585323095321655e-01" Max="5.6825728416442871e+00"/>
        </Ranges>
      </Class>
    </Transform>
  </Transformations>
  <MVAPdfs/>
  <Weights>
    <Layout NLayers="4">
      <Layer Index="0" NNeurons="20">
        <Neuron NSynapses="19">
          -7.3115913916274100e-01 2.3883262700658716e+00 8.8987736363632763e-01 1.3519836359185780e+01 -2.4451345932469865e-02 6.8260351781154582e-01 -5.5014747909656225e-01 3.2660241538562085e+00 1.0343919256061151e+00 -3.9575077659645834e+00 -3.2592390789071651e-01 -3.5266574973817550e+00 -1.3992713859697847e+00 2.9958155859821822e+00 -1.1369076690051640e+00 3.4272083864155358e+00 -1.8490741897359855e+00 -2.2295418080395915e+00 -1.3408710857523387e+00 
        </Neuron>
        <Neuron NSynapses="19">
          1.2519798977279746e+00 -1.5862564543363353e-01 -6.1093742722555355e-01 2.2829650513929729e-02 1.5218193265727832e-02 6.2469850756152419e-02 3.1921946768246307e-02 -5.7557089475969614e-01 5.9851816267182834e-02 -5.2179184068398774e+00 -2.3177192039693768e-02 -2.9039655220596920e-02 5.0364046949673558e+00 -1.7085718287955548e-01 -1.6093406535275209e-01 9.3812692340900852e-02 2.8580208861504895e-02 8.0666971087122313e-02 6.8858604839673584e-02 
        </Neuron>
        <Neuron NSynapses="19">
          -8.8046448633001639e-01 9.2970512453319343e-01 1.0520028780130219e+00 3.4976299684685491e-02 9.4425347775174778e-02 8.0391513645438961e-01 -1.0084497315733305e+00 -4.9979773455677847e+00 -2.1617755241998385e-01 -1.8138307298948383e-01 8.6271220116973080e-02 -3.2543989166717063e-01 1.1242809258835308e-01 6.2006737590664320e+00 -1.2120075822280418e+00 2.8222122849354792e-01 -5.8750136210405501e-01 -1.3127993756139611e+01 -1.0702035869687139e+00 
        </Neuron>
        <Neuron NSynapses="19">
          -2.1936991225666520e+00 1.8061190654186878e+00 5.7851014304038029e-01 1.4017813790117315e+00 1.5240964052467221e+00 -4.1414321029300272e-01 -6.7972943215113499e+00 1.7965061784382670e+00 3.1836619769522119e+00 -2.1463609655945509e-01 -1.0071355277467902e+00 -1.0381783040895209e+00 -1.5399304456429548e+00 -5.5132607989958893e-01 -1.9655686388734783e+00 4.0785841866759931e+00 7.7717856497349344e-02 1.0767294978709010e+00 1.2465754403741556e+00 
        </Neuron>
        <Neuron NSynapses="19">
          -1.7635875174115736e+00 -1.7216654533636957e+00 1.5268179017223302e+00 1.3949640252972011e-02 -1.0541460523622604e-02 -1.0074494726364620e-01 -1.8335581642506711e-02 -1.7318336843091431e-01 -4.6784129880998636e-02 -3.0938518527177657e-02 3.6861585466970944e-03 6.5925542881088761e-02 1.4365164272098185e-01 -6.4966091117736963e-02 -1.5142292422138817e-01 4.1124112777952262e-02 1.5439146243936755e-02 5.5856930481053807e-02 -2.0928926990266397e-02 
        </Neuron>
        <Neuron NSynapses="19">
          1.6267066068317972e+00 -1.1874109318470119e+00 -9.8268135560153069e-01 1.0543069620589191e-01 1.9194337555497824e-02 -1.8814475334358189e+01 -2.9726768276109944e-01 -5.7551197788789213e-02 -3.7617573746773311e-02 3.0157550692103532e-02 5.5927413401742461e-02 -1.0866530240023899e-02 9.3567894301339313e-02 1.6334840767482806e-01 5.0412268594433085e-01 2.4607417501805084e-01 8.7387212238736869e-02 -2.7907372067800505e-02 -2.6043020240097003e-01 
        </Neuron>
        <Neuron NSynapses="19">
          -1.8094086802495697e+00 2.0362786182858961e+00 3.0240066332161358e-01 -3.2630180062789232e-01 -2.2856828631555248e+00 -2.6339932225005447e-01 -5.2020245644891538e+00 -1.4850955047133783e+00 8.1644447064952483e-02 4.1220972277724828e+00 3.2634708609451772e+00 1.5026005122753288e+00 2.6875516254924925e+00 -7.5046392378840954e-01 -2.2983692027148797e+00 1.2392495327803948e-01 4.2732276456676133e-01 -2.3936243663789809e+00 3.4243673330185240e+00 
        </Neuron>
        <Neuron NSynapses="19">
          -1.2377958595854435e+00 -2.2501196534486474e-02 9.2318014057258035e-01 -2.0682124557449477e-01 -1.6218333326375706e-01 -1.4885033500619071e-01 3.5998075089961967e-01 -2.4214560197755014e-01 -5.0852138585309521e-02 2.6954006157697461e+00 1.7803715834255174e-01 -3.3729150991957959e+00 -2.2291853538855073e+00 -3.3205157473940559e-02 -2.9884140974606677e-01 -4.4567101734248682e-01 -9.8394441666721545e-03 -5.7198233966990107e-02 -3.1371788407272803e-02 
        </Neuron>
        <Neuron NSynapses="19">
          1.5703559762546107e+00 -7.9508905930533469e-01 -8.9422475778503352e-01 1.4808780332289218e-01 -6.8442350951739617e-02 2.3991909919105772e-01 -1.9068562550122437e-01 -1.2724945269107659e+00 -1.3447463093301570e-01 -1.0372155235678722e-01 4.5779783265915877e-02 -2.4321056394165583e-02 -1.0234041300307886e-01 -1.2865458206281164e+00 -3.4091791920878850e-01 1.4014941657367610e-02 1.4219029786211784e-01 2.1001170574923414e-01 1.5521455590100476e+01 
        </Neuron>
        <Neuron NSynapses="19">
          5.7672182626870394e-01 6.3333292482510069e-03 1.4776611141366169e+00 -1.1052335904704304e+01 -4.7421887627261601e+00 -1.4751309715489329e+00 -8.9349285393588076e+00 5.9438627017399692e-01 -1.6027804864947832e+00 -1.0562776831238696e+00 9.6584863011356834e+00 2.0265888560423893e+00 -7.2867421964710344e-01 -1.0175590753002091e+00 -1.1483478077776212e+00 4.1886185789690069e+00 7.9906104290888458e-01 -5.7029347984454253e+00 2.0436126072060690e+00 
        </Neuron>
        <Neuron NSynapses="19">
          -9.0642162551108985e-01 1.0667231740270795e+00 1.1636238221758453e+00 1.9736969456341288e-01 1.4545346960320177e-01 5.8001460534621359e-02 -3.8143495770560343e-01 7.6949250599226726e-01 -2.0310784859761278e-02 1.8387033534510526e+00 -1.7482456528470575e-01 3.3788893165624172e+00 -2.3527578982620643e+00 2.8002778085181401e-01 1.2561811907472364e+00 3.0977735493173486e-01 -4.2434142845636159e-02 -2.8542141526556160e-02 -2.8326367773931178e-02 
        </Neuron>
        <Neuron NSynapses="19">
          9.8480306942600471e-01 4.2608424925166188e-01 -4.7156761645568551e-01 7.0434530218734623e-02 -5.5794938246311121e-03 -8.2712002943066368e-02 -1.8960781850685249e-01 6.2922772190917919e-01 4.3331551186438520e-02 -6.1476782164223281e-03 2.6697548530259411e-02 -6.1118091242793549e-02 1.2379469488794943e-01 -2.7601399340808390e+00 1.0229955139158033e+00 2.3435285568354672e-01 -1.0511067943531074e+01 -2.2142688034336508e-01 -1.3540664713336349e-02 
        </Neuron>
        <Neuron NSynapses="19">
          -2.1301803304614002e+00 -7.6761147167979060e-01 9.7420158020920977e-01 -1.5680581386398975e+01 5.4733213658228963e-01 -8.8236122348372064e+00 1.2756296999971886e+01 -3.1385891482966572e+00 -4.2286523406739764e+00 9.0904010398648127e-01 -4.3950742488765258e+01 1.3162665961805164e-01 -5.6747501945714340e-01 1.7653121530289767e-01 -2.3990385359043622e+00 -1.3210907939179913e+01 -5.9981134091886350e+00 7.1351526340193381e+00 3.9698018528330179e+00 
        </Neuron>
        <Neuron NSynapses="19">
          -1.9640875862830693e+00 1.7088544278711995e+00 -8.8913393704242694e-01 4.9133128759092209e-01 -2.5370682034499399e+01 -5.8328290207662112e+00 1.1781708973442898e+01 -7.4466869739278785e-01 -4.7191985309811040e+00 -2.0132496255128407e+00 -6.0032934378082867e+00 2.2567611986655067e+00 -8.0829908099289427e-01 -3.2448482258371242e-01 -2.0190050140065272e-01 1.1569103200096297e+01 -7.3124233517168182e+00 2.5203249279228888e+00 2.8341155639362996e+00 
        </Neuron>
        <Neuron NSynapses="19">
          -2.3526037462809644e+00 1.5877357114882960e+00 1.1897602483495664e+00 -1.4175598641273021e+01 -2.0516859126727862e+00 -3.7455996834806520e+00 8.9628963360431713e-01 -6.6215666152190555e-01 7.7024513204107903e-01 1.8795902724996423e+00 1.4202484964912426e+01 3.8385607807067399e+00 2.8245563117787333e+00 -2.2454495509069492e+00 -2.8814360467976974e-01 -7.5343064230716150e+00 -2.5927409237078796e+00 4.2307023563106332e-02 3.0227287002633130e+00 
        </Neuron>
        <Neuron NSynapses="19">
          -1.5593785046314288e+00 -1.2923398511323934e+00 2.0991715186710098e+00 1.3478251175236833e-01 2.1807868190789953e-01 7.6120967084580743e-02 7.5491781534232499e-02 1.4898416500657523e+00 -6.9410885581076692e-02 2.2176642779741007e-01 -5.7498063862506332e-01 -3.3747096244819462e-03 1.3327025642225709e-01 -3.6700331433218963e-01 -1.7319335511077389e+00 -8.9299734355179672e-01 -2.4105136430011612e-01 -2.9671297689744136e-01 1.5028751149950226e-01 
        </Neuron>
        <Neuron NSynapses="19">
          9.4825336713166147e-02 -8.2798455243711178e-01 -1.3914258425614343e+00 -2.9267275416857719e+00 1.6495867269054412e-01 -7.3533632124514769e-01 3.4653662193419859e+00 -2.8791955066705435e+00 -5.8604122381482116e-01 2.1988323177712288e+00 9.6132158974050430e-01 -3.5345511593975010e-01 2.3846912677773213e+00 -4.4150841778257693e-01 1.0321150846544420e+00 5.3006269424381856e+00 -5.4130877372347441e-01 -8.9214086382808022e-01 -2.6881446231857342e-01 
        </Neuron>
        <Neuron NSynapses="19">
          -1.3904986326310755e+00 6.0513029779311667e-01 1.7245896174188609e+00 3.8053067521477235e-01 -2.1846733101128803e-02 9.7869139592717896e-02 -1.1681243043148113e+00 2.6350127865397983e+00 -1.3535433532706226e-01 -4.7194250708400848e-01 1.0948848055250202e-01 -1.0972572281458140e-01 -6.7909757665219872e-01 2.4319999686949756e+00 7.7116091013724364e-01 2.8854377162348144e-01 -5.3401791402676257e-01 -6.9930833342269261e-01 5.3687607850568275e-01 
        </Neuron>
        <Neuron NSynapses="19">
          1.7217837036311854e+00 -1.2063712021395940e+00 4.4058590060336628e-01 -6.9571714329345302e-01 -1.8892672478120065e-01 -4.5041043311955092e-01 -1.7377035413243456e+00 1.9773435375851753e+00 6.5336192808260343e+00 -2.3342962881978817e+00 4.5899708970551657e-02 6.3948062369220215e-01 -2.5084732014021571e+00 -2.8151152418503536e-02 -1.6956826639722113e+00 -1.5240183718369449e+00 5.6124540868440265e-01 -1.0522500824357975e-01 -2.9446612553674084e-01 
        </Neuron>
        <Neuron NSynapses="19">
          -1.2503049864767330e+00 -1.5069819714877475e+00 -1.5715478001775713e+00 -2.6142883988657655e+01 -3.0438249701770719e+01 1.6805292613704137e-01 4.4367813189275616e+00 -6.5603826385774078e-01 1.6717248010104258e-01 3.8739721061137677e+00 -2.3171229181445558e+01 2.1675089653114754e+00 3.6578964968966203e+00 -3.2222053363767142e+00 9.1857091273483737e-01 4.3508606422213356e+00 -5.0680310559452773e+00 2.4714760956806048e+00 -7.3346025089673228e-01 
        </Neuron>
      </Layer>
      <Layer Index="1" NNeurons="20">
        <Neuron NSynapses="18">
          1.1526038577355102e-01 -2.3016982622681037e+00 -1.7832044440650263e+00 1.2101305959884770e-01 8.2036988132992894e-01 2.2627339954273776e-01 1.0177859212732718e+00 7.9410252857602259e-01 1.8012425326345400e+00 -5.5598814822950626e-01 1.2500483214571974e+00 3.1283529390026965e+00 -2.6915326559500370e+00 -1.1892678448153828e+00 -2.4301904707680353e+00 3.8267825144622796e+00 6.8487456813553504e-01 -6.8651307507965365e-01 
        </Neuron>
        <Neuron NSynapses="18">
          1.5630212871052367e+00 -2.1678602103860381e-01 1.5264347719389337e+00 1.9041598318347857e+00 2.1265608732858088e-01 -1.1084999282901815e+00 1.6624024386553882e+00 -1.9529636344261210e+00 5.6601991161038867e-01 1.5769493112221955e+00 -4.7782778354330097e-01 -5.0166708673292770e-01 2.0037839957623274e-01 -1.0691002739296458e+00 4.5014791257039283e-01 -2.2706167075438057e+00 4.2290623076142508e-01 -5.9187621358776465e-01 
        </Neuron>
        <Neuron NSynapses="18">
          1.5174102336501227e+00 1.3403559221434524e+00 1.6346718817444708e+00 -6.0085231714475651e-01 -4.1040420635538238e-01 4.3193657664635521e-01 1.8530521440011509e+00 -1.8702561776686366e+00 -1.3048512321130983e+00 -5.7885788043363928e-01 -1.5608552000288181e+00 -1.5953495100860939e+00 -1.4776970834368925e+00 7.7027438412305027e-01 2.5262678293194157e-03 -2.1768133985802991e+00 -1.7701506272921832e+00 -3.2766724293918986e-01 
        </Neuron>
        <Neuron NSynapses="18">
          5.3008628566743852e+00 2.9400163618630888e+00 1.1380934702928558e+00 -2.0933185965845929e+00 -2.2082782109502452e+00 3.0978299566313043e+00 -1.3548699876377142e+00 -1.7026427791394945e+00 -5.1259090028549714e-01 -3.6378644382823859e+00 1.1950051374735158e+00 3.5447101992952050e+00 4.3677527810079786e+00 1.9675068943717648e+00 -2.3868614290063692e+00 -6.2642688932129076e+00 3.4843988897883045e+00 5.8412036988247769e+00 
        </Neuron>
        <Neuron NSynapses="18">
          -5.9847795512819051e+00 8.1645079917125720e+00 7.5252265724729313e+00 1.5066673944864524e+00 3.2139258608835664e+00 -5.0315707062582975e+00 1.5985540807222696e+00 1.7164755713428843e+00 -1.0320187015786665e-01 -1.2491644435087896e+00 4.2806467332115563e+00 -6.1165957387290337e+00 4.6491528182327446e+00 -8.4305055102629700e-02 1.8701562978997006e+00 -3.8404224637455271e+00 1.0755490059939124e+01 7.0357633883465294e+00 
        </Neuron>
        <Neuron NSynapses="18">
          -1.6568802815762871e+00 1.5364989354081235e+00 -8.3048296273829507e+00 1.2729631833421656e-01 1.1278126332637792e-01 -1.4896981790171975e+00 -3.3378585042013076e-01 -1.3555629966026612e+00 1.3426730600832406e+00 1.5051721123560753e+00 1.2067507763323135e+00 4.2498945618757322e-01 7.7285450963443392e-01 3.0278020332225539e+00 -1.9019217886605446e+00 -1.8312985305913787e+00 2.5862554040264931e+00 -3.3421363793840637e+00 
        </Neuron>
        <Neuron NSynapses="18">
          4.8443773620293218e+00 -1.1399048433964500e+00 3.2146041947451298e-01 -4.5159535415358745e+00 -2.3519592536005187e+00 -4.1813025657978136e+00 -3.4611994574890842e-01 -2.8089386751059702e+00 7.6354165956906617e-01 -1.9587978074600501e-01 -3.4102971394817699e-01 2.5204079222192513e+00 -2.2427595175921868e+00 -2.2787286196629369e-02 -3.3992276336031271e+00 -4.8801612466144206e+00 1.2348184428344993e+00 5.0248432284103854e+00 
        </Neuron>
        <Neuron NSynapses="18">
          4.3013525712413596e+00 -3.6450551742755954e+00 -9.6812933197018169e-02 -1.7921827782271174e+00 2.1145012518577877e+00 -4.1661221120791025e-01 2.9207980267987166e-01 -2.6468634978709332e-01 5.3048681269563203e-01 -1.0391837835035789e+00 2.3614531028370259e-01 3.4615210785411438e-01 4.8810190126737829e-01 -1.1358825563644612e+00 3.9585498645115713e+00 -3.1064314753236238e-01 2.7447067482754223e-01 -1.9851913410701421e+00 
        </Neuron>
        <Neuron NSynapses="18">
          -2.4128104847907430e+00 2.7594377475167757e+00 -2.8600080264720966e+00 -9.2581054340383528e-01 6.7446853574672994e-01 -2.1364975620316620e+00 -7.7860643350782544e-01 -1.5169277042718710e+00 7.7305241098233968e-01 1.5830301490474248e+00 -2.7335431875823812e-01 -6.1803655338704457e+00 -2.6037806929181619e+00 6.1375395305434821e-01 2.0933499254741315e+00 -2.2644249945162089e+00 -6.7712686698670641e+00 -1.8931607607490735e+00 
        </Neuron>
        <Neuron NSynapses="18">
          -3.3979567200933953e+00 -7.5548704960983837e-01 1.8200748658516628e+00 3.0455490124592038e-01 1.7093716057941615e+00 1.1548354970346197e-01 1.8448204440925311e+00 -5.3134208417152818e-03 8.1436650043016445e-01 1.7721575265993136e-01 -1.1992409713887697e+00 -1.8919061826402381e+00 -1.1763981109013952e+00 -3.2222957500845500e-01 2.5678418895619948e+00 3.2309893214279697e+00 -2.1509597440488637e+00 -3.2720680739472807e+00 
        </Neuron>
        <Neuron NSynapses="18">
          3.4256283888771427e-01 4.1471111473458278e+00 4.8482240254547877e+00 -4.8939061809788187e-01 3.2397046852538174e+00 -1.6974540197376558e+00 -9.8888624658919810e-01 -2.2557087814798846e+00 -8.2828469544456784e-01 -1.7369581253118271e+00 3.5139850365800975e+00 -6.2588283276350669e+00 8.2356652121311527e+00 -9.5688899917941905e-01 6.3277958414555913e-01 -1.5262535498065438e+01 -3.7382983673011481e+00 5.1137051021897462e-01 
        </Neuron>
        <Neuron NSynapses="18">
          -1.8962780197098829e-02 -2.9613714777866620e+00 1.5921554705711118e+00 -1.4828155690850635e+00 9.8621565871451822e-01 -2.3242805265324935e+00 2.6703385890527626e-01 -1.7599717675351054e+00 -8.8200931975961530e-02 1.1932660186068371e+00 -3.3244039837691158e-01 -1.6135157076638604e+00 -3.5640861940260560e-01 9.0492023132718347e-01 1.9980512459430186e-01 -1.7439621963241874e+00 -3.9435089746231387e+00 -4.4901146277224507e-01 
        </Neuron>
        <Neuron NSynapses="18">
          -2.4882636695451650e+00 -2.4572184449226673e+00 1.4118081885350422e+00 6.4270833291106755e-01 9.6824973935443892e-01 3.4317933914583232e-01 1.4373353723776374e+00 -1.3844606691857815e+00 9.0204143492436883e-01 -1.1941483747370716e+00 -6.2924445156790509e-01 -1.9507920215204608e+00 -7.5429087848835230e-01 3.7117183262748799e-01 2.0116915411884198e+00 2.4388074398914124e+00 -1.8960751236407953e+00 -3.0079954726064027e+00 
        </Neuron>
        <Neuron NSynapses="18">
          7.3369387347649551e-01 7.5587077347331477e-01 2.8570757379827078e-01 3.8866315088633154e+00 8.1010395246640066e-01 5.9962284660139885e-02 1.6398847716618767e+00 5.6513274527556601e-01 1.6378544977932847e+00 -2.0929522150508988e+00 -3.5192570985469041e+00 3.3268176138055111e-01 -1.8481879718405885e+00 3.6156185141348338e+00 -2.0180428568290534e+00 -6.8364467628341086e-01 -7.4403642307004851e-04 3.3151363608960976e-01 
        </Neuron>
        <Neuron NSynapses="18">
          1.9644613991656523e+00 -3.5915863818943516e+00 -1.2153132035166281e+00 -7.7772300596108823e-01 -1.1094530312957498e+00 8.2193976457044826e-01 1.3357755065962356e+00 -1.9328257385319274e+00 -1.6597716214269911e-01 -5.7440483025384026e-01 -8.5885411936741408e-03 2.8103515145772677e+00 -1.8450572036349291e+00 -1.6352012363670949e+00 -2.9573028904235401e+00 4.4925163298356363e+00 2.8643972568583620e-01 -5.3599640044549768e-01 
        </Neuron>
        <Neuron NSynapses="18">
          3.1595903158274039e+00 2.3155619473502931e+00 -4.2064388255593474e+00 6.9386403660773255e-01 -7.8758977415294584e-01 2.0048754909611386e+00 1.2983329564362311e-01 -1.6648875176076803e+00 7.3041055828345969e-01 -5.5440740671429356e-01 -6.2957207012771144e-01 4.2624709967661172e+00 3.9185595162105007e+00 -3.1189885503156517e-02 -2.6836770551524016e+00 -6.3449410236643300e-01 2.8241059528278787e+00 2.9867491521764618e+00 
        </Neuron>
        <Neuron NSynapses="18">
          1.0986687170201057e-02 8.3449394630374529e-01 1.8956357547341065e+00 -7.1042177843196108e-01 1.6410895149916371e-01 -1.4293355646520489e+00 1.4504546797330167e+00 -1.8139393419394032e+00 1.4416781522972182e+00 4.7738956300092256e-01 -9.7285554517598172e+00 -6.2273992657521826e-01 1.7311719455355792e+00 -1.3715021387484632e+00 1.4521713951080106e+00 -7.1746867293607783e-02 1.5575781938226521e+00 1.4679750020475868e-01 
        </Neuron>
        <Neuron NSynapses="18">
          5.8287707472957369e+00 -7.1583247530797491e+00 -9.4190732846001857e-01 -4.6825607506446403e+00 3.9340147575932388e-01 8.0242572158376979e-01 7.9950597335829643e-01 3.8367766549403637e-01 5.1071946226922194e-01 7.1750637277949281e-01 2.0848479154963364e+00 -4.1823394920717105e-01 -1.7781500702418034e+00 -3.2138201712681980e+00 3.5453680279333208e+00 4.8963653721830497e-01 5.0679038200670390e-01 -1.3443583205673041e-02 
        </Neuron>
        <Neuron NSynapses="18">
          -1.4654139132345173e-01 -5.4990272878059230e+00 -4.7442746026111404e-01 -5.9801324767683461e-01 3.2632394872855308e-01 2.1482698097953232e+00 -6.2472660123178148e-01 1.0017084521601765e+00 1.1946987070183033e+00 2.7172379681664798e+00 -1.3943658995789505e+00 -1.3892318551736960e+00 5.3724406955497139e-01 -6.0350802717794956e+00 1.6719703714283545e+00 6.1526534444074155e-01 -2.0840811900523240e+00 4.1603063335730459e+00 
        </Neuron>
        <Neuron NSynapses="18">
          -3.6255002790333762e-01 -2.3400796938927191e+00 1.6217620975969060e+00 -6.3528005684672673e-01 8.6079273693233788e-02 -2.3187372071671308e-01 1.8279987515083391e+00 1.7034990791457445e+00 7.1744571064734586e-01 -3.6923903687674142e-01 1.5461604400581690e+00 4.2662374843677542e+00 -7.0438732193658715e-01 -3.9245705722359353e-01 -1.2791419803697894e+00 4.2231544740044855e+00 -1.3456492387157388e+00 -1.8243904207016313e+00 
        </Neuron>
      </Layer>
      <Layer Index="2" NNeurons="19">
        <Neuron NSynapses="1">
          -5.8521747304232203e+00 
        </Neuron>
        <Neuron NSynapses="1">
          4.6623033482539855e-01 
        </Neuron>
        <Neuron NSynapses="1">
          -7.0717577566475978e+00 
        </Neuron>
        <Neuron NSynapses="1">
          2.1178299366092452e+00 
        </Neuron>
        <Neuron NSynapses="1">
          -3.1661142973080909e+00 
        </Neuron>
        <Neuron NSynapses="1">
          3.5063261697306856e+00 
        </Neuron>
        <Neuron NSynapses="1">
          3.6365085883865750e-01 
        </Neuron>
        <Neuron NSynapses="1">
          1.8019870649705962e+00 
        </Neuron>
        <Neuron NSynapses="1">
          -2.5081109850694050e+00 
        </Neuron>
        <Neuron NSynapses="1">
          -3.6828539130633513e+00 
        </Neuron>
        <Neuron NSynapses="1">
          -6.5441874352690945e+00 
        </Neuron>
        <Neuron NSynapses="1">
          5.2188345775566427e+00 
        </Neuron>
        <Neuron NSynapses="1">
          2.5820203487235003e+00 
        </Neuron>
        <Neuron NSynapses="1">
          2.3882153056816882e+00 
        </Neuron>
        <Neuron NSynapses="1">
          8.5435011122745319e+00 
        </Neuron>
        <Neuron NSynapses="1">
          -5.8797441734007352e+00 
        </Neuron>
        <Neuron NSynapses="1">
          4.7108629741210670e+00 
        </Neuron>
        <Neuron NSynapses="1">
          -6.6668158058484064e+00 
        </Neuron>
        <Neuron NSynapses="1">
          -1.9677525548616503e+00 
        </Neuron>
      </Layer>
      <Layer Index="3" NNeurons="1">
        <Neuron NSynapses="0"/>
      </Layer>
    </Layout>
  </Weights>
</MethodSetup>
