<?xml version="1.0"?>
<MethodSetup Method="MLP::ANN_v1">
  <GeneralInfo>
    <Info name="TMVA Release" value="4.2.1 [262657]"/>
    <Info name="ROOT Release" value="6.10/09 [395785]"/>
    <Info name="Creator" value="mc_cheng"/>
    <Info name="Date" value="Sun Aug 16 05:59:06 2020"/>
    <Info name="Host" value="Linux cmsbuild76.cern.ch 2.6.32-696.30.1.el6.x86_64 #1 SMP Tue May 22 06:09:36 CEST 2018 x86_64 x86_64 x86_64 GNU/Linux"/>
    <Info name="Dir" value="/wk_cms2/mc_cheng/public/tqHGG/2017/MVAreco_train"/>
    <Info name="Training events" value="2524485"/>
    <Info name="TrainingTime" value="1.06862778e+05"/>
    <Info name="AnalysisType" value="Classification"/>
  </GeneralInfo>
  <Options>
    <Option name="NCycles" modified="No">500</Option>
    <Option name="HiddenLayers" modified="No">N,N-1</Option>
    <Option name="NeuronType" modified="No">sigmoid</Option>
    <Option name="RandomSeed" modified="No">1</Option>
    <Option name="EstimatorType" modified="No">CE</Option>
    <Option name="NeuronInputType" modified="No">sum</Option>
    <Option name="V" modified="Yes">True</Option>
    <Option name="VerbosityLevel" modified="No">Verbose</Option>
    <Option name="VarTransform" modified="Yes">N</Option>
    <Option name="H" modified="Yes">True</Option>
    <Option name="CreateMVAPdfs" modified="No">False</Option>
    <Option name="IgnoreNegWeightsInTraining" modified="Yes">True</Option>
    <Option name="TrainingMethod" modified="No">BP</Option>
    <Option name="LearningRate" modified="No">2.000000e-02</Option>
    <Option name="DecayRate" modified="No">1.000000e-02</Option>
    <Option name="TestRate" modified="No">10</Option>
    <Option name="EpochMonitoring" modified="No">False</Option>
    <Option name="Sampling" modified="No">1.000000e+00</Option>
    <Option name="SamplingEpoch" modified="No">1.000000e+00</Option>
    <Option name="SamplingImportance" modified="No">1.000000e+00</Option>
    <Option name="SamplingTraining" modified="No">True</Option>
    <Option name="SamplingTesting" modified="No">False</Option>
    <Option name="ResetStep" modified="No">50</Option>
    <Option name="Tau" modified="No">3.000000e+00</Option>
    <Option name="BPMode" modified="No">sequential</Option>
    <Option name="BatchSize" modified="No">-1</Option>
    <Option name="ConvergenceImprove" modified="No">1.000000e-30</Option>
    <Option name="ConvergenceTests" modified="No">-1</Option>
    <Option name="UseRegulator" modified="No">False</Option>
    <Option name="UpdateLimit" modified="No">10000</Option>
    <Option name="CalculateErrors" modified="No">False</Option>
    <Option name="WeightRange" modified="No">1.000000e+00</Option>
  </Options>
  <Variables NVar="24">
    <Variable VarIndex="0" Expression="LeadPho_Pt" Label="LeadPho_Pt" Title="LeadPho_Pt" Unit="" Internal="LeadPho_Pt" Type="F" Min="3.50153160e+01" Max="9.86774353e+02"/>
    <Variable VarIndex="1" Expression="LeadPho_Eta" Label="LeadPho_Eta" Title="LeadPho_Eta" Unit="" Internal="LeadPho_Eta" Type="F" Min="-2.49973178e+00" Max="2.49894714e+00"/>
    <Variable VarIndex="2" Expression="LeadPho_Phi" Label="LeadPho_Phi" Title="LeadPho_Phi" Unit="" Internal="LeadPho_Phi" Type="F" Min="-3.14158058e+00" Max="3.14158940e+00"/>
    <Variable VarIndex="3" Expression="LeadPho_IDMVA" Label="LeadPho_IDMVA" Title="LeadPho_IDMVA" Unit="" Internal="LeadPho_IDMVA" Type="F" Min="-6.99921012e-01" Max="9.87369835e-01"/>
    <Variable VarIndex="4" Expression="SubleadPho_Pt" Label="SubleadPho_Pt" Title="SubleadPho_Pt" Unit="" Internal="SubleadPho_Pt" Type="F" Min="2.50008945e+01" Max="4.49868195e+02"/>
    <Variable VarIndex="5" Expression="SubleadPho_Eta" Label="SubleadPho_Eta" Title="SubleadPho_Eta" Unit="" Internal="SubleadPho_Eta" Type="F" Min="-2.49997211e+00" Max="2.49959254e+00"/>
    <Variable VarIndex="6" Expression="SubleadPho_Phi" Label="SubleadPho_Phi" Title="SubleadPho_Phi" Unit="" Internal="SubleadPho_Phi" Type="F" Min="-3.14156842e+00" Max="3.14156938e+00"/>
    <Variable VarIndex="7" Expression="SubleadPho_IDMVA" Label="SubleadPho_IDMVA" Title="SubleadPho_IDMVA" Unit="" Internal="SubleadPho_IDMVA" Type="F" Min="-6.99985206e-01" Max="9.85564351e-01"/>
    <Variable VarIndex="8" Expression="bJet_Pt" Label="bJet_Pt" Title="bJet_Pt" Unit="" Internal="bJet_Pt" Type="F" Min="2.50001240e+01" Max="1.48096643e+03"/>
    <Variable VarIndex="9" Expression="bJet_Eta" Label="bJet_Eta" Title="bJet_Eta" Unit="" Internal="bJet_Eta" Type="F" Min="-2.39998889e+00" Max="2.39999986e+00"/>
    <Variable VarIndex="10" Expression="bJet_Phi" Label="bJet_Phi" Title="bJet_Phi" Unit="" Internal="bJet_Phi" Type="F" Min="-3.14158010e+00" Max="3.14158225e+00"/>
    <Variable VarIndex="11" Expression="bJet_btag" Label="bJet_btag" Title="bJet_btag" Unit="" Internal="bJet_btag" Type="F" Min="-2.00000000e+00" Max="1.00000000e+00"/>
    <Variable VarIndex="12" Expression="M1Jet_Pt" Label="M1Jet_Pt" Title="M1Jet_Pt" Unit="" Internal="M1Jet_Pt" Type="F" Min="2.50001240e+01" Max="1.48096643e+03"/>
    <Variable VarIndex="13" Expression="M1Jet_Eta" Label="M1Jet_Eta" Title="M1Jet_Eta" Unit="" Internal="M1Jet_Eta" Type="F" Min="-2.39998889e+00" Max="2.39999986e+00"/>
    <Variable VarIndex="14" Expression="M1Jet_Phi" Label="M1Jet_Phi" Title="M1Jet_Phi" Unit="" Internal="M1Jet_Phi" Type="F" Min="-3.14158010e+00" Max="3.14158225e+00"/>
    <Variable VarIndex="15" Expression="M1Jet_btag" Label="M1Jet_btag" Title="M1Jet_btag" Unit="" Internal="M1Jet_btag" Type="F" Min="-2.00000000e+00" Max="1.00000000e+00"/>
    <Variable VarIndex="16" Expression="WJet1_Pt" Label="WJet1_Pt" Title="WJet1_Pt" Unit="" Internal="WJet1_Pt" Type="F" Min="2.50539684e+01" Max="1.48096643e+03"/>
    <Variable VarIndex="17" Expression="WJet1_Eta" Label="WJet1_Eta" Title="WJet1_Eta" Unit="" Internal="WJet1_Eta" Type="F" Min="-2.39996123e+00" Max="2.39998388e+00"/>
    <Variable VarIndex="18" Expression="WJet1_Phi" Label="WJet1_Phi" Title="WJet1_Phi" Unit="" Internal="WJet1_Phi" Type="F" Min="-3.14158010e+00" Max="3.14158225e+00"/>
    <Variable VarIndex="19" Expression="WJet1_btag" Label="WJet1_btag" Title="WJet1_btag" Unit="" Internal="WJet1_btag" Type="F" Min="-2.00000000e+00" Max="1.00000000e+00"/>
    <Variable VarIndex="20" Expression="WJet2_Pt" Label="WJet2_Pt" Title="WJet2_Pt" Unit="" Internal="WJet2_Pt" Type="F" Min="2.50001240e+01" Max="1.33010242e+03"/>
    <Variable VarIndex="21" Expression="WJet2_Eta" Label="WJet2_Eta" Title="WJet2_Eta" Unit="" Internal="WJet2_Eta" Type="F" Min="-2.39998889e+00" Max="2.39999986e+00"/>
    <Variable VarIndex="22" Expression="WJet2_Phi" Label="WJet2_Phi" Title="WJet2_Phi" Unit="" Internal="WJet2_Phi" Type="F" Min="-3.14158010e+00" Max="3.14158154e+00"/>
    <Variable VarIndex="23" Expression="WJet2_btag" Label="WJet2_btag" Title="WJet2_btag" Unit="" Internal="WJet2_btag" Type="F" Min="-2.00000000e+00" Max="1.00000000e+00"/>
  </Variables>
  <Spectators NSpec="0"/>
  <Classes NClass="2">
    <Class Name="Signal" Index="0"/>
    <Class Name="Background" Index="1"/>
  </Classes>
  <Transformations NTransformations="1">
    <Transform Name="Normalize">
      <Selection>
        <Input NInputs="24">
          <Input Type="Variable" Label="LeadPho_Pt" Expression="LeadPho_Pt"/>
          <Input Type="Variable" Label="LeadPho_Eta" Expression="LeadPho_Eta"/>
          <Input Type="Variable" Label="LeadPho_Phi" Expression="LeadPho_Phi"/>
          <Input Type="Variable" Label="LeadPho_IDMVA" Expression="LeadPho_IDMVA"/>
          <Input Type="Variable" Label="SubleadPho_Pt" Expression="SubleadPho_Pt"/>
          <Input Type="Variable" Label="SubleadPho_Eta" Expression="SubleadPho_Eta"/>
          <Input Type="Variable" Label="SubleadPho_Phi" Expression="SubleadPho_Phi"/>
          <Input Type="Variable" Label="SubleadPho_IDMVA" Expression="SubleadPho_IDMVA"/>
          <Input Type="Variable" Label="bJet_Pt" Expression="bJet_Pt"/>
          <Input Type="Variable" Label="bJet_Eta" Expression="bJet_Eta"/>
          <Input Type="Variable" Label="bJet_Phi" Expression="bJet_Phi"/>
          <Input Type="Variable" Label="bJet_btag" Expression="bJet_btag"/>
          <Input Type="Variable" Label="M1Jet_Pt" Expression="M1Jet_Pt"/>
          <Input Type="Variable" Label="M1Jet_Eta" Expression="M1Jet_Eta"/>
          <Input Type="Variable" Label="M1Jet_Phi" Expression="M1Jet_Phi"/>
          <Input Type="Variable" Label="M1Jet_btag" Expression="M1Jet_btag"/>
          <Input Type="Variable" Label="WJet1_Pt" Expression="WJet1_Pt"/>
          <Input Type="Variable" Label="WJet1_Eta" Expression="WJet1_Eta"/>
          <Input Type="Variable" Label="WJet1_Phi" Expression="WJet1_Phi"/>
          <Input Type="Variable" Label="WJet1_btag" Expression="WJet1_btag"/>
          <Input Type="Variable" Label="WJet2_Pt" Expression="WJet2_Pt"/>
          <Input Type="Variable" Label="WJet2_Eta" Expression="WJet2_Eta"/>
          <Input Type="Variable" Label="WJet2_Phi" Expression="WJet2_Phi"/>
          <Input Type="Variable" Label="WJet2_btag" Expression="WJet2_btag"/>
        </Input>
        <Output NOutputs="24">
          <Output Type="Variable" Label="LeadPho_Pt" Expression="LeadPho_Pt"/>
          <Output Type="Variable" Label="LeadPho_Eta" Expression="LeadPho_Eta"/>
          <Output Type="Variable" Label="LeadPho_Phi" Expression="LeadPho_Phi"/>
          <Output Type="Variable" Label="LeadPho_IDMVA" Expression="LeadPho_IDMVA"/>
          <Output Type="Variable" Label="SubleadPho_Pt" Expression="SubleadPho_Pt"/>
          <Output Type="Variable" Label="SubleadPho_Eta" Expression="SubleadPho_Eta"/>
          <Output Type="Variable" Label="SubleadPho_Phi" Expression="SubleadPho_Phi"/>
          <Output Type="Variable" Label="SubleadPho_IDMVA" Expression="SubleadPho_IDMVA"/>
          <Output Type="Variable" Label="bJet_Pt" Expression="bJet_Pt"/>
          <Output Type="Variable" Label="bJet_Eta" Expression="bJet_Eta"/>
          <Output Type="Variable" Label="bJet_Phi" Expression="bJet_Phi"/>
          <Output Type="Variable" Label="bJet_btag" Expression="bJet_btag"/>
          <Output Type="Variable" Label="M1Jet_Pt" Expression="M1Jet_Pt"/>
          <Output Type="Variable" Label="M1Jet_Eta" Expression="M1Jet_Eta"/>
          <Output Type="Variable" Label="M1Jet_Phi" Expression="M1Jet_Phi"/>
          <Output Type="Variable" Label="M1Jet_btag" Expression="M1Jet_btag"/>
          <Output Type="Variable" Label="WJet1_Pt" Expression="WJet1_Pt"/>
          <Output Type="Variable" Label="WJet1_Eta" Expression="WJet1_Eta"/>
          <Output Type="Variable" Label="WJet1_Phi" Expression="WJet1_Phi"/>
          <Output Type="Variable" Label="WJet1_btag" Expression="WJet1_btag"/>
          <Output Type="Variable" Label="WJet2_Pt" Expression="WJet2_Pt"/>
          <Output Type="Variable" Label="WJet2_Eta" Expression="WJet2_Eta"/>
          <Output Type="Variable" Label="WJet2_Phi" Expression="WJet2_Phi"/>
          <Output Type="Variable" Label="WJet2_btag" Expression="WJet2_btag"/>
        </Output>
      </Selection>
      <Class ClassIndex="0">
        <Ranges>
          <Range Index="0" Min="3.5015316009521484e+01" Max="6.1047302246093750e+02"/>
          <Range Index="1" Min="-2.4990448951721191e+00" Max="2.4985713958740234e+00"/>
          <Range Index="2" Min="-3.1415109634399414e+00" Max="3.1415894031524658e+00"/>
          <Range Index="3" Min="-6.9975978136062622e-01" Max="9.8736983537673950e-01"/>
          <Range Index="4" Min="2.5001504898071289e+01" Max="4.4986819458007812e+02"/>
          <Range Index="5" Min="-2.4999721050262451e+00" Max="2.4994792938232422e+00"/>
          <Range Index="6" Min="-3.1413829326629639e+00" Max="3.1415233612060547e+00"/>
          <Range Index="7" Min="-6.9998520612716675e-01" Max="9.8556435108184814e-01"/>
          <Range Index="8" Min="2.5000144958496094e+01" Max="9.2361291503906250e+02"/>
          <Range Index="9" Min="-2.3997704982757568e+00" Max="2.3996014595031738e+00"/>
          <Range Index="10" Min="-3.1414859294891357e+00" Max="3.1414113044738770e+00"/>
          <Range Index="11" Min="-2.0000000000000000e+00" Max="1.0000000000000000e+00"/>
          <Range Index="12" Min="2.5000875473022461e+01" Max="4.7318859863281250e+02"/>
          <Range Index="13" Min="-2.3999524116516113e+00" Max="2.3996284008026123e+00"/>
          <Range Index="14" Min="-3.1415424346923828e+00" Max="3.1415815353393555e+00"/>
          <Range Index="15" Min="-2.0000000000000000e+00" Max="9.9997276067733765e-01"/>
          <Range Index="16" Min="2.5340581893920898e+01" Max="7.5840673828125000e+02"/>
          <Range Index="17" Min="-2.3999569416046143e+00" Max="2.3996503353118896e+00"/>
          <Range Index="18" Min="-3.1415510177612305e+00" Max="3.1415727138519287e+00"/>
          <Range Index="19" Min="-2.0000000000000000e+00" Max="9.9998092651367188e-01"/>
          <Range Index="20" Min="2.5000492095947266e+01" Max="2.8531811523437500e+02"/>
          <Range Index="21" Min="-2.3996713161468506e+00" Max="2.3997471332550049e+00"/>
          <Range Index="22" Min="-3.1415801048278809e+00" Max="3.1415266990661621e+00"/>
          <Range Index="23" Min="-2.0000000000000000e+00" Max="9.9999642372131348e-01"/>
        </Ranges>
      </Class>
      <Class ClassIndex="1">
        <Ranges>
          <Range Index="0" Min="3.5015316009521484e+01" Max="9.8677435302734375e+02"/>
          <Range Index="1" Min="-2.4997317790985107e+00" Max="2.4989471435546875e+00"/>
          <Range Index="2" Min="-3.1415805816650391e+00" Max="3.1415894031524658e+00"/>
          <Range Index="3" Min="-6.9992101192474365e-01" Max="9.8736983537673950e-01"/>
          <Range Index="4" Min="2.5000894546508789e+01" Max="4.4986819458007812e+02"/>
          <Range Index="5" Min="-2.4999721050262451e+00" Max="2.4995925426483154e+00"/>
          <Range Index="6" Min="-3.1415684223175049e+00" Max="3.1415693759918213e+00"/>
          <Range Index="7" Min="-6.9998520612716675e-01" Max="9.8556435108184814e-01"/>
          <Range Index="8" Min="2.5000123977661133e+01" Max="1.4809664306640625e+03"/>
          <Range Index="9" Min="-2.3999888896942139e+00" Max="2.3999998569488525e+00"/>
          <Range Index="10" Min="-3.1415801048278809e+00" Max="3.1415822505950928e+00"/>
          <Range Index="11" Min="-2.0000000000000000e+00" Max="1.0000000000000000e+00"/>
          <Range Index="12" Min="2.5000123977661133e+01" Max="1.4809664306640625e+03"/>
          <Range Index="13" Min="-2.3999888896942139e+00" Max="2.3999998569488525e+00"/>
          <Range Index="14" Min="-3.1415801048278809e+00" Max="3.1415822505950928e+00"/>
          <Range Index="15" Min="-2.0000000000000000e+00" Max="1.0000000000000000e+00"/>
          <Range Index="16" Min="2.5053968429565430e+01" Max="1.4809664306640625e+03"/>
          <Range Index="17" Min="-2.3999612331390381e+00" Max="2.3999838829040527e+00"/>
          <Range Index="18" Min="-3.1415801048278809e+00" Max="3.1415822505950928e+00"/>
          <Range Index="19" Min="-2.0000000000000000e+00" Max="1.0000000000000000e+00"/>
          <Range Index="20" Min="2.5000123977661133e+01" Max="1.3301024169921875e+03"/>
          <Range Index="21" Min="-2.3999888896942139e+00" Max="2.3999998569488525e+00"/>
          <Range Index="22" Min="-3.1415801048278809e+00" Max="3.1415815353393555e+00"/>
          <Range Index="23" Min="-2.0000000000000000e+00" Max="1.0000000000000000e+00"/>
        </Ranges>
      </Class>
      <Class ClassIndex="2">
        <Ranges>
          <Range Index="0" Min="3.5015316009521484e+01" Max="9.8677435302734375e+02"/>
          <Range Index="1" Min="-2.4997317790985107e+00" Max="2.4989471435546875e+00"/>
          <Range Index="2" Min="-3.1415805816650391e+00" Max="3.1415894031524658e+00"/>
          <Range Index="3" Min="-6.9992101192474365e-01" Max="9.8736983537673950e-01"/>
          <Range Index="4" Min="2.5000894546508789e+01" Max="4.4986819458007812e+02"/>
          <Range Index="5" Min="-2.4999721050262451e+00" Max="2.4995925426483154e+00"/>
          <Range Index="6" Min="-3.1415684223175049e+00" Max="3.1415693759918213e+00"/>
          <Range Index="7" Min="-6.9998520612716675e-01" Max="9.8556435108184814e-01"/>
          <Range Index="8" Min="2.5000123977661133e+01" Max="1.4809664306640625e+03"/>
          <Range Index="9" Min="-2.3999888896942139e+00" Max="2.3999998569488525e+00"/>
          <Range Index="10" Min="-3.1415801048278809e+00" Max="3.1415822505950928e+00"/>
          <Range Index="11" Min="-2.0000000000000000e+00" Max="1.0000000000000000e+00"/>
          <Range Index="12" Min="2.5000123977661133e+01" Max="1.4809664306640625e+03"/>
          <Range Index="13" Min="-2.3999888896942139e+00" Max="2.3999998569488525e+00"/>
          <Range Index="14" Min="-3.1415801048278809e+00" Max="3.1415822505950928e+00"/>
          <Range Index="15" Min="-2.0000000000000000e+00" Max="1.0000000000000000e+00"/>
          <Range Index="16" Min="2.5053968429565430e+01" Max="1.4809664306640625e+03"/>
          <Range Index="17" Min="-2.3999612331390381e+00" Max="2.3999838829040527e+00"/>
          <Range Index="18" Min="-3.1415801048278809e+00" Max="3.1415822505950928e+00"/>
          <Range Index="19" Min="-2.0000000000000000e+00" Max="1.0000000000000000e+00"/>
          <Range Index="20" Min="2.5000123977661133e+01" Max="1.3301024169921875e+03"/>
          <Range Index="21" Min="-2.3999888896942139e+00" Max="2.3999998569488525e+00"/>
          <Range Index="22" Min="-3.1415801048278809e+00" Max="3.1415815353393555e+00"/>
          <Range Index="23" Min="-2.0000000000000000e+00" Max="1.0000000000000000e+00"/>
        </Ranges>
      </Class>
    </Transform>
  </Transformations>
  <MVAPdfs/>
  <Weights>
    <Layout NLayers="4">
      <Layer Index="0" NNeurons="25">
        <Neuron NSynapses="24">
          -1.2661044499644571e+00 2.3257608935483991e+00 -1.0298468977800830e+00 -1.7269805460363682e-01 -4.8915438932957382e+00 -2.2115183800954008e+00 6.1570975678941231e-01 -8.3848089816916438e-01 3.0857753203799049e-01 -7.7849307011309865e-01 4.0593093744295611e-01 4.4890962437992776e-01 -1.0729706749868184e+00 -8.8178560484056012e-01 6.7485389734255385e-01 7.2991455374653003e-01 -1.5984118492899968e-01 -2.0426481512530650e+00 -4.7931539604157986e-01 -1.9991338413113757e+00 5.0825392384084025e-02 1.8738115430507973e+00 5.5477738969074586e-01 1.2294463758489127e-01 
        </Neuron>
        <Neuron NSynapses="24">
          3.7018985826570955e-01 3.8064477995999407e-01 -2.4487004233808712e-01 3.6461376393235212e-02 1.1103502259283938e-02 4.0781815385976277e+00 -9.9715702639161991e-02 1.6112752957185011e-01 -1.2008140300100892e-01 -3.6167227925803846e-02 -9.5065918613333258e-02 4.5465416189514544e-02 -4.2845334851057310e-01 -1.7621878692943629e-01 9.5547364126841533e-02 -1.8251970006375816e-02 2.9308836249461439e-02 -4.4049343016965246e+00 3.9788723356207756e-01 2.5945132772912940e+00 -1.3310317775056227e-01 5.3277150599423795e-01 1.4145224068800650e+00 1.3192881666305598e-01 
        </Neuron>
        <Neuron NSynapses="24">
          5.5472563592506408e+00 3.5437720989426752e-01 -1.0864963961579957e-01 -6.2912912031192245e-02 -9.6248639779866960e-02 3.1467689475733418e-02 -5.9812767980626358e+00 3.4526171889842645e-02 -4.3739658775936281e+00 9.8660686782331402e-03 7.6027028216174630e-02 3.5712644376379568e-02 -8.7604116386925154e-02 -2.3284814766109457e-01 -4.0527285903207684e+00 -1.3299424793932113e-01 1.4547234779107610e-01 1.2242180517480723e-02 2.1544868556781438e-01 7.0505425965687457e-02 2.4608178285484157e+00 7.3038157019579025e-02 -2.6419415668524771e-01 -5.9426972353759232e-02 
        </Neuron>
        <Neuron NSynapses="24">
          -2.4701442065504250e-01 -2.2797096691587443e-02 -6.7745543051110663e-02 7.8332609626840355e-02 -2.2965128820372539e-02 3.5185365210926214e-03 -1.9679755752563654e-02 -1.5256331945408595e-02 -1.0179238674691749e-02 -4.4515146314343265e-02 1.2644464916704920e-02 -7.9539670931678644e-02 6.8984492234151415e-02 5.7002748398539325e-02 8.8118039454017749e-02 5.5323270463759032e-02 -8.8761255214990162e-03 -1.6083995526772334e-02 1.6075946430392774e-02 -1.1801881425930178e-02 -3.0397390239714057e-02 -1.8892086497577623e-01 -1.3167098365418872e+00 -1.9500721590458549e-02 
        </Neuron>
        <Neuron NSynapses="24">
          2.3350097991139496e-01 -4.3639592023523704e-01 -1.1139029777817993e+00 1.4656996920832940e-01 -9.6979901571746607e-01 2.1794874106901901e-01 1.8466284051335649e-01 3.2998607017874004e-01 -8.1009479648055982e-01 -9.4504691182258252e-02 -2.6456036144476269e-01 1.6556689824655119e-01 -4.1744917750304777e-01 2.7381410017448327e-01 -1.4633590888566764e-01 -1.2477244550576676e+00 -4.1734409651960158e-01 2.9550584535912522e-01 2.1502496829577371e-02 8.7962001496897702e-01 -5.3338643116713069e-01 1.0204866707393201e+00 8.2051172707390407e-01 -3.1350873615444175e-01 
        </Neuron>
        <Neuron NSynapses="24">
          2.6800221870084762e-01 -2.3704330777454187e-02 2.2199172179245999e-01 -5.2943226671855116e-02 8.6051408651347857e-03 2.4365089907665221e+00 -6.4564393885639962e-02 1.3401760537857194e-01 4.5663677945205733e-02 6.2261755192655227e-02 4.5537084251969583e-02 9.2584971775508965e-02 -1.9139706474524934e-01 -8.9330147147342637e-02 4.2891591302154381e-03 2.5566988492805903e-01 2.6174784401395416e-02 -2.6830401174963492e+00 3.6089999005733529e-02 1.6925882834172319e+00 2.6757814079124205e-02 4.2560285697610234e-01 -1.7218399989279181e+00 1.2024959087425011e-01 
        </Neuron>
        <Neuron NSynapses="24">
          3.5142012448735001e-02 -8.3767797543897904e-02 -2.2805063658076000e-02 6.4308756015286073e-02 1.9810544162639579e-01 -3.7900701076658855e-02 -1.2351509450178141e-01 4.8443261838345401e-02 -4.4508642945047194e-01 -8.3726188516664805e-03 1.1363349762955141e-01 3.9822023889415491e-02 1.0569838226435470e-01 1.3510988306151409e-01 5.2396611037015162e-01 -7.7395722746878253e+00 9.4638648011129770e-03 2.9400842319303358e-02 -7.3946300155833519e-02 8.3232827294283194e-03 -1.7244134616127141e-01 -6.5984101827186769e-03 -4.2243890874340877e-02 1.3049027299144420e-01 
        </Neuron>
        <Neuron NSynapses="24">
          -2.8901643757223015e-02 6.9594367943231192e-02 1.9478285399242481e-01 9.5071834429047205e-03 -2.1979751578358516e-02 -2.0082326198609144e-02 -8.0430828179351987e-02 -1.1793793081860302e-01 -1.4301101251902327e-02 -5.4233525789369609e-02 8.0393080277348150e-02 -7.6395472217300323e-02 2.0541180128649073e-02 9.3425004666422226e-04 2.0908628732014153e-02 1.2084923184019399e-01 2.5042401620490262e-02 -3.0276996451897419e-02 5.7429225736784689e-02 -1.8093522912188052e-02 -4.7722849291164403e-02 -2.1269122498394033e-01 -9.3562747410625180e-01 -1.9792842740812117e-03 
        </Neuron>
        <Neuron NSynapses="24">
          -6.2563597296391216e-01 -6.2810748983955556e-01 -1.3608801185146306e+00 2.6240548393480828e-01 7.6893537082673080e-01 4.2387865090869842e-01 -6.3241228654779214e-02 9.5067685850320665e+00 -5.2526360686218874e-02 1.0013712497341103e+01 5.3336180561012467e+00 -7.4992871745037148e-01 3.2441422058781177e+00 8.8724420781128244e-01 -4.9606551608790234e-01 -1.6252246266325113e-01 9.6171629719679217e+00 5.3706227195806666e-01 1.6005525113685339e+00 1.1519979967414411e+00 9.4417582079220713e-02 -2.9349639868013013e+00 1.4151230326024029e+00 5.6915097527878169e+00 
        </Neuron>
        <Neuron NSynapses="24">
          -2.1855982762637566e-01 6.7989607181140888e-02 -3.2257858237099490e-01 1.5616515665359615e-01 6.0861866616109393e-02 -1.3382876178403411e-01 7.9535332046849788e-02 6.8182361435235368e+00 6.9418322758118739e-02 -7.0000885853008281e+00 -1.5874524978606019e-01 -6.8947414349700151e-03 -5.2521738132558081e-02 1.1310358759325720e-01 -2.7238340916473452e-02 8.7397334622470776e-02 -7.3256020779112307e-02 -4.4153248655169147e-02 1.2401028791523783e-01 -1.9006688295225982e+00 4.6462998863999128e-02 -3.6015195282744095e-01 -1.6957898283353694e+00 3.1459858670413793e-01 
        </Neuron>
        <Neuron NSynapses="24">
          2.2184588474467776e-01 -1.2918383141888545e+00 -1.7128497552160479e-01 -6.3128236481560129e-02 -4.7916454810250086e-02 -1.0968126594859970e-01 3.2949667687286631e-03 -7.3551529641112501e-02 -5.3473370462861214e-02 -5.9424402687955215e-02 2.1280086631657236e-01 1.0395178277127283e-02 7.1096312531188036e-03 -9.7212893623675883e-03 -1.3527145233519290e-02 7.3277762525639570e-02 -6.5407345858999502e-02 -4.6630606942013542e-02 2.3559351949009894e-02 6.0903124210321014e-02 1.5513512020313641e-01 1.9699418170651475e-01 9.4696545913229269e-01 6.9010422547618869e-02 
        </Neuron>
        <Neuron NSynapses="24">
          2.0442155408314361e-01 -3.1509343295518139e-01 -4.4287182962987046e+00 -1.0529515302584371e+00 1.9005522936860666e-02 -3.8997311010587274e-02 -1.3936290212671726e-02 -2.0141588741378721e-01 1.9223000258366210e-01 -2.9251244584771630e-01 4.2830238976644391e-01 9.6102952543527054e-01 1.6735009236235804e+01 2.2006700338951091e+00 5.9796773940402809e-02 1.3425391321071359e-01 -8.1375952976896395e-03 1.8562412446625409e-01 -7.0417809618614713e-01 3.3525938871220623e-01 -7.5779635037829016e-02 -2.1400380424047056e+00 -2.9136545036805064e+00 1.4426519004082286e-01 
        </Neuron>
        <Neuron NSynapses="24">
          -1.4621682393828108e+00 3.5441930641374886e-01 -2.0382273560747874e+00 3.1861181581571936e+00 -2.5895597490858094e+01 6.5360483835277616e+00 2.5802274865078023e+00 -1.2312091460981220e+00 1.2565732263145954e+00 9.0986034722734657e-02 1.6129393759981157e+00 -4.6000510821090712e+00 1.0027359237069169e+00 3.7693087540848556e+00 -1.5371056779103227e+00 -6.8294608120193467e-01 -1.5899339580512073e+00 9.3364455676795135e+00 3.4924697682881702e+00 -8.4583855153516108e-01 8.9590111416768559e-01 -5.2070598393839451e-01 7.6914015512929024e-01 9.1746643292689875e-02 
        </Neuron>
        <Neuron NSynapses="24">
          -4.2089727009409150e-01 -1.8106966018370629e-01 -1.8164195712752440e-01 -4.4268893318426636e-02 -2.0126492362872933e-01 -6.0832374145010286e+00 2.1050244633380355e-01 -2.5697578826654488e-01 5.8323456233490507e-02 -8.3015769160110497e-03 -1.3175015172124782e-01 -1.7124081907428584e-01 3.8686177906246400e-01 -4.4706655043270704e-01 -1.1437346426055865e-01 -3.8685049652406973e-03 7.2103396171340622e-02 6.4814893687792203e+00 -3.9358543711344129e-01 2.3489169029879249e+00 6.2484701441658441e-03 1.2644570263259650e-01 8.5828578121512955e-01 -5.2737309704998445e-02 
        </Neuron>
        <Neuron NSynapses="24">
          2.9920521577056225e-01 4.5201137259405932e-01 -3.2572971361402558e-01 1.9353044583593354e-02 -1.4591517149045080e-01 -4.1519890452837299e-02 5.9701002285528748e+00 -3.5941577225818824e-02 5.0292125678125608e+00 4.7623389166036090e-02 -1.2334655258932570e-01 -2.6619826301631715e-02 2.5227040048797854e-02 3.4969310885747435e-03 3.6401240901914771e+00 8.2067419368795544e+00 -1.3722950646544957e-03 3.6751283287365322e-02 -4.0597663515654657e-02 -1.6284412813684890e-01 -2.7582653466451892e+00 -1.6979955988972343e-02 3.4767194914468302e-01 8.5447423404622982e-02 
        </Neuron>
        <Neuron NSynapses="24">
          -7.6392462850061529e-02 2.1257441120503556e-01 6.0896605144052562e-01 -9.8890431065930623e-02 2.1539586456111887e-02 -1.2762863914401595e-01 9.7367151994604939e-02 9.4416153807397679e-02 1.4317150970130590e-01 1.2426169010835911e-01 -1.9129448028595436e-01 -2.0518543395484432e+01 2.1048357513629479e-01 5.3808442310551963e-01 -2.7554057975177262e-02 -4.4341469194329790e-02 -4.6580120512460209e-02 -5.9086039791652958e-02 -2.0504097540054628e-01 4.3751539701886882e-01 4.5876017987743413e-02 -1.8782350671570378e-01 -1.7858071556984734e+00 -9.5661176535064382e-02 
        </Neuron>
        <Neuron NSynapses="24">
          -4.6473335318552050e-02 2.6195418379977475e+00 5.4900350811975240e+00 3.6111116035893440e+00 8.2263653333470976e-01 1.0217218755923585e+00 2.6215068173600181e-01 -5.3574566234578835e-01 -3.9300178824980145e-02 -2.9304444967088472e-01 -7.0603371205516154e+00 -9.5404407654773649e-01 1.0985811527117992e+00 2.0769653086346396e+00 -2.7316404092041180e-01 -8.7349456310408480e-01 9.2711308330803579e+00 8.9164510727184332e-01 2.9764586278662777e+00 -9.2953931552335700e-01 7.4371765150241589e-02 8.8334964788205095e-01 5.3671901674840694e-01 -8.2754750309380789e+00 
        </Neuron>
        <Neuron NSynapses="24">
          -7.0450715157512611e-02 -4.7700788639171054e-01 5.3362448435714727e-01 -8.0037406302318162e-02 2.9693898523218569e-02 6.7760505985326125e-02 -2.1198410095093728e-01 -4.0180153877872566e+00 -6.5762780554840902e-02 4.2666534824475653e+00 6.3040013204435867e+00 4.0555286099899415e-03 2.2414109031475291e-01 3.5571859029611647e-01 2.2909587490594668e-02 -2.7887916781091532e-01 1.6414839247232283e-03 1.3026047331952170e-01 2.1826928646603194e-02 -2.6972804367402738e+00 -8.4343144247993988e-03 -3.1956397798546360e-01 4.6741757492448843e-01 -6.9605206204919003e+00 
        </Neuron>
        <Neuron NSynapses="24">
          -5.9665205839414961e+00 -1.4632161214252859e+00 2.2975174892828987e-01 -3.4540902390593806e-02 -2.3484811480644269e-02 -1.2765116293764103e-01 3.1776463868269149e-02 -7.7854795920526715e-02 -6.7862376826093959e-02 4.4711395826607797e-02 7.4532950486007832e-02 -1.4438409429958823e-01 6.5874354764886470e-02 4.7803606332055854e-02 -2.0026912031147509e-01 -5.9691294199737677e-02 -1.7807067851229305e-01 -5.9872024877592696e-02 -1.0163622740879627e-01 8.1807450792161455e-03 4.1306028364278624e-01 -5.1094715349168790e-02 1.0901753666754439e+00 4.6679315796210152e-02 
        </Neuron>
        <Neuron NSynapses="24">
          2.5508396453827892e-01 2.3479674897702305e-01 5.8712011591351523e+00 1.4103929221106441e+01 2.2474448452532055e-02 -7.3079897810748569e-04 -5.9649479221779225e-02 -1.2298967135568256e-01 1.1300194643482600e-01 -3.6278314794429079e-03 9.3926985172905639e-02 2.6160066877948185e-01 -4.2970690996704103e-01 2.3297605523513168e-03 1.3971109450414987e-02 1.3060110957830268e-01 5.7318692105114109e-02 6.2837174855433275e-02 -2.8990962527929276e-01 -1.2507909790502444e-01 1.5674410122120060e-02 -1.5745071156551202e-01 1.5357098271821208e+00 2.1323217381504700e-01 
        </Neuron>
        <Neuron NSynapses="24">
          -1.1523676077201453e-01 -1.5410745562502319e+00 6.6850431556394732e+00 1.7632067213341007e+00 1.4683583156227586e+00 -6.1347425527057985e-02 7.2949461204996502e-01 -4.3656572683039235e-01 -3.6929225307763458e-01 5.2803598685968489e-01 -1.0025170232726749e+01 -5.3062127464748929e+00 4.0585126414077122e+00 4.7246427938760212e+00 -2.0645956076488563e+00 -1.7271722492338204e+00 9.2640805811166462e+00 -1.9064084093555514e-01 4.4405306183273590e+00 1.1743522461778999e+00 -5.8420550707197971e-01 -1.1189337871904916e+00 1.7521908101929209e+00 -1.0544925247888958e+01 
        </Neuron>
        <Neuron NSynapses="24">
          1.7918149144045276e-01 3.5681940468117262e-01 -9.2351979227202396e-02 -5.9101704939500746e-02 8.5687257802215727e-02 2.3084775073706803e-02 3.2663729217715202e-02 -2.8315298545149843e+00 -3.5224247401801585e-02 2.7313673341399771e+00 -5.9471815695322361e+00 5.2383013593998266e-02 5.6969691647353587e-03 1.9465933896814555e-01 2.8471958187192992e-02 -1.6104292861216640e-01 -2.4237733827509086e-02 9.7629468427415891e-02 -1.0310459191837018e-01 -1.4410029906639974e+00 4.9588025700290396e-02 -2.5161527332146882e-01 9.4046845930212819e-01 6.4831170909248295e+00 
        </Neuron>
        <Neuron NSynapses="24">
          1.0820565879227209e+00 -1.9587665625275763e+00 -5.0919320169423232e-01 -8.7360806425928004e-03 -3.1533272013937346e-03 2.1501293342090955e-03 6.3131109595981783e-02 -1.2104308510429897e-03 2.0221611522220964e-01 -2.6372327808010472e-02 1.8134252777327123e-01 -2.0007790821866465e-02 8.7164490459990931e-02 1.5195556844249911e-01 -6.8724322283106154e-02 1.2467422987735596e-01 -1.0267083218895089e-01 5.4295799796060494e-02 5.1190291457944383e-02 1.9299128078363922e-01 1.4512446444648328e-01 5.0928044200746092e-01 -4.8702426743185434e-01 8.1746171186288047e-02 
        </Neuron>
        <Neuron NSynapses="24">
          -3.1978727355978898e-01 5.8521450907936715e-02 9.8193393735096617e+00 1.8671137054541342e-01 3.4356452407213016e-03 2.6206700626201080e-02 -4.4043327519352436e-02 -4.5012139856602712e-02 -3.9760161825134130e-02 -1.2490228773001838e-01 7.0279103494674575e-02 -4.2765016868315214e-02 1.0241270091967500e-01 1.4835871610453336e-01 -6.8461594130057098e-04 -1.2782989612873585e-01 4.0426569155306243e-02 -2.4006442263700526e-02 1.1401522049934901e+01 -2.2545219117276732e-02 5.9197274692712378e-03 -1.3607803970456461e-01 1.6455051879249429e+00 1.0694506839189903e-01 
        </Neuron>
        <Neuron NSynapses="24">
          -3.6911486727411780e+00 -6.7781166451333238e-02 -3.7428256035485834e+00 -5.8553936699654097e+00 -2.8434488990350914e+01 2.2656512897073888e+00 1.1999046613443800e+00 1.3967621010271616e+00 6.6216456825497207e+00 3.7649406957620273e+00 -4.9678202860551890e+00 1.0335027336578676e+01 2.1167726958979869e+00 6.3524839953156675e+00 -2.3130683316547453e+00 6.5762226769788115e-02 2.5787952452007566e+01 4.5319644823470799e+00 -3.0464969470553421e-01 -3.5535042634593190e+00 3.5826072619559084e+00 3.5378320165785354e-01 -1.2988301161431510e+00 -7.3611945869211493e+00 
        </Neuron>
      </Layer>
      <Layer Index="1" NNeurons="25">
        <Neuron NSynapses="23">
          2.1033764359749152e+00 -3.2213563658233330e-01 5.2263785027424126e-01 -2.5552256026952158e-01 6.4121739176740034e-01 3.3465797378700302e-01 2.1321661058553207e-01 2.2974967456247714e-01 -8.5754354612491068e-01 -6.0546918640861946e-01 -2.2677508029418467e-01 4.9514034590514493e+00 -4.1228413969859617e-01 -7.6570259588042711e-01 -6.2435901813918293e-01 1.7502481823300092e-01 -2.4425582567135482e+00 -1.4525401820141146e-02 -8.0294420060292815e+00 -8.0382266146525627e-01 -4.4035195822697437e-01 2.4439741163466658e-01 7.5200448994470792e-01 
        </Neuron>
        <Neuron NSynapses="23">
          1.0208440107702083e-01 6.7818462120563050e-01 -8.5745938343380859e-02 -9.7604499054431426e-01 8.1405762546631977e-01 7.8082557899323946e-01 2.1374997816810941e+00 -1.3515147620397674e+00 -4.5927248756355982e-01 5.2294275452230206e-02 -1.3432788576385890e+00 -4.8618494206536866e-01 -1.1375374135896614e+00 -4.5912821477594756e-01 8.9105495197257234e-01 1.4616224746516397e+00 -1.5790407464848790e+00 1.1969574722754028e+00 -3.7309003390493793e+00 5.2896724969365605e-01 -6.3664287379801521e-01 4.5104041480174789e-01 -2.3524499565827686e+00 
        </Neuron>
        <Neuron NSynapses="23">
          -1.3952226001688524e+00 -1.4251038202342969e-01 1.2713623896596982e+00 5.1414785793907503e-01 4.0178484504569589e-01 -1.5689199316882292e+00 5.7779059128870880e-01 -7.6263450872389091e+00 5.3083089330201760e-01 1.3323474447803607e+00 -6.5105081892744221e-01 1.1647339129788672e+00 1.6666576416815606e+00 -7.3709098265420492e-01 7.7141789772298786e-01 3.2005775124844265e+00 5.1463177315061515e-01 -1.6037148515087982e+00 -1.6624822893319696e-01 -1.2273611688351302e+00 1.0248961984888068e-01 2.4793154621835507e+00 -1.3239362578787708e-01 
        </Neuron>
        <Neuron NSynapses="23">
          7.6322762804094901e-01 -1.9016279993841654e+00 1.1393389381145120e+00 -1.2633805669355282e+00 -1.1370992228524470e+00 1.1021652767369718e+00 -2.2338225615287342e+00 -1.7474664253859131e+00 -5.5648976737074851e-01 1.8741893192656764e-01 -1.5972854647725760e+00 1.1562695157466327e-01 2.6454707546144640e-01 2.7192087435780699e-01 2.8555539862782647e-01 4.6348585304934327e+00 -5.1049455566907009e-01 4.9780744828818202e+00 -7.7808581422496348e-01 -6.3033894593183848e-01 3.8808547643005797e-01 1.4036700044523023e+00 1.4438284036865847e+00 
        </Neuron>
        <Neuron NSynapses="23">
          1.3326027284369568e+00 -8.5254074951276093e-01 -5.9729148945479702e+00 -4.2026387862241181e+00 -7.6602735289754227e+00 2.2449571461549170e-01 -1.0167717871299236e+00 3.3827032061089946e+00 1.5208610858124796e+00 1.9603304382256566e+00 4.9862780760135736e+00 -1.5953944727037574e+00 -1.7468650594364248e+00 -4.4771574874331330e+00 -3.9085593121376094e+00 -1.4851284774642044e+00 -2.2581165513039840e+00 2.9041036986451250e+00 -1.3574572953983060e+00 -2.5628660700169985e+00 1.1981000420201370e+01 -1.1897985826222155e+00 -2.0540261029171640e+00 
        </Neuron>
        <Neuron NSynapses="23">
          1.2166963234564097e-01 -7.4786714900253726e-01 -9.4827706518362420e-01 4.3966814941205090e+00 2.0982956556871994e+00 4.8212515828328700e-01 1.6940627536424639e+00 -1.0016194838152155e+00 -3.6264223910871829e-01 1.0809451185795442e+00 -1.7239816618092341e+00 -4.9910454786838127e-01 7.0480938224455136e-01 5.5259848982365511e+00 1.4671064212800504e+00 -3.8219389688955735e-01 -1.6774009833435237e+00 -3.7148369795317349e-01 -4.6774220567100927e-01 1.0924547651300591e+00 -8.5461670605578526e+00 8.5082009940255698e-01 2.7599881679602865e+00 
        </Neuron>
        <Neuron NSynapses="23">
          -1.1140686781486113e+00 -1.7991911221445775e+00 -1.6930727464025517e+00 8.5668466054313941e-01 1.0975928719531300e+00 -4.0995491313950966e-01 -7.7336602289126655e-01 -1.5747335096754591e+00 1.0866320621688301e+00 -3.6092135213573406e-01 -1.9762003710953624e+00 1.4890037864012005e+00 2.5760731493828826e-01 7.5513191046695960e-01 4.0938734089876760e+00 -4.7105880667923355e-01 1.0682883686414240e+00 -1.1702517191519894e+00 -7.5797088004288404e-01 -2.1837643819784307e+00 -7.4956773198916800e+00 3.1020548121883951e+00 8.5791022313604151e-02 
        </Neuron>
        <Neuron NSynapses="23">
          7.7789457887881275e-01 8.9900138277766284e-01 -9.5885781282605920e-01 3.9977600357977527e+00 -7.0023790435417799e-01 6.7560156130087057e-01 -4.4696280252404366e+00 -1.2495618432854614e+00 -9.4261731091019318e-01 -2.4074720389855147e+00 2.8564577391219220e-01 -8.8311452365259080e-01 4.1333149433674627e+00 -1.0026079510202623e+00 -9.1763766835023763e-01 -6.2747925544098351e+00 4.6952054860530262e-01 -1.3208607713375839e-01 7.4195707711812983e-02 -1.5734519734714612e+00 7.9686581031177162e-01 3.9535823233390538e-01 -5.8450552195725980e-01 
        </Neuron>
        <Neuron NSynapses="23">
          2.2815299831876446e-01 -9.1258922294134270e-01 -1.8548036240483388e+00 6.1093285847872880e-01 2.0900274925917939e-01 5.4768019677537594e-01 -2.4162118656171852e-01 -3.1653850183707455e+00 7.1289934354519371e-02 1.0029111039137414e-01 8.6127465835865125e-01 1.4739940575278648e-01 -2.9949519343951692e-01 1.0968037146193772e+00 2.9289831119788745e-01 6.4914253936514385e-02 6.3290041522984652e-01 -1.4488489113068936e+00 -2.8456975532942091e-01 -2.0737236624513442e+00 -6.6535799500158337e+00 2.8465555077311802e+00 2.8009924355662164e+00 
        </Neuron>
        <Neuron NSynapses="23">
          -5.9484234649619938e-01 -1.6801869354890026e-01 -1.5714738419665364e+00 4.9488594432353583e+00 -2.3967539550304034e-01 -4.4775060880624734e-01 -4.6269077972998049e+00 -5.5582359898243883e-01 7.7449629944227671e-01 -3.3451998467828306e+00 2.2925919207429349e-01 8.0749712188216707e-02 -2.4671679520471388e+00 1.6378706254172409e-01 -5.4403402175154369e-01 -4.0542869367848642e+00 -1.1520253135335852e+00 6.3545860082907149e-02 -7.0923732418212940e-02 -5.5621129413213871e-02 1.2445532399212424e+00 3.3908194691401294e+00 3.5139617635257596e+00 
        </Neuron>
        <Neuron NSynapses="23">
          3.8468542425837782e-01 8.9851250442199548e-01 5.1229668301269693e-01 -4.0615707286995800e-01 -1.8457242184455466e-01 1.3046072813138589e+00 5.0267424548355706e+00 4.3811019008417962e-01 9.2309624201990459e-01 -9.9082603330103414e-01 1.6866748041043127e+00 3.8804734237856969e-01 -1.6606002677701348e+00 -1.5155820692804300e-01 2.9492815559212248e-02 3.1409272189801909e+00 -2.2868293346339872e+00 2.6311629577482041e+00 8.1533840422665960e-01 6.2420232644321971e-01 -5.5059541190098626e-01 1.8873734887519711e-01 -5.7432135974468022e+00 
        </Neuron>
        <Neuron NSynapses="23">
          2.5302938832362090e+00 1.5321005563743040e-01 -1.4406377910794652e+00 4.9257614871687366e-01 -1.1470248195151398e+00 3.3779159175601392e+00 1.0028283508351812e+00 4.8266438528611308e+00 2.0808400836927889e+00 -1.6674767198096649e-01 -4.6869436052297946e+00 1.8515026471732319e+00 1.4057006219382953e+00 -3.0808619235674772e-01 -2.2383520253949944e+00 -5.9573334191902005e-01 9.3729886433153409e-01 -5.9615200870208485e+00 -1.3984962052127177e+00 1.8104571847571993e-01 1.5583073477020757e+00 -5.8562720604401912e+00 -1.0098701803432852e+00 
        </Neuron>
        <Neuron NSynapses="23">
          2.6044998883758588e+00 -5.5744657504439310e+00 7.2241945737361568e-01 -9.9255635295397759e-01 9.5162286342977542e-01 6.3472766051315919e+00 3.1171329436454093e-01 5.9498723536536575e+00 4.4605532963406974e-01 -4.7508196989284395e+00 -9.5457062925915312e-02 2.3894191773730422e-01 1.7434639709529127e+00 -8.8782614358710632e-01 1.3334661318815297e+00 2.5729576437633113e+00 4.4301553132643340e-01 2.0769594402425615e+00 3.9584807778490499e-01 -9.4449446638762946e-01 9.3186939740810812e-02 -3.5033136893493841e+00 -6.7470642021526861e-02 
        </Neuron>
        <Neuron NSynapses="23">
          8.8734194638197483e-01 -2.1577400185603883e+00 1.8922830195268854e+00 1.6113555466978224e+00 -2.5041953585107729e-01 2.7465544078508120e+00 2.6164960012258600e+00 1.3879162686970310e+00 1.5886249769370107e+00 -5.7204381215973088e-01 -3.8050990977854088e-01 1.1184307670222102e+00 -3.3554791038038858e+00 1.0398104569365918e-01 1.2060107776681919e+00 -2.4983969760451710e+00 -2.6881615338316334e-01 -5.3978372342492058e+00 1.6823299689752480e+00 -1.2417222144435776e+00 3.9569800371325037e-01 -7.8277067406523804e-01 7.5923668679334610e-01 
        </Neuron>
        <Neuron NSynapses="23">
          5.6549332946079578e-01 1.2166941394466306e+00 5.0128297257868160e-01 -5.9353780153064561e-01 -7.8934917362364274e+00 -6.1723789034312304e-02 1.8244195003398425e-01 1.0892779920615687e+00 -4.6290728886038224e-01 5.0162989951377990e-01 1.5728596724580410e+00 2.9435455808623563e+00 -1.3006047217782177e+00 5.7243144009671125e+00 1.0444235899981564e+00 -2.8822518793780983e-03 -2.2299558504028563e-01 6.8658319561798753e-01 6.6725393699017232e-01 -4.5240971371952661e+00 6.4386100341617958e+00 -1.7141315692553465e+00 -1.4028674932800094e+00 
        </Neuron>
        <Neuron NSynapses="23">
          -3.7807969487167953e-01 6.0645919632392242e-01 -3.6842671308973879e-01 -3.5764337298438015e-01 -2.6191039608994964e+00 -2.1264558294778821e-01 -1.7141920453888751e-02 9.4638934175927925e-01 2.7519931645054807e-01 2.0937574950642740e-01 1.5440309414641862e-01 -3.4880333557646983e+00 -3.8116006951204068e-01 7.3037677837314818e-01 2.5442461849283571e-01 2.4139140389360509e-02 7.5310649309652677e-01 7.0367133747307664e-01 -7.9725974095338936e-02 -7.8592104648706407e-01 3.0062552191516949e+00 -1.6952961492840217e+00 -1.3420560096221505e+00 
        </Neuron>
        <Neuron NSynapses="23">
          -5.3229646424866772e-01 2.7276877959553242e-01 5.4511283008337754e+00 4.9747255400329795e+00 1.3234763337744655e+00 -3.6862965477604170e+00 -1.0727386283773662e+01 -2.0887593884611748e+00 3.3173002746792429e-01 -2.0544495852996345e-01 2.9915264683684399e+00 1.5410238183609108e+00 1.5339318543341303e+00 1.7077945544081918e+00 2.9074175734894587e+00 -7.2257835357588753e+00 1.0274855094759668e-01 -4.6768693137118635e+00 4.5450305727400053e+00 2.3519907029420608e+00 7.0273437333113489e-02 1.5794466027639842e+00 2.1078352511517786e+00 
        </Neuron>
        <Neuron NSynapses="23">
          2.1363430991739976e+00 3.1541573183930152e+00 -5.7268434208288899e-01 3.3482522395756709e+00 1.9641538131803467e+00 1.6150718852869637e+00 1.4017736957874143e+00 -1.5712676301619675e+00 -1.1835032143513811e+00 -2.0481505452248996e+00 -3.1112414812524092e+00 2.7221514340997843e-01 1.9023852931718856e+00 4.1761065025820288e-01 -6.4832898064731470e-01 9.1161445421694701e-02 1.8412973785629130e+00 -6.5899862939815246e-01 -6.5883765544050055e-01 -1.0809727745104476e+00 -7.9278222940841481e+00 2.5256382182866846e+00 1.8862101670160505e-01 
        </Neuron>
        <Neuron NSynapses="23">
          -2.6420919461131109e-01 -2.8698646673392719e-01 9.9634663250141697e-02 -3.1594683875963749e+00 4.9375864671378744e-01 1.2775640000853656e+00 -3.2017387225312479e+00 -9.2122399034041158e-01 -5.2951879070453001e-01 -7.1652391455867781e-01 -2.2973640764273866e+00 -1.6066760354154490e+00 1.8708144218694496e+00 -8.9831102508442084e-01 -1.1602842803584199e+00 5.7241471519445519e-01 -1.8260585849063102e-01 6.2192585395723388e-01 -2.7264785115545537e-01 -2.2646083162008956e+00 -5.0297367787456672e-02 4.2454468195027921e+00 1.7145954383135293e+00 
        </Neuron>
        <Neuron NSynapses="23">
          1.8444227739575145e+00 2.9082594326625572e-01 -2.9562121934005270e-01 1.6606809643853943e-01 -6.9303847758883119e-01 9.8138769568391393e-01 2.5071221308453184e-01 1.6935030793308081e+00 -5.0561843629838144e-01 -3.2417050640971401e-01 -4.5351009760722333e-01 1.4029047079262451e+00 3.2240041542339545e-02 -1.3644014929714876e+00 -1.0129423885984130e+00 -7.7177607774483425e-01 -1.5235689610247618e+00 -1.4114175011405986e-01 -4.7031059978211176e-01 -9.3391789263540481e-01 4.7330040508043020e-01 -1.1734610532551344e+00 -5.7979774194800604e-01 
        </Neuron>
        <Neuron NSynapses="23">
          2.5118269803455613e+00 1.3346568040460187e+00 -3.6646556500100069e+00 1.3369157638954339e+00 6.9888820690330675e+00 -6.1922568275915335e-01 -7.4105861722267230e-01 -1.4608372629044035e+00 1.6028549159459189e+00 2.3005325162398876e-02 -1.8843128374277813e+00 -3.7711296014050837e+00 -4.3769067893404007e-01 -6.9879964733416955e+00 -1.4324289340332022e+00 5.2962887950489243e-02 -4.2655394869056744e+00 9.6645111004250639e-01 -8.3779852169588842e-01 8.2449165456732754e-01 -4.8352904535042791e+00 1.4124284310301929e-01 4.4029989287415239e-01 
        </Neuron>
        <Neuron NSynapses="23">
          -1.2470033170012496e+00 8.0380629372727841e-01 8.5666480964039571e-01 -1.2037299925744818e+00 3.4356918618314181e-01 -5.6083219233607133e+00 6.2484571131560762e-01 -3.6404120787296406e+00 -1.3603314594524432e+00 5.0892591730356047e+00 -1.9242697194671457e-01 -6.4846965500099019e-01 1.1919026733696734e+00 -3.9406113202996440e-01 7.5635184672362266e-01 1.9257280920054494e+00 -7.2591542321276148e-01 4.0389977678504835e-01 1.8456519892387904e+00 5.6309194713890909e-01 7.8268841245907028e-01 3.4480505060822746e+00 -9.7549937490497840e-01 
        </Neuron>
        <Neuron NSynapses="23">
          3.8618336073544812e-02 1.5638316331405064e+00 -1.3338090627856480e+00 -1.8487264762851465e+00 -7.0601067961573660e-01 -1.6113170391948299e+00 -1.6830488718777240e-01 9.3054913576387954e-01 6.9669183629549158e-01 1.1965684501770579e+00 1.4121391808292187e+00 -6.0162910467700359e-01 -1.0519543965025542e+00 -3.0172952225555399e-01 -1.9060229040168850e+00 1.9346930327926750e+00 8.6779488313680590e-03 2.0156674400263803e+00 9.9271520474872454e-01 -1.1969076921432119e-01 -1.9063928060770461e+00 1.9371195642665509e+00 7.3820039859319553e-01 
        </Neuron>
        <Neuron NSynapses="23">
          1.8826247888306700e+00 -2.6483994226052673e-02 1.1234820716190224e+00 -2.1655310253375184e+00 9.9118565965016975e-02 1.3898272100464852e+00 4.9425639477889884e+00 2.9074694893139552e-01 1.5455436539194274e+00 -1.4811859491339638e+00 -3.2736598934467294e+00 -1.5365268045421274e-01 -1.8794721406753503e+00 3.9627666216764756e-01 4.1184888262862912e-01 -1.3832447718417185e-01 -6.8920933647178861e-01 3.6296147618034600e+00 4.6142683652034966e-01 1.6285087787827948e-01 -1.6324012310139475e-02 3.3113653727066161e-01 1.8638648872662906e+00 
        </Neuron>
        <Neuron NSynapses="23">
          2.0991983898543196e-01 4.3643253081541662e-02 -1.9901011257519057e+00 8.7545645845069042e-01 -3.3862205454644356e-01 9.6726476538229167e-01 -1.2369960752894269e+00 -5.7748434440087895e+00 2.0375467101669589e+00 -1.9885158260159517e+00 1.3965437388066142e+00 -2.4233858374140209e+00 -1.1965703987539713e+00 -1.3401556349899129e+00 -3.0069947654897566e+00 -8.8617881917310248e-01 -6.0670825292686213e-02 -1.6568104191634050e+00 -4.6533790741956897e+00 5.8636778381861598e-01 4.7562897107588737e+00 1.7494674788006450e+00 -1.4718319611437380e-02 
        </Neuron>
      </Layer>
      <Layer Index="2" NNeurons="24">
        <Neuron NSynapses="1">
          -1.7017272738668832e+00 
        </Neuron>
        <Neuron NSynapses="1">
          -3.1385676169119794e+00 
        </Neuron>
        <Neuron NSynapses="1">
          5.6766997808882582e+00 
        </Neuron>
        <Neuron NSynapses="1">
          5.4308712541512723e+00 
        </Neuron>
        <Neuron NSynapses="1">
          2.4294885830812030e+00 
        </Neuron>
        <Neuron NSynapses="1">
          -4.9823520505749466e+00 
        </Neuron>
        <Neuron NSynapses="1">
          5.7175153630211089e+00 
        </Neuron>
        <Neuron NSynapses="1">
          2.3487162788124363e+00 
        </Neuron>
        <Neuron NSynapses="1">
          -2.8549969486221793e+00 
        </Neuron>
        <Neuron NSynapses="1">
          1.1333656265149241e+00 
        </Neuron>
        <Neuron NSynapses="1">
          -3.5534632669934090e+00 
        </Neuron>
        <Neuron NSynapses="1">
          8.2012161819564633e-01 
        </Neuron>
        <Neuron NSynapses="1">
          -2.8548093947906161e+00 
        </Neuron>
        <Neuron NSynapses="1">
          -2.5807021701065134e+00 
        </Neuron>
        <Neuron NSynapses="1">
          2.0049870009492960e+00 
        </Neuron>
        <Neuron NSynapses="1">
          -3.4869370804965825e+00 
        </Neuron>
        <Neuron NSynapses="1">
          2.0716007631590010e+00 
        </Neuron>
        <Neuron NSynapses="1">
          -6.2916506254262137e+00 
        </Neuron>
        <Neuron NSynapses="1">
          5.3373585947284381e+00 
        </Neuron>
        <Neuron NSynapses="1">
          -3.5460905939652685e+00 
        </Neuron>
        <Neuron NSynapses="1">
          5.9827145983777852e+00 
        </Neuron>
        <Neuron NSynapses="1">
          -2.6019987510378777e+00 
        </Neuron>
        <Neuron NSynapses="1">
          -3.5378844923376396e+00 
        </Neuron>
        <Neuron NSynapses="1">
          -3.2178675041005911e+00 
        </Neuron>
      </Layer>
      <Layer Index="3" NNeurons="1">
        <Neuron NSynapses="0"/>
      </Layer>
    </Layout>
  </Weights>
</MethodSetup>
