<?xml version="1.0"?>
<MethodSetup Method="MLP::ANN">
  <GeneralInfo>
    <Info name="TMVA Release" value="4.2.1 [262657]"/>
    <Info name="ROOT Release" value="6.10/09 [395785]"/>
    <Info name="Creator" value="mc_cheng"/>
    <Info name="Date" value="Sun Jan 17 12:51:02 2021"/>
    <Info name="Host" value="Linux cmsbuild76.cern.ch 2.6.32-696.30.1.el6.x86_64 #1 SMP Tue May 22 06:09:36 CEST 2018 x86_64 x86_64 x86_64 GNU/Linux"/>
    <Info name="Dir" value="/wk_cms2/mc_cheng/public/tqHGG/2017_DeepJet/MVAreco_model"/>
    <Info name="Training events" value="3121269"/>
    <Info name="TrainingTime" value="6.87774110e+04"/>
    <Info name="AnalysisType" value="Classification"/>
  </GeneralInfo>
  <Options>
    <Option name="NCycles" modified="Yes">500</Option>
    <Option name="HiddenLayers" modified="Yes">N,N-1</Option>
    <Option name="NeuronType" modified="No">sigmoid</Option>
    <Option name="RandomSeed" modified="No">1</Option>
    <Option name="EstimatorType" modified="No">CE</Option>
    <Option name="NeuronInputType" modified="No">sum</Option>
    <Option name="V" modified="Yes">True</Option>
    <Option name="VerbosityLevel" modified="No">Verbose</Option>
    <Option name="VarTransform" modified="Yes">N</Option>
    <Option name="H" modified="Yes">True</Option>
    <Option name="CreateMVAPdfs" modified="No">False</Option>
    <Option name="IgnoreNegWeightsInTraining" modified="Yes">True</Option>
    <Option name="TrainingMethod" modified="No">BP</Option>
    <Option name="LearningRate" modified="Yes">2.000000e-02</Option>
    <Option name="DecayRate" modified="Yes">1.000000e-02</Option>
    <Option name="TestRate" modified="No">10</Option>
    <Option name="EpochMonitoring" modified="No">False</Option>
    <Option name="Sampling" modified="No">1.000000e+00</Option>
    <Option name="SamplingEpoch" modified="No">1.000000e+00</Option>
    <Option name="SamplingImportance" modified="No">1.000000e+00</Option>
    <Option name="SamplingTraining" modified="No">True</Option>
    <Option name="SamplingTesting" modified="No">False</Option>
    <Option name="ResetStep" modified="No">50</Option>
    <Option name="Tau" modified="No">3.000000e+00</Option>
    <Option name="BPMode" modified="No">sequential</Option>
    <Option name="BatchSize" modified="No">-1</Option>
    <Option name="ConvergenceImprove" modified="No">1.000000e-30</Option>
    <Option name="ConvergenceTests" modified="No">-1</Option>
    <Option name="UseRegulator" modified="No">False</Option>
    <Option name="UpdateLimit" modified="No">10000</Option>
    <Option name="CalculateErrors" modified="No">False</Option>
    <Option name="WeightRange" modified="No">1.000000e+00</Option>
  </Options>
  <Variables NVar="19">
    <Variable VarIndex="0" Expression="bJet_Pt" Label="bJet_Pt" Title="bJet_Pt" Unit="" Internal="bJet_Pt" Type="F" Min="2.50000038e+01" Max="1.48311975e+03"/>
    <Variable VarIndex="1" Expression="bJet_Eta" Label="bJet_Eta" Title="bJet_Eta" Unit="" Internal="bJet_Eta" Type="F" Min="-2.39999771e+00" Max="2.39999986e+00"/>
    <Variable VarIndex="2" Expression="bJet_btag" Label="bJet_btag" Title="bJet_btag" Unit="" Internal="bJet_btag" Type="F" Min="-3.00000000e+00" Max="9.99999285e-01"/>
    <Variable VarIndex="3" Expression="M1Jet_Pt" Label="M1Jet_Pt" Title="M1Jet_Pt" Unit="" Internal="M1Jet_Pt" Type="F" Min="2.50000038e+01" Max="1.48311975e+03"/>
    <Variable VarIndex="4" Expression="M1Jet_Eta" Label="M1Jet_Eta" Title="M1Jet_Eta" Unit="" Internal="M1Jet_Eta" Type="F" Min="-2.39999223e+00" Max="2.39999986e+00"/>
    <Variable VarIndex="5" Expression="M1Jet_btag" Label="M1Jet_btag" Title="M1Jet_btag" Unit="" Internal="M1Jet_btag" Type="F" Min="-3.00000000e+00" Max="9.99999285e-01"/>
    <Variable VarIndex="6" Expression="WJet1_Pt" Label="WJet1_Pt" Title="WJet1_Pt" Unit="" Internal="WJet1_Pt" Type="F" Min="2.50000839e+01" Max="1.48311975e+03"/>
    <Variable VarIndex="7" Expression="WJet1_Eta" Label="WJet1_Eta" Title="WJet1_Eta" Unit="" Internal="WJet1_Eta" Type="F" Min="-2.39999223e+00" Max="2.39999986e+00"/>
    <Variable VarIndex="8" Expression="WJet1_btag" Label="WJet1_btag" Title="WJet1_btag" Unit="" Internal="WJet1_btag" Type="F" Min="-3.00000000e+00" Max="9.99999285e-01"/>
    <Variable VarIndex="9" Expression="WJet2_Pt" Label="WJet2_Pt" Title="WJet2_Pt" Unit="" Internal="WJet2_Pt" Type="F" Min="2.50000038e+01" Max="1.33138428e+03"/>
    <Variable VarIndex="10" Expression="WJet2_Eta" Label="WJet2_Eta" Title="WJet2_Eta" Unit="" Internal="WJet2_Eta" Type="F" Min="-2.39999771e+00" Max="2.39999986e+00"/>
    <Variable VarIndex="11" Expression="WJet2_btag" Label="WJet2_btag" Title="WJet2_btag" Unit="" Internal="WJet2_btag" Type="F" Min="-3.00000000e+00" Max="9.99999285e-01"/>
    <Variable VarIndex="12" Expression="M1" Label="M1" Title="M1" Unit="" Internal="M1" Type="F" Min="1.13722343e+02" Max="3.91974365e+03"/>
    <Variable VarIndex="13" Expression="M2" Label="M2" Title="M2" Unit="" Internal="M2" Type="F" Min="3.17638607e+01" Max="5.18586279e+03"/>
    <Variable VarIndex="14" Expression="MW" Label="MW" Title="MW" Unit="" Internal="MW" Type="F" Min="1.29273796e+01" Max="4.89380176e+03"/>
    <Variable VarIndex="15" Expression="dR_qH" Label="dR_qH" Title="dR_qH" Unit="" Internal="dR_qH" Type="F" Min="3.78714106e-03" Max="9.58002186e+00"/>
    <Variable VarIndex="16" Expression="dR_bW" Label="dR_bW" Title="dR_bW" Unit="" Internal="dR_bW" Type="F" Min="1.43617904e-03" Max="1.01636105e+01"/>
    <Variable VarIndex="17" Expression="dR_tt" Label="dR_tt" Title="dR_tt" Unit="" Internal="dR_tt" Type="F" Min="1.68808154e-03" Max="1.08948832e+01"/>
    <Variable VarIndex="18" Expression="dR_qq" Label="dR_qq" Title="dR_qq" Unit="" Internal="dR_qq" Type="F" Min="3.85853231e-01" Max="5.67123461e+00"/>
  </Variables>
  <Spectators NSpec="0"/>
  <Classes NClass="2">
    <Class Name="Signal" Index="0"/>
    <Class Name="Background" Index="1"/>
  </Classes>
  <Transformations NTransformations="1">
    <Transform Name="Normalize">
      <Selection>
        <Input NInputs="19">
          <Input Type="Variable" Label="bJet_Pt" Expression="bJet_Pt"/>
          <Input Type="Variable" Label="bJet_Eta" Expression="bJet_Eta"/>
          <Input Type="Variable" Label="bJet_btag" Expression="bJet_btag"/>
          <Input Type="Variable" Label="M1Jet_Pt" Expression="M1Jet_Pt"/>
          <Input Type="Variable" Label="M1Jet_Eta" Expression="M1Jet_Eta"/>
          <Input Type="Variable" Label="M1Jet_btag" Expression="M1Jet_btag"/>
          <Input Type="Variable" Label="WJet1_Pt" Expression="WJet1_Pt"/>
          <Input Type="Variable" Label="WJet1_Eta" Expression="WJet1_Eta"/>
          <Input Type="Variable" Label="WJet1_btag" Expression="WJet1_btag"/>
          <Input Type="Variable" Label="WJet2_Pt" Expression="WJet2_Pt"/>
          <Input Type="Variable" Label="WJet2_Eta" Expression="WJet2_Eta"/>
          <Input Type="Variable" Label="WJet2_btag" Expression="WJet2_btag"/>
          <Input Type="Variable" Label="M1" Expression="M1"/>
          <Input Type="Variable" Label="M2" Expression="M2"/>
          <Input Type="Variable" Label="MW" Expression="MW"/>
          <Input Type="Variable" Label="dR_qH" Expression="dR_qH"/>
          <Input Type="Variable" Label="dR_bW" Expression="dR_bW"/>
          <Input Type="Variable" Label="dR_tt" Expression="dR_tt"/>
          <Input Type="Variable" Label="dR_qq" Expression="dR_qq"/>
        </Input>
        <Output NOutputs="19">
          <Output Type="Variable" Label="bJet_Pt" Expression="bJet_Pt"/>
          <Output Type="Variable" Label="bJet_Eta" Expression="bJet_Eta"/>
          <Output Type="Variable" Label="bJet_btag" Expression="bJet_btag"/>
          <Output Type="Variable" Label="M1Jet_Pt" Expression="M1Jet_Pt"/>
          <Output Type="Variable" Label="M1Jet_Eta" Expression="M1Jet_Eta"/>
          <Output Type="Variable" Label="M1Jet_btag" Expression="M1Jet_btag"/>
          <Output Type="Variable" Label="WJet1_Pt" Expression="WJet1_Pt"/>
          <Output Type="Variable" Label="WJet1_Eta" Expression="WJet1_Eta"/>
          <Output Type="Variable" Label="WJet1_btag" Expression="WJet1_btag"/>
          <Output Type="Variable" Label="WJet2_Pt" Expression="WJet2_Pt"/>
          <Output Type="Variable" Label="WJet2_Eta" Expression="WJet2_Eta"/>
          <Output Type="Variable" Label="WJet2_btag" Expression="WJet2_btag"/>
          <Output Type="Variable" Label="M1" Expression="M1"/>
          <Output Type="Variable" Label="M2" Expression="M2"/>
          <Output Type="Variable" Label="MW" Expression="MW"/>
          <Output Type="Variable" Label="dR_qH" Expression="dR_qH"/>
          <Output Type="Variable" Label="dR_bW" Expression="dR_bW"/>
          <Output Type="Variable" Label="dR_tt" Expression="dR_tt"/>
          <Output Type="Variable" Label="dR_qq" Expression="dR_qq"/>
        </Output>
      </Selection>
      <Class ClassIndex="0">
        <Ranges>
          <Range Index="0" Min="2.5000310897827148e+01" Max="9.3308380126953125e+02"/>
          <Range Index="1" Min="-2.3998787403106689e+00" Max="2.3996939659118652e+00"/>
          <Range Index="2" Min="-3.0000000000000000e+00" Max="9.9999892711639404e-01"/>
          <Range Index="3" Min="2.5000141143798828e+01" Max="5.5122015380859375e+02"/>
          <Range Index="4" Min="-2.3989610671997070e+00" Max="2.3999156951904297e+00"/>
          <Range Index="5" Min="-3.0000000000000000e+00" Max="9.9993968009948730e-01"/>
          <Range Index="6" Min="2.5011766433715820e+01" Max="1.0971831054687500e+03"/>
          <Range Index="7" Min="-2.3999569416046143e+00" Max="2.3997781276702881e+00"/>
          <Range Index="8" Min="-3.0000000000000000e+00" Max="9.9998217821121216e-01"/>
          <Range Index="9" Min="2.5000112533569336e+01" Max="2.2636117553710938e+02"/>
          <Range Index="10" Min="-2.3999717235565186e+00" Max="2.3998982906341553e+00"/>
          <Range Index="11" Min="-3.0000000000000000e+00" Max="9.9998545646667480e-01"/>
          <Range Index="12" Min="1.1658569335937500e+02" Max="1.1029841308593750e+03"/>
          <Range Index="13" Min="6.2077033996582031e+01" Max="1.1490120849609375e+03"/>
          <Range Index="14" Min="2.4614131927490234e+01" Max="7.1296093750000000e+02"/>
          <Range Index="15" Min="1.2614464387297630e-02" Max="7.2062807083129883e+00"/>
          <Range Index="16" Min="9.0515948832035065e-03" Max="6.9106249809265137e+00"/>
          <Range Index="17" Min="1.2072400189936161e-02" Max="9.3252315521240234e+00"/>
          <Range Index="18" Min="3.9971047639846802e-01" Max="4.7967901229858398e+00"/>
        </Ranges>
      </Class>
      <Class ClassIndex="1">
        <Ranges>
          <Range Index="0" Min="2.5000003814697266e+01" Max="1.4831197509765625e+03"/>
          <Range Index="1" Min="-2.3999977111816406e+00" Max="2.3999998569488525e+00"/>
          <Range Index="2" Min="-3.0000000000000000e+00" Max="9.9999928474426270e-01"/>
          <Range Index="3" Min="2.5000003814697266e+01" Max="1.4831197509765625e+03"/>
          <Range Index="4" Min="-2.3999922275543213e+00" Max="2.3999998569488525e+00"/>
          <Range Index="5" Min="-3.0000000000000000e+00" Max="9.9999928474426270e-01"/>
          <Range Index="6" Min="2.5000083923339844e+01" Max="1.4831197509765625e+03"/>
          <Range Index="7" Min="-2.3999922275543213e+00" Max="2.3999998569488525e+00"/>
          <Range Index="8" Min="-3.0000000000000000e+00" Max="9.9999928474426270e-01"/>
          <Range Index="9" Min="2.5000003814697266e+01" Max="1.3313842773437500e+03"/>
          <Range Index="10" Min="-2.3999977111816406e+00" Max="2.3999998569488525e+00"/>
          <Range Index="11" Min="-3.0000000000000000e+00" Max="9.9999928474426270e-01"/>
          <Range Index="12" Min="1.1372234344482422e+02" Max="3.9197436523437500e+03"/>
          <Range Index="13" Min="3.1763860702514648e+01" Max="5.1858627929687500e+03"/>
          <Range Index="14" Min="1.2927379608154297e+01" Max="4.8938017578125000e+03"/>
          <Range Index="15" Min="3.7871410604566336e-03" Max="9.5800218582153320e+00"/>
          <Range Index="16" Min="1.4361790381371975e-03" Max="1.0163610458374023e+01"/>
          <Range Index="17" Min="1.6880815383046865e-03" Max="1.0894883155822754e+01"/>
          <Range Index="18" Min="3.8585323095321655e-01" Max="5.6712346076965332e+00"/>
        </Ranges>
      </Class>
      <Class ClassIndex="2">
        <Ranges>
          <Range Index="0" Min="2.5000003814697266e+01" Max="1.4831197509765625e+03"/>
          <Range Index="1" Min="-2.3999977111816406e+00" Max="2.3999998569488525e+00"/>
          <Range Index="2" Min="-3.0000000000000000e+00" Max="9.9999928474426270e-01"/>
          <Range Index="3" Min="2.5000003814697266e+01" Max="1.4831197509765625e+03"/>
          <Range Index="4" Min="-2.3999922275543213e+00" Max="2.3999998569488525e+00"/>
          <Range Index="5" Min="-3.0000000000000000e+00" Max="9.9999928474426270e-01"/>
          <Range Index="6" Min="2.5000083923339844e+01" Max="1.4831197509765625e+03"/>
          <Range Index="7" Min="-2.3999922275543213e+00" Max="2.3999998569488525e+00"/>
          <Range Index="8" Min="-3.0000000000000000e+00" Max="9.9999928474426270e-01"/>
          <Range Index="9" Min="2.5000003814697266e+01" Max="1.3313842773437500e+03"/>
          <Range Index="10" Min="-2.3999977111816406e+00" Max="2.3999998569488525e+00"/>
          <Range Index="11" Min="-3.0000000000000000e+00" Max="9.9999928474426270e-01"/>
          <Range Index="12" Min="1.1372234344482422e+02" Max="3.9197436523437500e+03"/>
          <Range Index="13" Min="3.1763860702514648e+01" Max="5.1858627929687500e+03"/>
          <Range Index="14" Min="1.2927379608154297e+01" Max="4.8938017578125000e+03"/>
          <Range Index="15" Min="3.7871410604566336e-03" Max="9.5800218582153320e+00"/>
          <Range Index="16" Min="1.4361790381371975e-03" Max="1.0163610458374023e+01"/>
          <Range Index="17" Min="1.6880815383046865e-03" Max="1.0894883155822754e+01"/>
          <Range Index="18" Min="3.8585323095321655e-01" Max="5.6712346076965332e+00"/>
        </Ranges>
      </Class>
    </Transform>
  </Transformations>
  <MVAPdfs/>
  <Weights>
    <Layout NLayers="4">
      <Layer Index="0" NNeurons="20">
        <Neuron NSynapses="19">
          -6.2020078337917328e-01 3.5655925867019076e+00 8.1854238467033602e-01 1.5912588412280339e+01 5.0831030790333309e-01 -1.8724246169938181e+00 1.1505366361538423e+00 8.1648024770226630e+00 -7.2397538345194945e-01 -3.5341196417796683e-01 -8.7424061890627314e-01 -2.2313256040501503e+00 -2.0408479727126236e+00 3.9279521695599307e-01 -1.0240472837658685e+00 2.4960410152160182e+00 -7.8172915221706885e-01 -7.9348570511299499e-01 -3.8477678067729917e+00 
        </Neuron>
        <Neuron NSynapses="19">
          1.3531314811075135e+00 -7.9844529404129463e-02 -8.9276575007613745e-01 2.4262594807114672e-02 5.2281215903676875e-02 -4.7128670001024711e+00 3.4112089408306111e-03 3.0971391409703680e-01 1.1696943689926262e-01 -3.9132994489369960e-01 -1.4836095070373144e-02 -1.3475267335886168e-01 1.6629339660347282e+00 2.1152690721144707e-01 -1.3721986992034452e-01 1.3090371356477212e-01 1.1303288069706922e-01 -5.9640473431500207e-01 4.8106031112075653e+00 
        </Neuron>
        <Neuron NSynapses="19">
          -9.5002693772914559e-01 2.2909042476296226e-01 1.2856279121587235e+00 -3.4497663851256177e-01 2.7383876921682507e+01 6.1744361408564763e-01 -5.0598965167076555e+00 -1.5148985873286387e+00 -1.0975543638918964e-01 -1.0692293671578474e+00 2.3436146676356520e-01 1.3867514746841156e-01 -1.1462554808911547e-01 2.8123559576573620e+00 -1.2778752696628410e+00 1.6699413021469486e-01 3.1928535802708297e-02 -2.6577795259805916e+00 2.1789354584410555e-02 
        </Neuron>
        <Neuron NSynapses="19">
          -2.0622207675541344e+00 -8.0957278837462621e-01 4.9457841748597026e-01 5.3032896716634426e+00 2.6803821919642740e-01 -3.0955910516791579e-01 2.2676744689346866e+00 2.3542927618669842e+00 -1.2347045210870790e-01 -5.4563261566422057e+00 5.3792887175770323e+00 3.5550672332295315e-02 -9.6322124587609592e-01 9.5382076621418599e-01 -1.8386802852798860e+00 -1.5290026310071587e+00 -5.2460121361184360e+00 8.6898391504827788e-01 -2.4365232062705302e+00 
        </Neuron>
        <Neuron NSynapses="19">
          -1.7680424344619188e+00 -1.4272062919321154e-02 2.0357289643123946e+00 -3.6050483641389096e-02 -9.0994501206585858e-03 -1.4866816269563934e-01 -3.7344659767584214e-02 -2.4007031247725874e-01 -4.1960807850702088e-02 -6.5565471312415774e-02 5.5158423101471850e-02 -1.1612002084191708e-01 -4.6808948346503110e-01 6.7824702051335853e-02 -1.4487750703472155e-01 3.2515818599338227e-02 -8.7596236174936667e-03 -2.2341642808408183e-02 2.6142771102829110e-01 
        </Neuron>
        <Neuron NSynapses="19">
          1.7745366078983715e+00 7.6899333051519780e-01 -1.1900999010197357e+00 -6.4376016221389087e-01 1.2315681805971004e+00 -3.5613347841246092e+00 -1.1124525892164072e+00 -6.5356048439787107e-01 -2.9136021781559629e-01 -5.5863441155653710e+00 1.3922550720723936e+00 -1.6741955788246787e+00 -1.6396019919339593e+00 -4.1822575190844424e-02 5.7324956216238032e-01 5.2472537403748083e-02 -1.6080110846420212e-01 8.0101674242751226e+00 -1.0751345646951103e+00 
        </Neuron>
        <Neuron NSynapses="19">
          -1.6969094731757222e+00 1.6399650438913838e+00 3.4808948642727555e-01 -2.6781555805809929e+00 1.5692890298323527e+00 1.4854097398798805e+00 -9.4441319764991496e-02 -6.5505348040160516e-01 -1.9642000770867558e+00 8.3852827663076845e-01 8.8586705734248010e+00 6.1447622998705398e-01 -1.0811928476190041e-02 8.8165185012073910e-01 -2.1739212760364364e+00 3.0631500519727242e+00 -1.6092125140445184e+00 -2.4559321162563141e+00 1.1353506605299661e+00 
        </Neuron>
        <Neuron NSynapses="19">
          -1.2545327145692664e+00 4.9608061419035482e-02 1.2628266528199943e+00 -2.2644869332577136e-01 -7.2076001868731504e-03 2.6700991887263168e+00 2.1894300263735039e-01 -1.3208544493361021e-01 -1.2259336374320777e-01 1.7270338298852170e+00 3.9385961049507889e-01 -3.4832665724618099e+00 9.1709093210663978e-02 2.9653325106941413e+00 -4.0451476511670376e-01 1.4628567469210818e-01 -6.6722518331658473e-02 8.1656570702216646e-01 -2.1559520743641216e+00 
        </Neuron>
        <Neuron NSynapses="19">
          1.8619044712399360e+00 -1.2853984238250833e+00 -4.9579422313267618e-01 -1.0312669293120060e+00 8.2689756276827231e-01 3.1382626403593855e-01 1.0213152564592782e+01 7.3133165920178000e-01 -1.7469185288926681e-01 -6.4992904534980300e-01 -6.1074423669793532e-01 -4.9262871507573663e-01 -1.8924206565176771e-01 -8.8945721629711960e-01 -3.5018797155367631e-01 2.6857242610353499e-01 3.8440267448208121e-01 -3.6453685726060520e-01 1.4995552009688355e+00 
        </Neuron>
        <Neuron NSynapses="19">
          7.0579734120106097e-01 -2.1578451563977175e+00 1.3498299501478563e+00 -1.0575376557167786e+01 4.7515145886101271e+00 3.1538517955928502e+00 8.7741246063797762e-01 1.3878320919873877e+00 -1.5914665043644660e+00 -1.9189675108261259e-01 1.6808756738801517e+01 3.2996999871785810e+00 -1.7036060750955868e+00 -9.2321310002275647e-01 -1.0052927479094793e+00 4.0761925516999638e+00 -2.7670225952372944e+00 -3.3095582747261592e+00 8.2341951813929193e-01 
        </Neuron>
        <Neuron NSynapses="19">
          -8.9145245530832451e-01 -2.4467860870761492e-02 1.8639007415404312e+00 1.0406862490821836e-01 -2.8494838864882088e-02 1.8572380880919177e+00 -1.2381686155670328e-01 1.6179021922815975e-01 5.9810962791838923e-02 -1.4846239384549011e+00 -4.4871625434920143e-01 3.3175936475322141e+00 -1.3223064845801814e-02 -2.9328496225878813e+00 1.3515181472805167e+00 -2.2141785050854637e-01 4.8016583284821952e-02 -3.6323028600310348e-01 -2.1060126834390149e+00 
        </Neuron>
        <Neuron NSynapses="19">
          1.2080706378361363e+00 -7.5293131409260000e-02 -7.4139519756961397e-02 -4.2093978775794844e-01 1.0008563078215518e+00 2.0290176900893575e-01 9.4662719977534593e+00 5.1767293615323418e-01 2.6033759331188605e-01 -1.2735672988327892e-02 5.8922174678115204e-02 -1.0368271212514424e+00 6.1657691919871593e-01 -1.8022728548575506e+00 1.1927587979064165e+00 3.9496883585533736e-02 -4.7342364323402282e-02 -6.1467772836668433e-01 4.7201311323286221e-01 
        </Neuron>
        <Neuron NSynapses="19">
          -2.0073067717853492e+00 2.8226369619315389e-01 9.4494689655893149e-01 -2.0122899797661347e+01 -9.4828047485129119e-01 -6.8794619993606156e+00 6.5081366752974192e+00 -5.2580651711333104e+00 1.7159832672006761e+00 8.3142764176208388e+00 -3.7726784324254837e+01 3.3411291529582149e-01 -1.6065096518539175e+00 -3.7389005225570253e+00 -2.2735255285557718e+00 4.9507759389055789e-01 -2.8649435087638757e+01 1.0220073898778109e+01 6.3879762664074562e+00 
        </Neuron>
        <Neuron NSynapses="19">
          -1.8644954603767527e+00 -1.7307322723226231e+00 -9.9307583030429003e-01 5.5452969960403076e+00 -4.9734214964655017e+00 -6.0169541449922335e+00 5.0253526051391075e+00 -4.6929768168766123e-01 -2.7992036659355395e+00 2.2758198555335882e+00 -6.8950544217674574e+00 6.3024466210566821e-01 -1.3113593358010138e+00 -9.5167382626346797e-01 -1.0063699532384879e-01 2.7157344824002358e+01 -1.1508929193717090e+00 5.2453343344269312e+00 1.6121977061925750e+00 
        </Neuron>
        <Neuron NSynapses="19">
          -2.2295795540976813e+00 4.4557301247697678e+00 1.0547051530980422e+00 -1.2167689474993727e+01 -1.9179179773654553e-01 9.1347351346641581e-01 1.0330201572397182e+00 -1.6464224279349076e+00 2.1447724432252393e+00 1.5602985012217163e+00 1.0384412802026718e+01 2.2554205558016651e+00 1.2944149603422457e+00 -7.7874809915213983e-01 -1.8337184198060547e-01 -1.3779507871485852e+00 4.8391367504889722e+00 1.2700408466522412e-01 1.4917535778307731e+00 
        </Neuron>
        <Neuron NSynapses="19">
          -1.5310497307601609e+00 1.4074130621814678e+00 1.5598441373134169e+00 1.3150796404882081e+00 7.0163142884126528e-01 3.5792518858806022e-01 1.7177606804916537e-01 -1.5664574888169345e+00 -5.6733067908010082e-01 1.6763417052194574e+00 8.5007349311109159e-01 3.3175736833630856e-02 1.0078118498871891e+00 -2.7575558392881074e+00 -1.6626516746746685e+00 -3.4394701009104856e-01 -1.0735637658661181e+00 5.3344360135315716e-01 -4.4534134219473431e-01 
        </Neuron>
        <Neuron NSynapses="19">
          1.3816979574052693e-01 -8.3648739716229432e+00 -1.7011052068076851e+00 2.1051761176006889e+00 -1.0061189858368931e-02 1.7662335849220929e+00 4.8128140258327956e-01 -4.2751402297745633e+00 4.0957296548009520e-01 -1.4873756184591755e-01 4.7216676501747046e-01 -4.5181436960067844e-01 1.5549063693976988e+00 -3.6821505614494460e-01 1.1299427766983878e+00 3.7898011481250304e-01 -1.4554783475092564e-01 -4.9255715094401720e-01 1.5132989531814807e+00 
        </Neuron>
        <Neuron NSynapses="19">
          -1.3259857058378730e+00 -3.0137465891926624e-01 1.6473849852513907e+00 1.1411354849530297e-01 2.1209403321649212e-01 -1.2715235273994112e+00 5.6457175428823447e-01 1.9286283778262179e+00 2.3149595677818455e-01 -1.1743609816676011e+00 3.8509357889674317e-01 3.6731779292452860e-01 2.4790141617480970e+00 1.2148989701728801e+00 8.6107595143121052e-01 -1.1006738623113407e-01 -1.7079470850620573e-01 -3.0386834017108599e-01 -7.0950036049396614e-01 
        </Neuron>
        <Neuron NSynapses="19">
          1.7687112282408306e+00 -2.5050343005708546e+00 -3.3053837668217362e-01 -2.0452128454169025e+00 2.5092153185537502e-01 -1.1756244985063558e+00 -8.3484436055722555e-01 1.3641350076852758e+00 5.7379824842905744e+00 5.1882369420425478e-01 6.7207130704289275e-01 8.2330919812242387e-01 -2.6761036798384136e-01 7.3805619743984152e-01 -1.7273925143260718e+00 -3.2942710008608095e-01 -1.1285260367721915e-01 3.0751779182703559e-01 -1.0157036240211197e+00 
        </Neuron>
        <Neuron NSynapses="19">
          -1.3832169757482049e+00 -3.1793101351846347e+00 -1.4877899035106017e+00 -1.6255793092927103e+01 -1.2230991918072462e+01 -4.5160027605316442e+00 5.2699737844951162e+00 6.7580947470394126e-01 1.8569445195732586e+00 1.0232311802117595e+01 -2.8922306891511385e+00 3.9910079429635896e+00 1.5960654774136172e+00 -4.5235194042875344e+00 7.7361177451447705e-01 3.2299988520454860e+01 -3.5676631960771694e+01 3.7175452511640081e+00 7.6077611090208279e+00 
        </Neuron>
      </Layer>
      <Layer Index="1" NNeurons="20">
        <Neuron NSynapses="18">
          -7.3584244199647142e-01 -1.5047840426073347e+00 -1.8439696997543977e+00 -4.1340180720471825e-01 -1.5669595244991701e+00 4.6003576106280875e-01 9.3380971050906891e-01 8.2482002537912857e-01 1.7451652323784710e+00 -5.3054691767516304e-01 1.5030910007019171e+00 -6.6943154000651206e-01 -2.6540985633716327e+00 -2.6768215057807359e+00 -1.9204185684190924e+00 1.3880277162131636e+00 5.3583120472650858e+00 -1.0830900579475064e-01 
        </Neuron>
        <Neuron NSynapses="18">
          1.4797940201626352e+00 5.0957598953276295e-01 2.1370514903901863e+00 5.5187374256087693e+00 3.8455072404660431e+00 -6.0793491553409074e-01 1.6891100622060482e+00 -8.0819238278354077e-01 5.5636392327417639e-01 2.6669941174461305e+00 -3.8385559648227123e+00 -3.3383467055350530e-01 -2.3490565836374704e+00 7.7731255236776620e-01 2.2900193711078050e+00 2.3221577117051573e+00 -1.0676267426946637e+00 -1.7524694034044919e+00 
        </Neuron>
        <Neuron NSynapses="18">
          1.7093715557290985e+00 1.1908411765160032e+00 1.6977489552293465e+00 -1.9174187077679058e-01 -3.0567921049266755e-01 6.0897914904973083e-01 1.8517219562206872e+00 -2.0993931811293973e+00 -1.3033036042223749e+00 -5.4737383840231890e-01 -1.3653141390220751e+00 -2.1484989075248562e+00 -1.5027786403490233e+00 6.3135575755747253e-01 2.4267040317811653e-01 -1.7500573289039967e+00 -1.6535126674966967e+00 -1.9439622759878752e-01 
        </Neuron>
        <Neuron NSynapses="18">
          2.3349900938119115e+00 2.5123992215072506e+00 1.2061149281886194e+00 -4.5655238353364060e+00 -4.3320071995762843e+00 3.7520561119010248e-01 -1.4358162017474734e+00 -2.2638683473282337e+00 -6.0482165435665558e-01 -3.1057618959002169e+00 -7.1039664626236521e+00 -2.4649443263284421e+00 3.8816258225549087e+00 -2.9695274790257606e+00 -1.5754331856619888e-01 -3.5406296692966519e+00 3.9559090635567054e+00 2.9172491060922230e+00 
        </Neuron>
        <Neuron NSynapses="18">
          3.4758924646748623e-01 3.6946144635941374e+00 -7.6354057936107989e-01 4.5892339707758438e+00 -1.5536729371132216e+00 -1.7817133239338845e+00 1.4718650233443917e+00 4.5066665354149960e+00 -1.9119586692481544e-01 -7.3655356324535393e-01 -7.4209953081737878e-01 -4.3101328905425040e-01 4.9540024435281707e+00 3.5083373625250576e+00 -3.0807889997204607e+00 1.5400980687524709e-03 1.1450104427190440e+00 4.3229032137735168e-01 
        </Neuron>
        <Neuron NSynapses="18">
          6.7239763396142638e-01 -6.1461997502592192e-01 -2.6112942647326740e+00 2.5063011632773273e+00 2.1581411501664931e+00 -9.7588797848994968e-01 -4.0278486289248550e-01 -1.4696189541777478e+00 1.1369129059456642e+00 1.0313117963628273e+00 -2.0682826894425017e+00 6.5323941964709231e-01 1.1031078517234745e+00 2.2609941230976425e+00 1.3330901560053650e+00 4.7480634925568882e-01 -1.6968926720108612e+00 -1.6930820381934879e+00 
        </Neuron>
        <Neuron NSynapses="18">
          1.3354857782640477e+00 5.6555290751206355e-01 -6.5393200098900583e-01 -9.5859929216791739e-01 -7.8621046911055037e-01 -1.6320774331689143e+00 -3.1333314696934550e-01 -3.9395415025975566e+00 8.1168892759215183e-01 -4.1601627376897443e-01 1.3485010882976417e-01 -1.8138262302347712e+00 -5.2472585132670320e+00 5.1198999293836056e-01 3.3373490419594809e+00 -2.1130788738654985e-01 -1.6064760512008660e+00 1.3623786580520078e-01 
        </Neuron>
        <Neuron NSynapses="18">
          1.6903245006205390e+00 -8.3847722608592334e-01 1.7039623028986093e+00 1.5403336687314857e+00 2.8586033561473547e+00 -6.1001838361294825e-01 2.9156419312288245e-01 1.0288574502617671e+00 5.4508841288734144e-01 -2.4721351405386911e+00 -1.8039058679856042e+00 3.0978676290313856e-01 -1.9857144584197957e+00 4.7770492817507205e-02 -1.5870761783948048e-01 -1.6652094227181107e+00 -1.2343786536509773e+00 -3.7456042400170788e+00 
        </Neuron>
        <Neuron NSynapses="18">
          9.0494885278932646e-01 6.0804130844743776e-01 2.1557800926639135e+00 2.8104539580125838e+00 7.1833366983991507e+00 -4.5805106221228291e+00 -8.4739677221867205e-01 -1.2357425336711614e+00 6.8112507667549615e-01 1.0635686003656619e+00 -2.4089704574691154e-01 3.1342238779064195e+00 -1.5969700800419422e+00 -3.4552585492836814e+00 1.0922466995305380e+00 -7.7552040708313508e-01 -7.9600237194843917e+00 6.6063220848843307e-01 
        </Neuron>
        <Neuron NSynapses="18">
          -1.4034042467443830e-01 -1.0541186129085667e+00 -1.9934052667311219e-01 -1.6582439181033221e-01 1.0574572952173128e-01 -1.0016335954053474e-01 1.9068644860301684e+00 -2.6609995817967738e+00 7.8859550798069444e-01 1.5125002986242162e+00 1.2053689752977539e+00 4.7605739857289259e-01 -1.7356521108337839e+00 -1.4049251256586839e+00 1.6879364141162114e+00 -7.4765133775809045e-01 -1.5783087554931938e+00 4.5741891250331177e-03 
        </Neuron>
        <Neuron NSynapses="18">
          1.8028962935690971e+00 5.5309852384456661e+00 3.4807144543584503e+00 3.0202794429718804e+00 2.4917660053743584e+00 1.6039714518491124e+00 -1.0508784568351404e+00 -1.8750512868174252e+00 -9.5716477483239515e-01 -3.3977201087174120e+00 2.1688944813404651e+00 1.4042282914385804e+00 1.5991090946052893e+00 6.2043768875335505e+00 5.0646618690177982e+00 -7.1279031477577490e+00 -5.3085160184775546e+00 -3.7150833155429228e+00 
        </Neuron>
        <Neuron NSynapses="18">
          6.8315268848832700e-01 -3.8317792809702017e-01 2.1397934867783930e-01 1.4193440085796232e+00 3.6771305094871071e-01 -2.0843702662899957e+00 2.1825422531505251e-01 -7.1215246895108686e-01 -8.5033731429244447e-02 1.0087054772735200e+00 4.4813282714972057e-02 2.5821436091621974e+00 -1.9805825643183768e+00 -5.2142811201071074e-02 1.6158135629857566e+00 -2.7285213049958057e-01 -4.2096037946667435e+00 -1.0721688778583935e+00 
        </Neuron>
        <Neuron NSynapses="18">
          2.1552024247554868e+00 -2.5689708362860872e+00 -1.4222454785932421e+00 -3.1982640985349247e+00 -5.8365114526734263e-01 1.8824583448710659e+00 1.3482236951433038e+00 -1.6024147140284788e+00 8.6551524804416580e-01 1.6904378495393324e+00 1.3588331498595993e-01 -2.5814653544993043e+00 -2.0099122283650366e+00 -2.1655711866225400e+00 -8.3517113209338867e-01 2.4331288096429273e+00 3.5059661781393530e+00 -8.9183716159624882e-01 
        </Neuron>
        <Neuron NSynapses="18">
          -9.6227015310508301e-01 -1.3418674847563231e-01 -1.2824864607131887e+00 5.8728818067422905e-01 -8.2273926069120906e-01 -3.6995160930686333e-01 1.5826071662036174e+00 1.1246484644045958e+00 1.6438032071774866e+00 -8.6236054249348670e-01 -6.5357585294132903e-01 -5.2330855982425983e-01 -5.9766853484505955e-01 -3.6089237157035364e-01 -9.5204681436741823e-01 4.8668834592257898e-01 4.7640772715664487e-01 2.7961781991602186e-01 
        </Neuron>
        <Neuron NSynapses="18">
          1.1227797429488653e+00 -2.7132305345912346e+00 -1.2860034282404651e+00 -1.3072763488284032e+00 -3.5503854736333058e+00 1.0649132382729767e+00 1.2517648150991803e+00 -1.9008968986636634e+00 -2.2267027450515750e-01 -5.7041057807118700e-01 2.3462164298877855e-01 -9.8305543887488800e-01 -1.7427863880514698e+00 -3.0742085153781109e+00 -2.4507604754614620e+00 2.0295952732336882e+00 5.0043673857775630e+00 1.4286245448043489e-02 
        </Neuron>
        <Neuron NSynapses="18">
          -1.9958054799078587e-01 -3.9293459368555355e+00 -1.9474635605445219e+00 -8.3206545621618986e+00 -3.2650335656322946e+00 -8.1852050607518800e-01 3.6909478589665402e-02 4.7686955583404039e-01 5.0226938502538876e-01 -1.2830220289355292e+00 -2.9202553923878289e+00 8.5829679272525770e+00 1.7419041714222452e+00 -8.1223181998930893e-01 -3.5024747105482659e+00 6.5375383025607570e-01 -9.5802099555821307e+00 1.3213607371595166e+00 
        </Neuron>
        <Neuron NSynapses="18">
          1.4929380580612488e+00 1.5133129819158162e+01 -2.7295090831922093e+00 -6.6761806056495776e-01 2.6316714398900815e-01 1.9629216932825206e+00 1.4310731139075097e+00 -1.7500439435390835e+00 1.4190006774667943e+00 -2.4613372448902777e+00 -2.3311984846213925e+00 -2.7033303734900676e+00 2.2294400276359583e+00 -2.8831868060566288e+00 9.5343027303814551e+00 -1.4301446593986974e+01 2.2156255700020964e+00 8.6817068380387497e+00 
        </Neuron>
        <Neuron NSynapses="18">
          1.3716600265132550e+00 -1.5846927955218735e+00 1.4240277815762581e+00 -1.0569860294348836e+00 5.3638597050202352e-01 2.1386236667588912e+00 8.1839574483559063e-01 -2.4451017161966968e+00 6.5834439511943987e-01 6.7766882158147423e-01 2.5387090944357640e+00 9.0569377483172697e-01 -3.9744395465310234e+00 -2.3396185220928611e+00 1.7456745724234726e+00 2.1927154866856045e+00 1.7841162729209192e+00 1.8951004737325909e+00 
        </Neuron>
        <Neuron NSynapses="18">
          -7.5417681301448403e-01 -2.8478779840610413e-01 -4.8139224239468821e-02 3.3967862995648566e+00 2.5350777068793326e+00 -3.4398523142408155e-02 -7.7205513824110172e-01 -5.0151632121988843e-01 1.1112083402649409e+00 1.7746265458099428e+00 1.4659681988128868e+00 -2.8283814851085737e-01 8.6036468008627697e-03 1.0892827002442740e+00 6.1721369129611003e-01 1.8053653939275334e+00 -1.7796818253474758e+00 -2.1866965910145151e+00 
        </Neuron>
        <Neuron NSynapses="18">
          -1.2162854565606884e+00 -1.4477678346388012e+00 1.5030354657055376e+00 -1.1348132486648785e+00 -2.3161274400590810e+00 1.8603891027450328e-02 1.7440344540385275e+00 1.7324130530173720e+00 6.6077617069869965e-01 -3.7653368056721409e-01 1.7682135631007139e+00 5.2689190157256449e-01 -5.7456218402908399e-01 -1.8127627892629201e+00 -7.5332761378626611e-01 1.7518734172988726e+00 3.3980200990171974e+00 -1.2825668443643805e+00 
        </Neuron>
      </Layer>
      <Layer Index="2" NNeurons="19">
        <Neuron NSynapses="1">
          -2.7325831763995945e+00 
        </Neuron>
        <Neuron NSynapses="1">
          2.6144100159594363e+00 
        </Neuron>
        <Neuron NSynapses="1">
          -2.9117877379105708e+00 
        </Neuron>
        <Neuron NSynapses="1">
          6.6701580428987475e+00 
        </Neuron>
        <Neuron NSynapses="1">
          -3.4746176840922827e+00 
        </Neuron>
        <Neuron NSynapses="1">
          -4.6333491695102476e+00 
        </Neuron>
        <Neuron NSynapses="1">
          -1.6441457790997094e+00 
        </Neuron>
        <Neuron NSynapses="1">
          4.4036905522800609e+00 
        </Neuron>
        <Neuron NSynapses="1">
          -4.3550319189531637e+00 
        </Neuron>
        <Neuron NSynapses="1">
          -3.1857598306184713e+00 
        </Neuron>
        <Neuron NSynapses="1">
          -2.5652816308969171e+00 
        </Neuron>
        <Neuron NSynapses="1">
          6.8172820980719120e+00 
        </Neuron>
        <Neuron NSynapses="1">
          1.9019893287628629e+00 
        </Neuron>
        <Neuron NSynapses="1">
          4.5255576199302672e+00 
        </Neuron>
        <Neuron NSynapses="1">
          -4.3210768084585123e+00 
        </Neuron>
        <Neuron NSynapses="1">
          -3.6702925339165589e+00 
        </Neuron>
        <Neuron NSynapses="1">
          4.3742976493734531e+00 
        </Neuron>
        <Neuron NSynapses="1">
          -4.8311904301095625e+00 
        </Neuron>
        <Neuron NSynapses="1">
          -3.7777006689691781e+00 
        </Neuron>
      </Layer>
      <Layer Index="3" NNeurons="1">
        <Neuron NSynapses="0"/>
      </Layer>
    </Layout>
  </Weights>
</MethodSetup>
