<?xml version="1.0"?>
<MethodSetup Method="MLP::ANN_v1">
  <GeneralInfo>
    <Info name="TMVA Release" value="4.2.1 [262657]"/>
    <Info name="ROOT Release" value="6.10/09 [395785]"/>
    <Info name="Creator" value="mc_cheng"/>
    <Info name="Date" value="Sat Aug 15 09:01:34 2020"/>
    <Info name="Host" value="Linux cmsbuild76.cern.ch 2.6.32-696.30.1.el6.x86_64 #1 SMP Tue May 22 06:09:36 CEST 2018 x86_64 x86_64 x86_64 GNU/Linux"/>
    <Info name="Dir" value="/wk_cms2/mc_cheng/public/tqHGG/2017/MVAreco_train"/>
    <Info name="Training events" value="1540364"/>
    <Info name="TrainingTime" value="3.18405117e+04"/>
    <Info name="AnalysisType" value="Classification"/>
  </GeneralInfo>
  <Options>
    <Option name="NCycles" modified="No">500</Option>
    <Option name="HiddenLayers" modified="No">N,N-1</Option>
    <Option name="NeuronType" modified="No">sigmoid</Option>
    <Option name="RandomSeed" modified="No">1</Option>
    <Option name="EstimatorType" modified="No">CE</Option>
    <Option name="NeuronInputType" modified="No">sum</Option>
    <Option name="V" modified="Yes">True</Option>
    <Option name="VerbosityLevel" modified="No">Verbose</Option>
    <Option name="VarTransform" modified="Yes">N</Option>
    <Option name="H" modified="Yes">True</Option>
    <Option name="CreateMVAPdfs" modified="No">False</Option>
    <Option name="IgnoreNegWeightsInTraining" modified="Yes">True</Option>
    <Option name="TrainingMethod" modified="No">BP</Option>
    <Option name="LearningRate" modified="No">2.000000e-02</Option>
    <Option name="DecayRate" modified="No">1.000000e-02</Option>
    <Option name="TestRate" modified="No">10</Option>
    <Option name="EpochMonitoring" modified="No">False</Option>
    <Option name="Sampling" modified="No">1.000000e+00</Option>
    <Option name="SamplingEpoch" modified="No">1.000000e+00</Option>
    <Option name="SamplingImportance" modified="No">1.000000e+00</Option>
    <Option name="SamplingTraining" modified="No">True</Option>
    <Option name="SamplingTesting" modified="No">False</Option>
    <Option name="ResetStep" modified="No">50</Option>
    <Option name="Tau" modified="No">3.000000e+00</Option>
    <Option name="BPMode" modified="No">sequential</Option>
    <Option name="BatchSize" modified="No">-1</Option>
    <Option name="ConvergenceImprove" modified="No">1.000000e-30</Option>
    <Option name="ConvergenceTests" modified="No">-1</Option>
    <Option name="UseRegulator" modified="No">False</Option>
    <Option name="UpdateLimit" modified="No">10000</Option>
    <Option name="CalculateErrors" modified="No">False</Option>
    <Option name="WeightRange" modified="No">1.000000e+00</Option>
  </Options>
  <Variables NVar="20">
    <Variable VarIndex="0" Expression="LeadPho_Pt" Label="LeadPho_Pt" Title="LeadPho_Pt" Unit="" Internal="LeadPho_Pt" Type="F" Min="3.50010681e+01" Max="1.52598047e+03"/>
    <Variable VarIndex="1" Expression="LeadPho_Eta" Label="LeadPho_Eta" Title="LeadPho_Eta" Unit="" Internal="LeadPho_Eta" Type="F" Min="-2.49998856e+00" Max="2.49999237e+00"/>
    <Variable VarIndex="2" Expression="LeadPho_Phi" Label="LeadPho_Phi" Title="LeadPho_Phi" Unit="" Internal="LeadPho_Phi" Type="F" Min="-3.14156890e+00" Max="3.14156604e+00"/>
    <Variable VarIndex="3" Expression="LeadPho_IDMVA" Label="LeadPho_IDMVA" Title="LeadPho_IDMVA" Unit="" Internal="LeadPho_IDMVA" Type="F" Min="-6.99989378e-01" Max="9.85081911e-01"/>
    <Variable VarIndex="4" Expression="SubleadPho_Pt" Label="SubleadPho_Pt" Title="SubleadPho_Pt" Unit="" Internal="SubleadPho_Pt" Type="F" Min="2.50000629e+01" Max="4.21146240e+02"/>
    <Variable VarIndex="5" Expression="SubleadPho_Eta" Label="SubleadPho_Eta" Title="SubleadPho_Eta" Unit="" Internal="SubleadPho_Eta" Type="F" Min="-2.49992585e+00" Max="2.49998808e+00"/>
    <Variable VarIndex="6" Expression="SubleadPho_Phi" Label="SubleadPho_Phi" Title="SubleadPho_Phi" Unit="" Internal="SubleadPho_Phi" Type="F" Min="-3.14157367e+00" Max="3.14155889e+00"/>
    <Variable VarIndex="7" Expression="SubleadPho_IDMVA" Label="SubleadPho_IDMVA" Title="SubleadPho_IDMVA" Unit="" Internal="SubleadPho_IDMVA" Type="F" Min="-6.99992061e-01" Max="9.83795404e-01"/>
    <Variable VarIndex="8" Expression="bJet_Pt" Label="bJet_Pt" Title="bJet_Pt" Unit="" Internal="bJet_Pt" Type="F" Min="2.50000420e+01" Max="1.85689282e+03"/>
    <Variable VarIndex="9" Expression="bJet_Eta" Label="bJet_Eta" Title="bJet_Eta" Unit="" Internal="bJet_Eta" Type="F" Min="-2.39995146e+00" Max="2.39998937e+00"/>
    <Variable VarIndex="10" Expression="bJet_Phi" Label="bJet_Phi" Title="bJet_Phi" Unit="" Internal="bJet_Phi" Type="F" Min="-3.14157653e+00" Max="3.14159012e+00"/>
    <Variable VarIndex="11" Expression="bJet_btag" Label="bJet_btag" Title="bJet_btag" Unit="" Internal="bJet_btag" Type="F" Min="-2.00000000e+00" Max="1.00000000e+00"/>
    <Variable VarIndex="12" Expression="M1Jet_Pt" Label="M1Jet_Pt" Title="M1Jet_Pt" Unit="" Internal="M1Jet_Pt" Type="F" Min="2.50000420e+01" Max="1.85689282e+03"/>
    <Variable VarIndex="13" Expression="M1Jet_Eta" Label="M1Jet_Eta" Title="M1Jet_Eta" Unit="" Internal="M1Jet_Eta" Type="F" Min="-2.39995146e+00" Max="2.39998937e+00"/>
    <Variable VarIndex="14" Expression="M1Jet_Phi" Label="M1Jet_Phi" Title="M1Jet_Phi" Unit="" Internal="M1Jet_Phi" Type="F" Min="-3.14157653e+00" Max="3.14159012e+00"/>
    <Variable VarIndex="15" Expression="M1Jet_btag" Label="M1Jet_btag" Title="M1Jet_btag" Unit="" Internal="M1Jet_btag" Type="F" Min="-2.00000000e+00" Max="1.00000000e+00"/>
    <Variable VarIndex="16" Expression="lep_ID" Label="lep_ID" Title="lep_ID" Unit="" Internal="lep_ID" Type="F" Min="-1.30000000e+01" Max="1.30000000e+01"/>
    <Variable VarIndex="17" Expression="lep_Pt" Label="lep_Pt" Title="lep_Pt" Unit="" Internal="lep_Pt" Type="F" Min="9.00030422e+00" Max="6.90302002e+02"/>
    <Variable VarIndex="18" Expression="lep_Eta" Label="lep_Eta" Title="lep_Eta" Unit="" Internal="lep_Eta" Type="F" Min="-2.39996958e+00" Max="2.39995408e+00"/>
    <Variable VarIndex="19" Expression="lep_Phi" Label="lep_Phi" Title="lep_Phi" Unit="" Internal="lep_Phi" Type="F" Min="-3.14155483e+00" Max="3.14152932e+00"/>
  </Variables>
  <Spectators NSpec="0"/>
  <Classes NClass="2">
    <Class Name="Signal" Index="0"/>
    <Class Name="Background" Index="1"/>
  </Classes>
  <Transformations NTransformations="1">
    <Transform Name="Normalize">
      <Selection>
        <Input NInputs="20">
          <Input Type="Variable" Label="LeadPho_Pt" Expression="LeadPho_Pt"/>
          <Input Type="Variable" Label="LeadPho_Eta" Expression="LeadPho_Eta"/>
          <Input Type="Variable" Label="LeadPho_Phi" Expression="LeadPho_Phi"/>
          <Input Type="Variable" Label="LeadPho_IDMVA" Expression="LeadPho_IDMVA"/>
          <Input Type="Variable" Label="SubleadPho_Pt" Expression="SubleadPho_Pt"/>
          <Input Type="Variable" Label="SubleadPho_Eta" Expression="SubleadPho_Eta"/>
          <Input Type="Variable" Label="SubleadPho_Phi" Expression="SubleadPho_Phi"/>
          <Input Type="Variable" Label="SubleadPho_IDMVA" Expression="SubleadPho_IDMVA"/>
          <Input Type="Variable" Label="bJet_Pt" Expression="bJet_Pt"/>
          <Input Type="Variable" Label="bJet_Eta" Expression="bJet_Eta"/>
          <Input Type="Variable" Label="bJet_Phi" Expression="bJet_Phi"/>
          <Input Type="Variable" Label="bJet_btag" Expression="bJet_btag"/>
          <Input Type="Variable" Label="M1Jet_Pt" Expression="M1Jet_Pt"/>
          <Input Type="Variable" Label="M1Jet_Eta" Expression="M1Jet_Eta"/>
          <Input Type="Variable" Label="M1Jet_Phi" Expression="M1Jet_Phi"/>
          <Input Type="Variable" Label="M1Jet_btag" Expression="M1Jet_btag"/>
          <Input Type="Variable" Label="lep_ID" Expression="lep_ID"/>
          <Input Type="Variable" Label="lep_Pt" Expression="lep_Pt"/>
          <Input Type="Variable" Label="lep_Eta" Expression="lep_Eta"/>
          <Input Type="Variable" Label="lep_Phi" Expression="lep_Phi"/>
        </Input>
        <Output NOutputs="20">
          <Output Type="Variable" Label="LeadPho_Pt" Expression="LeadPho_Pt"/>
          <Output Type="Variable" Label="LeadPho_Eta" Expression="LeadPho_Eta"/>
          <Output Type="Variable" Label="LeadPho_Phi" Expression="LeadPho_Phi"/>
          <Output Type="Variable" Label="LeadPho_IDMVA" Expression="LeadPho_IDMVA"/>
          <Output Type="Variable" Label="SubleadPho_Pt" Expression="SubleadPho_Pt"/>
          <Output Type="Variable" Label="SubleadPho_Eta" Expression="SubleadPho_Eta"/>
          <Output Type="Variable" Label="SubleadPho_Phi" Expression="SubleadPho_Phi"/>
          <Output Type="Variable" Label="SubleadPho_IDMVA" Expression="SubleadPho_IDMVA"/>
          <Output Type="Variable" Label="bJet_Pt" Expression="bJet_Pt"/>
          <Output Type="Variable" Label="bJet_Eta" Expression="bJet_Eta"/>
          <Output Type="Variable" Label="bJet_Phi" Expression="bJet_Phi"/>
          <Output Type="Variable" Label="bJet_btag" Expression="bJet_btag"/>
          <Output Type="Variable" Label="M1Jet_Pt" Expression="M1Jet_Pt"/>
          <Output Type="Variable" Label="M1Jet_Eta" Expression="M1Jet_Eta"/>
          <Output Type="Variable" Label="M1Jet_Phi" Expression="M1Jet_Phi"/>
          <Output Type="Variable" Label="M1Jet_btag" Expression="M1Jet_btag"/>
          <Output Type="Variable" Label="lep_ID" Expression="lep_ID"/>
          <Output Type="Variable" Label="lep_Pt" Expression="lep_Pt"/>
          <Output Type="Variable" Label="lep_Eta" Expression="lep_Eta"/>
          <Output Type="Variable" Label="lep_Phi" Expression="lep_Phi"/>
        </Output>
      </Selection>
      <Class ClassIndex="0">
        <Ranges>
          <Range Index="0" Min="3.5001068115234375e+01" Max="9.2747467041015625e+02"/>
          <Range Index="1" Min="-2.4998519420623779e+00" Max="2.4999923706054688e+00"/>
          <Range Index="2" Min="-3.1415688991546631e+00" Max="3.1415660381317139e+00"/>
          <Range Index="3" Min="-6.9985342025756836e-01" Max="9.8481476306915283e-01"/>
          <Range Index="4" Min="2.5000062942504883e+01" Max="4.0209991455078125e+02"/>
          <Range Index="5" Min="-2.4996874332427979e+00" Max="2.4999880790710449e+00"/>
          <Range Index="6" Min="-3.1415646076202393e+00" Max="3.1415588855743408e+00"/>
          <Range Index="7" Min="-6.9995492696762085e-01" Max="9.8379540443420410e-01"/>
          <Range Index="8" Min="2.5002630233764648e+01" Max="6.8034423828125000e+02"/>
          <Range Index="9" Min="-2.3997604846954346e+00" Max="2.3998112678527832e+00"/>
          <Range Index="10" Min="-3.1415648460388184e+00" Max="3.1415634155273438e+00"/>
          <Range Index="11" Min="-2.0000000000000000e+00" Max="1.0000000000000000e+00"/>
          <Range Index="12" Min="2.5000520706176758e+01" Max="7.4569659423828125e+02"/>
          <Range Index="13" Min="-2.3996305465698242e+00" Max="2.3999893665313721e+00"/>
          <Range Index="14" Min="-3.1415185928344727e+00" Max="3.1415696144104004e+00"/>
          <Range Index="15" Min="-2.0000000000000000e+00" Max="9.9992948770523071e-01"/>
          <Range Index="16" Min="-1.3000000000000000e+01" Max="1.3000000000000000e+01"/>
          <Range Index="17" Min="9.0003042221069336e+00" Max="5.5910083007812500e+02"/>
          <Range Index="18" Min="-2.3999695777893066e+00" Max="2.3998878002166748e+00"/>
          <Range Index="19" Min="-3.1415548324584961e+00" Max="3.1415271759033203e+00"/>
        </Ranges>
      </Class>
      <Class ClassIndex="1">
        <Ranges>
          <Range Index="0" Min="3.5001068115234375e+01" Max="1.5259804687500000e+03"/>
          <Range Index="1" Min="-2.4999885559082031e+00" Max="2.4999923706054688e+00"/>
          <Range Index="2" Min="-3.1415688991546631e+00" Max="3.1415660381317139e+00"/>
          <Range Index="3" Min="-6.9998937845230103e-01" Max="9.8508191108703613e-01"/>
          <Range Index="4" Min="2.5000062942504883e+01" Max="4.2114624023437500e+02"/>
          <Range Index="5" Min="-2.4999258518218994e+00" Max="2.4999880790710449e+00"/>
          <Range Index="6" Min="-3.1415736675262451e+00" Max="3.1415588855743408e+00"/>
          <Range Index="7" Min="-6.9999206066131592e-01" Max="9.8379540443420410e-01"/>
          <Range Index="8" Min="2.5000041961669922e+01" Max="1.8568928222656250e+03"/>
          <Range Index="9" Min="-2.3999514579772949e+00" Max="2.3999893665313721e+00"/>
          <Range Index="10" Min="-3.1415765285491943e+00" Max="3.1415901184082031e+00"/>
          <Range Index="11" Min="-2.0000000000000000e+00" Max="1.0000000000000000e+00"/>
          <Range Index="12" Min="2.5000041961669922e+01" Max="1.8568928222656250e+03"/>
          <Range Index="13" Min="-2.3999514579772949e+00" Max="2.3999893665313721e+00"/>
          <Range Index="14" Min="-3.1415765285491943e+00" Max="3.1415901184082031e+00"/>
          <Range Index="15" Min="-2.0000000000000000e+00" Max="1.0000000000000000e+00"/>
          <Range Index="16" Min="-1.3000000000000000e+01" Max="1.3000000000000000e+01"/>
          <Range Index="17" Min="9.0003042221069336e+00" Max="6.9030200195312500e+02"/>
          <Range Index="18" Min="-2.3999695777893066e+00" Max="2.3999540805816650e+00"/>
          <Range Index="19" Min="-3.1415548324584961e+00" Max="3.1415293216705322e+00"/>
        </Ranges>
      </Class>
      <Class ClassIndex="2">
        <Ranges>
          <Range Index="0" Min="3.5001068115234375e+01" Max="1.5259804687500000e+03"/>
          <Range Index="1" Min="-2.4999885559082031e+00" Max="2.4999923706054688e+00"/>
          <Range Index="2" Min="-3.1415688991546631e+00" Max="3.1415660381317139e+00"/>
          <Range Index="3" Min="-6.9998937845230103e-01" Max="9.8508191108703613e-01"/>
          <Range Index="4" Min="2.5000062942504883e+01" Max="4.2114624023437500e+02"/>
          <Range Index="5" Min="-2.4999258518218994e+00" Max="2.4999880790710449e+00"/>
          <Range Index="6" Min="-3.1415736675262451e+00" Max="3.1415588855743408e+00"/>
          <Range Index="7" Min="-6.9999206066131592e-01" Max="9.8379540443420410e-01"/>
          <Range Index="8" Min="2.5000041961669922e+01" Max="1.8568928222656250e+03"/>
          <Range Index="9" Min="-2.3999514579772949e+00" Max="2.3999893665313721e+00"/>
          <Range Index="10" Min="-3.1415765285491943e+00" Max="3.1415901184082031e+00"/>
          <Range Index="11" Min="-2.0000000000000000e+00" Max="1.0000000000000000e+00"/>
          <Range Index="12" Min="2.5000041961669922e+01" Max="1.8568928222656250e+03"/>
          <Range Index="13" Min="-2.3999514579772949e+00" Max="2.3999893665313721e+00"/>
          <Range Index="14" Min="-3.1415765285491943e+00" Max="3.1415901184082031e+00"/>
          <Range Index="15" Min="-2.0000000000000000e+00" Max="1.0000000000000000e+00"/>
          <Range Index="16" Min="-1.3000000000000000e+01" Max="1.3000000000000000e+01"/>
          <Range Index="17" Min="9.0003042221069336e+00" Max="6.9030200195312500e+02"/>
          <Range Index="18" Min="-2.3999695777893066e+00" Max="2.3999540805816650e+00"/>
          <Range Index="19" Min="-3.1415548324584961e+00" Max="3.1415293216705322e+00"/>
        </Ranges>
      </Class>
    </Transform>
  </Transformations>
  <MVAPdfs/>
  <Weights>
    <Layout NLayers="4">
      <Layer Index="0" NNeurons="21">
        <Neuron NSynapses="20">
          -2.6289628324739716e+00 -1.1378858692906229e+00 -2.6979333919760267e+00 -5.2262919731233257e+00 -3.7976252964738011e-01 -2.2387381634419388e+00 -5.1433386942799797e-01 9.2610462472632160e-01 5.4289076185193634e+00 -1.7214737352538541e+00 -4.2177441353891271e-01 4.1820891405192011e+00 7.3019619889606668e-01 -2.5527977886016018e+00 2.4534155653304333e+00 2.1037218683853900e+00 -2.0835924052712596e+00 6.2411072579391069e+00 3.2233307642942450e+00 2.4485034061126325e+00 
        </Neuron>
        <Neuron NSynapses="20">
          1.5788663619241591e-01 -3.8185219563523334e+00 -1.0299767047637789e-01 5.9901260135762739e-02 -7.3948793235548219e-02 -3.0559840214295642e-01 -9.4627658162886197e-01 -3.9096665429319977e+00 -1.8955863887037554e-02 -2.7154023240168512e-01 -8.7665696707816695e-02 -1.4637814319440237e-01 3.7152767628238978e-02 -1.8566642660911386e-02 4.9514291296300729e-02 2.3592685595228848e-02 -2.4814670926678861e-01 -1.4100466482802056e-02 6.2444607814518258e-02 3.7001895077621021e-02 
        </Neuron>
        <Neuron NSynapses="20">
          2.7224484818842221e-01 -1.1155804234027476e-01 1.9063155624442249e-01 -9.9384080402556807e-02 -7.5130372894409803e-01 2.6821336479407437e-01 1.1755756481872791e-01 -1.5918146934743655e-02 1.3274567721133902e-02 -4.7255966861376608e+00 1.8874461192157621e+00 2.3929728531969090e+00 -2.0064894066587358e+00 3.7700248974925153e-02 -2.9893728720649460e+00 -4.6848966578607802e+00 -4.1447535012524552e+00 3.1128958144160456e-02 5.3198872290444488e-01 -3.9137028313408955e+00 
        </Neuron>
        <Neuron NSynapses="20">
          1.1171617843767949e-01 -4.0947853070502138e-02 5.0645791326885178e-03 -1.9509318015338161e-06 -4.7672073817465035e-02 4.7328888578061487e-02 1.4228145498263008e-02 3.9347750965551063e-02 -3.2578994129890848e-02 -3.0339277647381167e-02 8.6560212876661529e-03 5.6385037501301624e-03 4.2798137498179512e-02 1.3001669934085230e-01 9.4935008145862171e-02 -1.7357223940406158e-01 -6.7561638992245793e-03 -1.5649887976985391e-01 5.5290396577473089e-02 -6.1780291806349648e-02 
        </Neuron>
        <Neuron NSynapses="20">
          -4.7409120011198230e-01 5.5327401437140278e-01 -4.3700499672671644e-01 -8.2338145469206359e-01 1.3445935864139921e-01 3.0558033605596047e-01 5.4558459498019540e-01 -4.4692488178728829e-01 1.1353558198659741e+00 2.2550950553210825e-02 7.5381106128520026e-01 -6.1357046806250768e+00 -1.3601798105779217e+00 -4.4216294429873310e-01 -2.3267968798579222e-01 6.3391216938340392e-02 6.0873523314661304e-01 4.3980554113683812e-01 2.7749518504090881e-01 1.6788363516577484e-01 
        </Neuron>
        <Neuron NSynapses="20">
          5.5819040799534467e-02 -2.2506941896629282e+00 -1.2222152803530067e-01 -1.0867269709146078e-02 7.7738341556706739e-02 1.0180775564536261e-01 -6.4858191973524315e-01 -2.2281782004226325e+00 -3.7473881612825208e-02 -2.4111229226737646e-01 -3.1472171778475187e-02 8.6861788493503109e-02 -4.6645847262403339e-02 7.9835882677360380e-03 -1.0435348141897939e-01 1.1233283118448836e-01 2.0633555546686680e-02 8.6006834740900956e-02 -9.8231542783761575e-02 2.2056215661944875e-01 
        </Neuron>
        <Neuron NSynapses="20">
          -3.1042447735122498e-02 -7.1708893908663529e-02 -3.7162892141497351e-02 -7.2658713641009190e-02 9.6763092033015891e-02 5.3739523927561157e-02 4.1585567255677171e-02 8.1980379390553221e-02 -1.7702685217033218e-01 -1.3924304173092489e-01 -8.1779322347204342e-01 -5.8848343816011006e+00 4.8205314050329138e+00 2.6867524195079730e-02 -2.3319738265405923e-01 -1.0125317247673184e-01 -2.1876597038921508e-01 6.0946903696886968e-02 -7.8196832619096224e-01 -1.0325571141878333e-01 
        </Neuron>
        <Neuron NSynapses="20">
          5.7777420652101973e-02 4.2880083860828026e-02 -4.4699839138276465e-02 6.0607338984271925e-04 -1.0472324982665979e-01 -7.0329776503757879e-02 4.8882576948209661e-02 8.7570423736560042e-04 -3.4197173860074648e-02 -8.5132336380549151e-02 3.9143671537058824e-03 -1.3365994376095983e-01 3.1977335863639093e-02 3.5478167587041511e-02 1.0899436213951218e-01 -5.4142677272457480e-02 -1.0874896019073918e-03 -1.6633667431542160e-01 9.7766588747493818e-02 -9.0223903606452216e-02 
        </Neuron>
        <Neuron NSynapses="20">
          1.0956408424195359e+01 1.1315149880852899e+00 1.0890293187292052e+01 -2.4379346600094784e-01 2.3834128401197598e+00 -2.7840722308765247e+00 -9.8162183024831096e-01 -1.5439321793609400e+00 -3.2353816911733368e+01 -1.5517007202378852e+00 -5.5385728905158604e-01 2.3662352832473261e+00 -6.4025422832184964e-01 -2.2176801841537963e+00 9.1562430016698182e-01 1.6278543286425025e+00 -5.9039963446507226e-01 1.1730264178592394e+01 2.7011026781958187e+00 -4.4949537830207698e+00 
        </Neuron>
        <Neuron NSynapses="20">
          -5.9012427414051958e+00 -5.0128814551897015e-02 5.8964102426538698e+00 -3.3127382336164440e-02 -1.1133907010448588e-01 3.3044452690137290e-02 5.0373472528012009e-01 -2.1851656136653477e-02 5.1267833099331875e-02 -2.8197953355081639e-02 8.6361237345807015e-02 -1.1332149294319480e-01 4.2463947205957482e-02 -2.1472396427686814e-02 6.2185038590327535e-02 9.1103883864406390e-02 5.4526913087434891e-03 1.5448505474815768e-02 -2.2660934787361631e-02 -1.0620236329183932e-01 
        </Neuron>
        <Neuron NSynapses="20">
          -2.6373775090954284e-02 -5.8867045831045774e-02 -5.0478751799803080e-02 -2.0920406154638711e-02 1.1387570841883039e+00 3.8848316454972465e+00 -1.1799355991674848e-01 1.8781781382762337e-02 3.4369790798119209e-04 -1.3971840603210320e-01 -6.3856397130757178e-02 2.5453066185716456e-02 -1.3331135618418899e-02 -1.0942995479072419e-01 4.8655107933009015e-03 4.8922531768832691e+00 -2.2293923725159343e-02 -2.2342709866952740e-01 4.7102309321530883e-01 4.1556946911464498e+00 
        </Neuron>
        <Neuron NSynapses="20">
          -4.8127084392592598e+00 -2.5262084745828185e-02 -4.1529720410572484e+00 8.3429648356107972e-02 1.6691289334187449e+01 6.5536559047175413e-01 -5.0723387402396521e-02 -6.9979601470649341e-03 -2.5258642769593758e+00 -2.3848096756299370e-01 5.0165105632656737e-01 -3.0719936387893858e-03 -5.7901037882909914e-02 -3.8862408142155569e-01 3.0517983236695501e-01 -6.3821862482552794e+00 1.7175123488467611e-01 -8.6609693528889320e-01 -7.3097679552036932e-01 -4.5447285634524688e+00 
        </Neuron>
        <Neuron NSynapses="20">
          -2.0111019845552800e+00 8.6007348581821290e+00 -2.6050249785691846e+00 -3.6923496045194319e+01 -3.5309218288179511e-01 -4.4947174906828771e+00 -1.7217031202336457e+00 -8.6980206142676106e+00 1.6751269432963237e+01 -3.3611632455713525e+00 8.6615362489757097e-01 1.7074630134618807e+00 2.4409500966880775e+00 6.9925713969613161e+00 6.4622429287919649e+00 -3.8267614805688601e+00 4.1523883552745239e-01 -3.7193350229971984e+00 7.4103760749398466e+00 2.8911207626832924e+00 
        </Neuron>
        <Neuron NSynapses="20">
          2.6026555841293753e-01 5.8851245190636465e+00 -1.7908872018081370e-01 -4.2051683678598746e-02 -4.1516568243822362e-02 -5.8544413054355766e-02 -1.0999882561348728e+00 5.8501424231930788e+00 2.5864119509574329e-02 5.2592831517474459e-01 -3.1503830071520661e-02 9.1057608511113372e-02 5.8013106245729347e-04 5.1348263669196148e-02 -5.3115464945671126e-02 -1.3095443782839414e-01 1.1945917729678852e-01 -8.5030031816095503e-02 8.0488321791281590e-03 -2.0540254959164331e-01 
        </Neuron>
        <Neuron NSynapses="20">
          -2.1589999433132123e-01 1.7240090961978324e-01 -1.6256730361768351e-01 1.5992718638904546e-01 -2.3642779141665193e-01 -4.4755898785903483e+00 -3.1933902944711851e-01 -2.4836542689126363e-02 2.2896664298338162e-01 5.6377470258067861e+00 -9.3458507099349786e-01 3.3902810241958896e+00 -2.8254983004127823e+00 4.1621084631188125e-02 3.1913266360351074e+00 -3.9091470692265880e-02 4.4422942533234515e+00 1.6750268042795391e-01 -3.4079936333784944e-01 -2.1065114236494764e-01 
        </Neuron>
        <Neuron NSynapses="20">
          -5.4516056268939697e-02 -2.1572782653475397e-01 6.6998929469061066e-02 -7.3676225441163595e-03 -1.8196763266816485e-01 -1.2382174090873672e-01 -1.0292668260288440e+00 2.5570727874483096e-01 1.9285130601169667e-01 -3.2123599231355528e-02 1.4878475265454011e-01 -1.4079295082726184e-02 2.7945883860222544e-02 2.0804862890898633e+01 1.1997984333783084e-01 2.6614315364580743e-01 -6.1963457191401401e-02 -1.2488629006806891e+00 -2.5282142704572247e-01 3.0899068219034032e-02 
        </Neuron>
        <Neuron NSynapses="20">
          -2.7003374939302986e-02 3.7714549502855660e-03 -2.3707136053997376e-02 8.1011265840291013e-03 -2.7662492827927258e-02 4.2190334743188659e-02 -4.3177107962526966e-04 -2.6154602237707228e-02 3.1372203419571683e-03 -3.4267664745582906e-04 -2.7913474744689711e-03 2.1430665771188129e-02 -1.4843138013369483e-02 -3.1873424116571389e-02 -3.6304666657700394e-04 1.7930838113082923e-02 -7.2918072703835142e-03 -1.9890826586058050e-02 1.9003177957126714e-02 1.7737642285439760e-02 
        </Neuron>
        <Neuron NSynapses="20">
          4.0382228645045419e+00 4.0076107203978223e-01 4.0420766187762869e+00 -2.3927471502991970e-01 9.9872922779240381e-01 4.8843623140130063e-03 -1.5843503742142444e+00 -4.1301824836465739e-01 -1.9639410819740324e+00 -8.8532518793204978e-02 2.7463062328809601e-01 2.2810136055700164e-01 -6.5984371689528781e-02 -3.6954596719297787e-02 1.2876430358223295e-01 -5.9838588731341652e-02 9.9365343929941861e-03 3.2004443850673225e+00 -1.7020218203196702e-01 -7.1029206689325008e-01 
        </Neuron>
        <Neuron NSynapses="20">
          4.7568264193119187e+00 2.9913048865482423e-02 -4.7927334000120432e+00 4.4192663813505284e-02 -2.0034578235078187e-02 5.9662004825641157e-02 7.2130316247844883e-01 -1.9069268221115824e-02 -4.3850952339340256e-02 7.7469304000391537e-02 -1.5151466168538893e-02 8.7036961906408639e-02 -1.2051597669957387e-02 1.6818324868693973e-02 -6.7319261878516252e-04 -1.5163413149925140e-01 -1.6489622429041097e-02 -5.5645570711466058e-02 3.9021102771574855e-02 -7.1116458400738200e-02 
        </Neuron>
        <Neuron NSynapses="20">
          -5.9888825941933531e-02 1.0596856577222492e-02 -3.1219966316007063e-02 3.6427590873030651e-03 -4.0637742576048810e-02 6.1116301817634347e-02 1.9115158366013834e-02 -1.3284148881015864e-02 4.7200957265576037e-03 7.2073146636094515e-02 1.5522739199766931e-02 -1.2377089301499798e-02 2.1287308446832676e-02 1.0054563705725836e-02 -2.5122534697112144e-02 7.3373250015504876e-02 5.4066183851496294e-02 1.2523411275438269e-02 -6.9834366610572018e-02 -2.8588975677744505e-01 
        </Neuron>
        <Neuron NSynapses="20">
          5.5380755707179272e+00 5.7888591376256668e+00 4.9561053558987025e+00 -4.3625805299333038e+01 -2.4478979836971435e+00 -1.0658957568858018e+01 1.2589794264904253e+00 -6.4195877573797109e+00 -1.0671690981017578e+01 1.9751880430401008e+00 7.8656871411677831e-01 -7.6974711636876370e-01 1.9516598230875670e+00 -1.9844945884973299e+01 8.5820932524893525e+00 4.3205829407807608e+00 -8.1474726727207880e+00 1.7843390108069876e+01 1.3110038775839904e+01 -3.5184177172555602e+00 
        </Neuron>
      </Layer>
      <Layer Index="1" NNeurons="21">
        <Neuron NSynapses="19">
          -1.4974422360760915e-02 2.8526673813013375e+00 -1.0555508333007653e+00 -1.8695346760192260e+00 -2.2524297293256601e+00 -7.2490653619947993e+00 1.8691287492355595e+00 -2.0191449070207259e+00 -4.1252180463060757e+00 2.2092831841872025e+00 -1.0590403102647295e-02 -1.2883078643847314e+00 5.7488179637647630e-01 -1.9699209193631180e+00 -1.0607531669565302e+00 4.0368647643927957e+00 6.1487595504049422e+00 -1.7539499158369423e+00 -3.6525210052590280e+00 
        </Neuron>
        <Neuron NSynapses="19">
          -2.6749781613714430e-01 -8.8470593260242814e-02 4.4884033090286461e+00 -6.2209586694453478e-01 -1.6923660981457054e+00 2.1167905811347216e+00 -3.3751763821598568e-01 5.9139743649548249e-01 -9.0200827907953596e-01 -2.5951187999722984e+00 -8.8641855748423692e-01 8.6046227385632061e+00 -1.7992595259289179e+00 9.4138819330627033e-01 8.7845419863681258e+00 -1.3197455218201515e+00 -5.5916492408780671e-01 -1.1550177352628730e+00 5.1330925280971771e+00 
        </Neuron>
        <Neuron NSynapses="19">
          2.1962442181939066e+00 7.2591334807365926e-01 -1.2362055191873553e+00 -3.4395434710125616e-01 -2.2679339832526924e+00 -4.4525716246643716e+00 1.9439682170886414e+00 -3.1663016566616378e+00 -4.0494387789123305e+00 1.2325995601837196e+00 -8.7737531486155540e-02 -7.9940031987518556e-01 6.9051176863649055e-01 -5.0590653904240535e-01 -9.2928867016682615e-01 3.4723910189385738e+00 6.1477177119273598e+00 -2.1711336642206640e+00 -2.6607110708047816e+00 
        </Neuron>
        <Neuron NSynapses="19">
          -1.3383385915027630e+00 7.2432891153745890e-02 -1.0313205309144815e+01 -9.3177927074845146e-01 6.1237371451567491e+00 -6.7728316689588786e+00 1.2271022363543662e+00 -4.5673799623170694e+00 -3.2515695871592074e+00 -3.7814442270091604e+00 -1.2410759848566917e+00 -1.3982682149041496e+01 4.2419963133358385e+00 7.4083150590740909e-01 -1.6661575080263816e+01 6.9146799966446237e-01 1.3965331282596145e+00 -2.6647426194321095e+00 -1.0767311226763480e+01 
        </Neuron>
        <Neuron NSynapses="19">
          -2.9734544545951530e-01 -2.7218859535493678e+00 5.9739091657551591e-01 3.8610531242643392e-01 -3.2460762903864598e-01 1.8695388399017578e+00 6.1368457216882959e+00 4.5411306677862031e+00 2.4662400108233524e+00 -8.9140680784823101e-01 1.8887607044711912e+00 -1.1759896800206572e-01 -2.8767274272412341e-01 -6.3848963570616993e-02 2.6511861777486684e-02 -4.4891491928226070e+00 -8.1909088965275973e+00 -3.8229908090238824e+00 1.0560817280687667e+00 
        </Neuron>
        <Neuron NSynapses="19">
          -7.3825940809886637e-01 -2.0425158293119865e+00 -1.5241125118112639e-01 3.4251750636859135e-01 9.7557993264787513e-01 6.2460524120583538e-01 -7.1065416119316216e-01 4.0318480579691451e+00 -1.1236635805565832e-01 3.4404878830172545e+00 1.1465394879420816e+00 -7.1804120327799281e-01 2.9822491758752476e+00 -1.4912596279396968e+00 2.6476838056040036e-01 -1.3108306065853874e+00 4.5375973821670063e-01 -3.4239084413915837e+00 1.6496660667703913e-01 
        </Neuron>
        <Neuron NSynapses="19">
          -9.4617338728517841e-01 2.4329505612986582e+00 -2.4697668860233999e+00 -1.2129629177424004e+00 -9.1093364852619235e-02 2.9853337797140106e-01 -3.9687856944053319e+00 -2.6887969580440054e+00 -1.2272787106209664e+00 -2.4870327484792383e+00 4.0256031255055119e-01 1.0703072213456886e+00 1.7943805944801448e+00 3.0880366566507150e-01 8.1808106462358268e+00 -1.3417835132910632e+00 -1.1969965225113932e-01 2.2850318359491371e+00 -2.3618544011506928e+00 
        </Neuron>
        <Neuron NSynapses="19">
          -1.9930538457704299e+00 1.4923353492127986e+00 -4.7006329137738048e+00 -6.7417335754411079e-01 1.4398729639902574e+00 -2.4479994815066983e+00 3.7761208163090099e-01 -5.7900584164679159e-01 6.4989324568965545e-01 1.8692443965045955e+00 1.0619361393104869e+00 -9.2396216301352663e+00 1.1919915834028956e+00 -1.3093770755378979e+00 -9.4248493425126956e+00 1.6283675009408871e+00 -1.4687060144079525e+00 1.0724091042122919e+00 -5.8463891737578217e+00 
        </Neuron>
        <Neuron NSynapses="19">
          -2.5340421870852647e-01 8.7501361438920311e-01 3.9147809316319748e-01 -1.0545960440493085e+00 5.2638619298674865e+00 -5.0541604623457481e-01 -2.7865020248384664e+00 -1.8839809986794944e+00 -6.6483364708636845e+00 -4.0870667657767425e+00 1.0583607159852915e+00 -1.0564744531550248e+00 -5.0084236973637641e-01 -2.0051985193995647e+00 -8.7171031198037474e-01 -3.4888714011496300e+00 -1.5791219253685176e+00 -2.5052126395999634e+00 -8.1653863924005743e-01 
        </Neuron>
        <Neuron NSynapses="19">
          9.3566088550142465e-02 6.4309853146737289e-02 -9.1603762022058277e-01 -1.9225384615040493e+00 -8.6037110032251063e-01 2.6290669490612411e+00 -2.1071910350670670e-01 -2.2848292073334866e+00 -1.2255454633577771e-01 -6.2870384423074144e-01 1.3921670404474875e+00 4.8989418322878553e+00 -8.4464491863989117e+00 2.6572433100300170e+00 3.1676699158798867e+00 -1.9845639434318243e+00 -2.9963285585899659e+00 -2.3795880887552929e+00 2.9180773201440400e+00 
        </Neuron>
        <Neuron NSynapses="19">
          -3.8813082619224193e-01 1.7228103162017694e+00 6.5449974182560284e+00 -2.2940424317833524e-01 -5.3590920818775445e-01 -4.6594130561756195e+00 -1.7736614089742158e+00 2.3481162941077742e+00 2.0322098204113814e+00 -2.5973371407098442e+00 1.5970456445094923e+00 4.1343299535420108e+00 2.8465224851114566e+00 -1.6026291102268759e+00 -9.9431587961145240e+00 1.6435251191472873e+00 -2.6792702233946908e-01 2.9537948829574270e+00 4.5578690132959485e+00 
        </Neuron>
        <Neuron NSynapses="19">
          -2.0844712472715657e-01 -2.0605512399856085e+00 4.9980943996624703e+00 8.2639895461636426e-01 -2.9846666931563909e-01 -1.6626121583971096e+00 -6.3969577564446189e-01 -8.8969644112053414e-01 -3.8171933834724364e-01 5.1022522306897233e-01 -1.8098875356618445e+00 3.4639355657729203e+00 4.4004160699060041e-01 2.0040325903369522e+00 -1.0176429170707619e+00 3.4747294062156631e-01 -2.6595938436935235e-01 -5.0541822316151930e-01 3.0216432836698823e+00 
        </Neuron>
        <Neuron NSynapses="19">
          -3.8587721632877459e-01 2.0695659188414099e+00 6.6184642119018182e+00 -1.0491032856478393e+00 -7.7284255464141016e-01 -3.9658582777940787e+00 -5.9746279943242475e-01 1.3918239503788339e+00 -3.3138128203215167e-01 1.4957555919845048e-02 5.7895973985405347e-01 4.7938715315611669e+00 2.8407099067590769e-01 2.2825279244204205e-01 -6.6422632400170922e+00 4.0562830381428255e-01 -8.1652608243017988e-01 -6.0885388703428689e-01 4.8247749246212202e+00 
        </Neuron>
        <Neuron NSynapses="19">
          1.6979829504647859e+00 2.7624781556850757e+00 3.6746567809628057e+00 -1.8779464033291087e+00 4.1785158724819471e+00 -3.1576272505959886e+00 3.1712043337967986e+00 -3.1747672834600693e+00 -3.5548909711725312e+00 4.7873769981992481e-01 -6.0647862802582841e-01 -6.7142545660765984e-01 -3.1950110743646101e+00 -5.2641200286938377e+00 6.1848153495112479e-01 8.8162582327628431e+00 -2.4330970571661230e+00 6.2487908783803681e-01 4.6937599198130772e-02 
        </Neuron>
        <Neuron NSynapses="19">
          1.2574611271217254e-01 6.3533463103464738e-01 -1.3161472326055062e+01 -1.8417070295870257e+00 -8.4740564870246937e-01 4.8811044482311345e+00 -6.2371584680700121e-01 5.5351226224345806e+00 5.0032901658959561e-01 1.9924448737011799e-01 1.2106302559988296e+00 -5.4766156992419255e+00 -7.0429774601163899e+00 -3.6859590927208568e+00 5.1130285290523849e+00 -1.3094699089000139e+00 3.3118745943998873e-01 -4.7770762909087633e-01 -5.4895804683377838e+00 
        </Neuron>
        <Neuron NSynapses="19">
          -7.7533313025426198e-01 -2.8603581709233556e+00 -6.2884268914596442e-01 3.7075161710424642e-01 -8.2493668629582040e-01 -3.3971333823091698e-01 4.4202960553409545e+00 -1.5880855669214117e-01 3.9151771391049017e-01 9.4212579222196280e-01 4.2902299314378839e-01 2.6427814839920943e-01 -1.0696811079012760e+00 1.9650096344812555e+00 2.8134477262169166e-01 3.0796399230074116e+00 5.3596937191401848e+00 -5.5064253485206045e+00 -4.7057067663256053e-01 
        </Neuron>
        <Neuron NSynapses="19">
          1.4970536655997728e+00 -1.1272435047378437e+00 -1.3198694675604223e+00 -3.5145701548412372e-01 2.6795641760201716e-01 -4.4069022439822074e+00 2.1215392607565304e+00 -2.2169268668597679e+00 7.4073003093462531e-01 3.6210640836975894e+00 1.8926894483211826e-01 9.2340568691547026e-02 -6.5398042424700598e-01 2.8550058755793186e+00 -9.2667253787585508e+00 6.5506394179982264e-01 -3.0933654312045700e-01 -5.1964792692028094e-01 2.3543678273911381e+00 
        </Neuron>
        <Neuron NSynapses="19">
          -1.0578161707773955e-01 2.3865701107912640e+00 -2.9739303774237169e-01 8.2436060839335390e-01 1.0517077865602436e+00 3.5153186761462271e-02 1.4656292127029971e+00 -7.5344907555103077e-02 -4.0695096414750234e+00 1.9205268327266158e+00 1.1412506841361363e+00 -1.7103745462554072e+00 -2.1983127326781275e+00 -1.7580683937968575e+00 -9.3167841638118287e-01 3.4842822289306770e+00 2.8302326801525057e-01 8.7463079506522468e-01 -5.9070518126237026e-01 
        </Neuron>
        <Neuron NSynapses="19">
          -1.7387600233897910e-01 -8.6213206951942851e+00 2.5974651590371276e+00 1.3704233683196643e-02 -2.1039114060655026e+00 -2.0769767972407913e+00 2.3696262338676504e+00 2.7832286746676466e-01 -3.3539982183231132e+00 1.1575667252952788e+00 9.8285352079605526e-01 2.4978285993046687e+00 3.4607275283944589e-01 -4.1533467445243337e+00 -5.0369685763692749e+00 1.1468161078884338e-01 -1.3575421705247528e+00 8.3523647833478176e-01 2.8963659727974682e+00 
        </Neuron>
        <Neuron NSynapses="19">
          9.9866358087820395e-01 -5.5243015054934408e-01 6.1485125738169988e-01 -8.4864967639145061e-01 -3.7368563782639219e-01 -2.0032591047700912e+00 4.1519550215121024e+00 -5.7029547671912140e-01 -4.8032974142967912e+00 2.7406653883587118e+00 -1.3640223711237589e+00 -3.8195991418957020e-01 2.4736003566992765e-01 1.0644776926557507e+00 6.9326816920477852e-01 3.2432121622070720e+00 -2.3104407275777486e-01 -7.5944496581803120e-02 -2.0950829303634193e+00 
        </Neuron>
        <Neuron NSynapses="19">
          1.0651143211442375e+00 3.8991179801423779e+00 -1.3442815417620144e+00 -1.1429890133104581e+00 -2.2057750568123677e+00 1.8325196140348676e+00 -3.0083280328735120e+00 -4.5995021214699099e+00 -4.0073426571451271e-01 -1.4451290590227350e+00 1.7044025063704291e+00 -1.8554369108755491e+00 9.8334091720518668e-01 2.0032108671776716e+00 5.6191918932408980e+00 -4.2108054081588842e-01 -2.7444913033328611e+00 1.2617767344336412e+00 -4.7302341458212699e-01 
        </Neuron>
      </Layer>
      <Layer Index="2" NNeurons="20">
        <Neuron NSynapses="1">
          -1.1020006447050803e+00 
        </Neuron>
        <Neuron NSynapses="1">
          -1.1380891156427324e+00 
        </Neuron>
        <Neuron NSynapses="1">
          -3.3530659818241610e+00 
        </Neuron>
        <Neuron NSynapses="1">
          -7.4343554655343317e-03 
        </Neuron>
        <Neuron NSynapses="1">
          -4.5408575449463369e+00 
        </Neuron>
        <Neuron NSynapses="1">
          4.5479418147131909e+00 
        </Neuron>
        <Neuron NSynapses="1">
          -1.9859850019246255e+00 
        </Neuron>
        <Neuron NSynapses="1">
          1.3648708173373463e+00 
        </Neuron>
        <Neuron NSynapses="1">
          5.0659629582535199e+00 
        </Neuron>
        <Neuron NSynapses="1">
          1.7213784482449368e+00 
        </Neuron>
        <Neuron NSynapses="1">
          6.4832876600183187e-01 
        </Neuron>
        <Neuron NSynapses="1">
          -7.4101017594791907e+00 
        </Neuron>
        <Neuron NSynapses="1">
          8.9608375318440414e-01 
        </Neuron>
        <Neuron NSynapses="1">
          1.7909069319034683e+00 
        </Neuron>
        <Neuron NSynapses="1">
          -6.9374989591171410e+00 
        </Neuron>
        <Neuron NSynapses="1">
          -4.2909654190578248e+00 
        </Neuron>
        <Neuron NSynapses="1">
          7.2330300580475928e+00 
        </Neuron>
        <Neuron NSynapses="1">
          1.8038731001843413e+00 
        </Neuron>
        <Neuron NSynapses="1">
          6.1664510151086089e+00 
        </Neuron>
        <Neuron NSynapses="1">
          1.9118554856665573e-01 
        </Neuron>
      </Layer>
      <Layer Index="3" NNeurons="1">
        <Neuron NSynapses="0"/>
      </Layer>
    </Layout>
  </Weights>
</MethodSetup>
